tree
version=v4
num_class=1
num_tree_per_iteration=1
label_index=0
max_feature_idx=12
objective=regression
feature_names=brand old new cpu cpu_brand ram_capacity ram_brand hard_drive_type hard_drive_capacity card card_brand screen_size screen_type
feature_infos=[0:9] [0:1] [0:1] [0:352] [0:5] [0:13] [0:8] none [0:6] [0:191] [0:5] [0:43] [0:20]
tree_sizes=2836 2750 2750 2751 2738 2725 2720 2714 2705 2710 2711 2718 2724 2709 2699 2712 2706 2728 2709 2714 2718 2722 2729 2709 2735 2629 2547 2714 2553 2561 2478 2738 2475 2722 2069 2722 2562 2461 1659 1901 2559 2309 1391 2717 2722 2312 2076 2717 2477 1070 2064 2732 1900 2552 1220 2231 1219 1318 2717 2735 1819 2633 2304 1052 2718 2138 1911 2398 2706 988 1569 1063 1228 2643 1317 2718 2720 1063 1900 1399 1985 1404 1736 1895 2717 1405 1391 1397 1900 1742 2059 1480 2712 2062 1470 1558 2639 1563 1399 2724 1401 1243 1965 1071 1982 1411 1403 1568 1147 1885 2309 1396 2062 2727 1485 1567 1232 1072 1744 1660 978 2741 1315 2234 2548 1233 1885 2738 1817 1565 1813 2145 1651 1657 1316 1898 2400 1563 2719 2557 1232 1892 1402 1898 1490 1473 1068 1491 2706 1488 1557 1154 1735 2066 1059 2299 1978 1659 1647 1316 2230 2391 1154 1645 1499 1154 1975 1724 1312 1568 1733 1985 1980 2719 2697 2066 1401 1074 2066 1651 2213 982 2717 1819 1398 1059 1312 2062 2240 1400 1996 1403 1410 2318 2211 2717 2301 2716 1570 1993 2550 1894 1650 2475 2475 1064 2389 2408 2566 1817 2142 2736 2719 1478 2725 1235 993 2639 2708 2650 1561 1474 1407 1317 1556 2325 2137 1648 2488 1145 2732 1840 1736 2732 1660 1636 2721 1970 2223 2071 1732 2732 2737 1562 1900 2726 2737 1310 2224 2741 2750 1394 2742 906 2138 1073 2729 1404 1245 2648 1489 2725 1488 2560 2562 1735 1648 1563 982 1488 1568 1154 1482 1650 2382 2232 2377 1148 1806 2737 2234 1816 2746 1235 2380 1405 1233 1481 1153 2739 2727 2725 1302 1971 1801 1154 2639 2139 2060 1903

Tree=0
num_leaves=31
num_cat=0
split_feature=5 9 9 5 1 11 12 8 8 3 3 6 8 12 3 3 11 3 3 8 11 3 9 0 3 6 3 3 9 12
split_gain=1.0804e+17 3.29073e+16 1.52779e+16 1.31152e+16 1.25175e+16 1.21165e+16 8.71969e+15 8.00701e+15 5.1107e+15 5.0186e+15 6.46381e+15 4.51168e+15 4.21389e+15 3.17326e+15 3.03826e+15 2.96972e+15 2.59621e+15 2.45362e+15 3.35295e+15 2.44805e+15 2.371e+15 1.71883e+15 1.69036e+15 1.67712e+15 1.5594e+15 1.13124e+15 1.15242e+15 1.57078e+15 9.67201e+14 9.65901e+14
threshold=4.0000000000000009 96.500000000000014 109.50000000000001 2.5000000000000004 1.0000000180025095e-35 17.500000000000004 12.500000000000002 4.0000000000000009 2.5000000000000004 150.50000000000003 102.50000000000001 1.0000000180025095e-35 4.0000000000000009 12.500000000000002 285.50000000000006 275.50000000000006 7.5000000000000009 136.50000000000003 75.500000000000014 4.0000000000000009 17.500000000000004 201.50000000000003 113.50000000000001 3.5000000000000004 119.50000000000001 1.0000000180025095e-35 115.50000000000001 128.50000000000003 117.50000000000001 11.500000000000002
decision_type=2 2 2 2 2 2 2 2 2 2 2 2 2 2 2 2 2 2 2 2 2 2 2 2 2 2 2 2 2 2
left_child=1 3 12 21 7 11 9 8 20 10 -5 -3 17 -14 29 -11 -8 18 -2 -13 -4 -1 -16 -22 -12 -18 -27 -28 -9 -7
right_child=2 5 4 6 -6 14 16 28 -10 15 24 19 13 -15 22 -17 25 -19 -20 -21 23 -23 -24 -25 -26 26 27 -29 -30 -31
leaf_value=27446757.087795734 29086496.22487475 27829317.226551577 30635023.769282643 27954600.282800008 28576496.221600939 29398123.198051833 29764508.498463459 29507448.600172367 32977353.496898558 27860707.028321717 28686531.418805908 29630400.980152525 28754849.073542781 30133212.594168227 30049476.239592489 28495210.109216854 28152774.317124747 29310208.001026064 30478897.597961482 28762503.550088424 32388784.37737475 27975945.421333082 31180943.034385618 31319443.427602023 29361307.844451953 28567200.990874749 29505025.979432039 28743056.896850556 30436734.3303435 29997106.405398004
leaf_weight=193 21 41 38 97 21 72 31 21 21 330 69 45 61 23 31 95 25 38 98 117 20 90 23 55 68 75 48 62 24 43
leaf_count=193 21 41 38 97 21 72 31 21 21 330 69 45 61 23 31 95 25 38 98 117 20 90 23 55 68 75 48 62 24 43
internal_value=2.88586e+07 2.84668e+07 3.02401e+07 2.82088e+07 3.08862e+07 2.92871e+07 2.83955e+07 3.11572e+07 3.15448e+07 2.82073e+07 2.85792e+07 2.87664e+07 2.97039e+07 2.91323e+07 2.99126e+07 2.80025e+07 2.89102e+07 3.00098e+07 3.02332e+07 2.90036e+07 3.12785e+07 2.76151e+07 3.05314e+07 3.16046e+07 2.90215e+07 2.87841e+07 2.88695e+07 2.90756e+07 3.00031e+07 2.96221e+07
internal_weight=0 1555 441 1183 200 372 900 179 134 659 234 203 241 84 169 425 241 157 119 162 113 283 54 75 137 210 185 110 45 115
internal_count=1996 1555 441 1183 200 372 900 179 134 659 234 203 241 84 169 425 241 157 119 162 113 283 54 75 137 210 185 110 45 115
is_linear=0
shrinkage=1


Tree=1
num_leaves=31
num_cat=0
split_feature=5 9 9 9 5 11 12 1 11 8 9 6 3 3 3 3 6 11 12 0 3 8 3 9 3 9 6 6 12 0
split_gain=8.75123e+16 2.66549e+16 1.2702e+16 1.29951e+16 1.06233e+16 9.81433e+15 7.07174e+15 6.56868e+15 5.86351e+15 4.99262e+15 3.86548e+15 3.65446e+15 3.27512e+15 3.25826e+15 2.7044e+15 2.46099e+15 2.457e+15 2.4412e+15 2.06455e+15 2.04088e+15 2.14922e+15 1.98292e+15 1.94979e+15 1.40157e+15 1.39226e+15 1.36919e+15 1.28648e+15 1.22915e+15 1.17459e+15 1.09923e+15
threshold=4.0000000000000009 96.500000000000014 117.50000000000001 128.50000000000003 2.5000000000000004 17.500000000000004 11.500000000000002 1.0000000180025095e-35 7.5000000000000009 4.0000000000000009 72.500000000000014 1.0000000180025095e-35 151.50000000000003 119.50000000000001 152.50000000000003 285.50000000000006 1.0000000180025095e-35 21.500000000000004 12.500000000000002 1.5000000000000002 120.50000000000001 4.0000000000000009 75.500000000000014 99.500000000000014 201.50000000000003 113.50000000000001 6.5000000000000009 1.0000000180025095e-35 12.500000000000002 3.5000000000000004
decision_type=2 2 2 2 2 2 2 2 2 2 2 2 2 2 2 2 2 2 2 2 2 2 2 2 2 2 2 2 2 2
left_child=1 4 9 -4 24 11 12 17 -8 10 14 -3 13 27 22 -7 -10 -5 23 -18 -21 -13 -2 -11 -1 -17 28 -6 -24 -12
right_child=2 5 3 7 6 15 8 -9 16 18 29 21 -14 -15 -16 25 19 -19 -20 20 -22 -23 26 -25 -26 -27 -28 -29 -30 -31
leaf_value=-1270652.9116418394 205112.29642857146 -926348.78353658551 3276199.730769231 1140567.0251838237 -1357960 687147.44898097822 959083.22073863633 -253887.70580357141 -606869.73947061575 -318577.92494549422 2305349.8814814813 694626.57788194448 -911755.14318953815 305369.20937500003 -146475.34545454546 1071794.3330645161 -559367.95575597428 2306938.986184211 1128452.7739583335 -324745.00685975607 335121.45607358869 -86481.126028311963 1564390.585 514957.2210115132 -794383.41875000007 2090114.3391304349 1747413.3102678573 -499188.51114062499 587481.13698730466 1450700.0481617646
leaf_weight=193 21 41 52 34 20 115 44 21 134 43 27 45 276 52 22 31 68 38 24 82 124 117 20 38 90 23 35 100 32 34
leaf_count=193 21 41 52 34 20 115 44 21 134 43 27 45 276 52 22 31 68 38 24 82 124 117 20 38 90 23 35 100 32 34
internal_value=0 -352621 1.24337e+06 2.01016e+06 -584789 385698 -416750 1.30227e+06 -137681 867744 1.17225e+06 -82957.6 -698311 -355807 864089 948640 -255960 1.75615e+06 313832 -84346.9 72456.2 130493 1.06994e+06 72463.3 -1.11919e+06 1.50552e+06 1.2787e+06 -642317 963216 1.82899e+06
internal_weight=0 1555 441 145 1183 372 900 93 452 296 191 203 448 172 130 169 408 72 105 274 206 162 108 81 283 54 87 120 52 61
internal_count=1996 1555 441 145 1183 372 900 93 452 296 191 203 448 172 130 169 408 72 105 274 206 162 108 81 283 54 87 120 52 61
is_linear=0
shrinkage=0.1


Tree=2
num_leaves=31
num_cat=0
split_feature=5 9 9 9 3 3 11 3 1 8 9 6 3 3 12 3 6 9 11 12 8 3 3 0 9 6 12 0 0 6
split_gain=7.0885e+16 2.15905e+16 1.02886e+16 1.05261e+16 8.86274e+15 8.79804e+15 7.94961e+15 7.04395e+15 5.32063e+15 4.04402e+15 3.13104e+15 2.96011e+15 2.71816e+15 2.52018e+15 2.20096e+15 2.19056e+15 2.18768e+15 2.07719e+15 1.97738e+15 1.67229e+15 1.60617e+15 1.57933e+15 1.16206e+15 1.15129e+15 1.1479e+15 1.04205e+15 9.51416e+14 9.32389e+14 8.90378e+14 8.46277e+14
threshold=4.0000000000000009 96.500000000000014 117.50000000000001 128.50000000000003 137.50000000000003 101.50000000000001 17.500000000000004 275.50000000000006 1.0000000180025095e-35 4.0000000000000009 72.500000000000014 1.0000000180025095e-35 119.50000000000001 190.50000000000003 11.500000000000002 152.50000000000003 1.0000000180025095e-35 117.50000000000001 21.500000000000004 12.500000000000002 4.0000000000000009 75.500000000000014 258.50000000000006 5.5000000000000009 55.500000000000007 6.5000000000000009 12.500000000000002 1.5000000000000002 3.5000000000000004 1.0000000180025095e-35
decision_type=2 2 2 2 2 2 2 2 2 2 2 2 2 2 2 2 2 2 2 2 2 2 2 2 2 2 2 2 2 2
left_child=1 4 9 -4 5 29 11 13 18 10 15 -3 -7 -6 22 21 -9 -16 -5 23 -13 -2 -8 -11 -18 26 -23 -14 -12 -1
right_child=2 6 3 8 7 12 14 16 -10 19 28 20 27 -15 17 -17 24 -19 -20 -21 -22 25 -24 -25 -26 -27 -28 -29 -30 -31
leaf_value=-1099142.8864583333 184601.05476190476 -833713.89131097565 2948579.7399038463 1026510.3450367646 -1124799.0310823757 -124036.88948863636 109472.9278515625 -444974.77000526688 -228498.9523809524 508478.47757352947 2074814.8814814815 625163.89722222218 -71613.217187500006 -709230.91117942799 920697.04947033897 -131827.81491477272 636699.76631097565 2059223.5028409092 2076245.0990131581 1015607.4817708335 -77833.010523504272 1407951.5396875001 839275.59969075536 -255440.3599567819 -272470.85608258931 1572671.9683928574 528733.04218750005 629613.62055844907 1305630.0463235294 -601120.84000264842
leaf_weight=48 21 41 52 34 261 143 40 89 21 34 27 45 23 331 59 22 41 22 38 24 117 20 48 47 21 35 32 108 34 118
leaf_count=48 21 41 52 34 261 143 40 89 21 34 27 45 23 331 59 22 41 22 38 24 117 20 48 47 21 35 32 108 34 118
internal_value=0 -317359 1.11903e+06 1.80915e+06 -526310 -170630 347129 -736942 1.17205e+06 780970 1.05503e+06 -74661.9 177423 -892446 853776 777680 -127284 1.22993e+06 1.58054e+06 282449 117444 962950 507547 65216.9 328755 1.15083e+06 866894 506497 1.64609e+06 -745127
internal_weight=0 1555 441 145 1183 440 372 743 93 296 191 203 274 592 169 130 151 81 72 105 162 108 88 81 62 87 52 131 61 166
internal_count=1996 1555 441 145 1183 440 372 743 93 296 191 203 274 592 169 130 151 81 72 105 162 108 88 81 62 87 52 131 61 166
is_linear=0
shrinkage=0.1


Tree=3
num_leaves=31
num_cat=0
split_feature=5 9 8 9 5 11 8 12 11 12 6 11 3 6 3 12 0 12 9 6 3 0 0 8 0 3 3 6 3 3
split_gain=5.74168e+16 1.74883e+16 8.60086e+15 8.27725e+15 7.52137e+15 6.43918e+15 5.6122e+15 4.9593e+15 4.40039e+15 2.89308e+15 2.39769e+15 2.08463e+15 2.08942e+15 2.04339e+15 1.79692e+15 1.78278e+15 1.77885e+15 1.70589e+15 1.68252e+15 1.50917e+15 1.42445e+15 1.38054e+15 1.71971e+15 1.30099e+15 1.06314e+15 1.04849e+15 9.41271e+14 9.00903e+14 8.90097e+14 7.3146e+14
threshold=4.0000000000000009 96.500000000000014 4.0000000000000009 72.500000000000014 1.5000000000000002 17.500000000000004 2.5000000000000004 11.500000000000002 7.5000000000000009 12.500000000000002 1.0000000180025095e-35 17.500000000000004 213.50000000000003 6.5000000000000009 136.50000000000003 11.500000000000002 3.5000000000000004 9.5000000000000018 117.50000000000001 1.0000000180025095e-35 75.500000000000014 1.5000000000000002 5.5000000000000009 4.0000000000000009 5.5000000000000009 187.50000000000003 258.50000000000006 6.5000000000000009 129.50000000000003 285.50000000000006
decision_type=2 2 2 2 2 2 2 2 2 2 2 2 2 2 2 2 2 2 2 2 2 2 2 2 2 2 2 2 2 2
left_child=1 4 3 14 25 10 11 13 28 24 -3 12 -5 17 20 26 -13 -6 -17 -10 -2 -21 -23 -12 -4 -1 -7 -22 -9 -18
right_child=2 5 9 6 7 15 -8 8 19 -11 23 16 -14 -15 -16 18 29 -19 -20 21 27 22 -24 -25 -26 -27 -28 -29 -30 -31
leaf_value=-1103604.7324459876 166140.94196428571 -750342.54523628054 429686.4297554348 1529126.8048076925 -334062.34744944854 98525.632734375016 3174439.4500000002 1255101.6703125001 -483356.59341184702 1118990.8659722223 562647.5254427084 2619099.665909091 327382.52262228262 -26120.406093750003 6079.8022629310353 828627.3391419492 1216105.5869791666 -785317.54663758841 1853301.165340909 -467807.9175091912 817542.60981445317 385112.28490607446 -191005.40913873489 -70049.711057274981 -221786.66670099433 -691815.52871874999 755348.05734049482 1502539.212890625 351817.56156250002 1884688.4759548614
leaf_weight=162 21 41 46 39 119 40 24 24 134 36 45 22 23 60 29 59 30 283 22 68 48 89 124 117 55 100 48 32 20 36
leaf_count=162 21 41 46 39 119 40 24 24 134 36 45 22 23 60 29 59 30 283 22 68 48 89 124 117 55 100 48 32 20 36
internal_value=0 -285623 1.00713e+06 1.3036e+06 -473679 312416 1.75462e+06 -339193 -106387 349277 -67195.7 1.52745e+06 1.08332e+06 -570488 699912 768399 1.84037e+06 -651737 1.10693e+06 -207206 899131 -75518.2 49719.8 105700 74923.9 -946433 456792 1.09154e+06 844518 1.58079e+06
internal_weight=0 1555 441 304 1183 372 174 921 459 137 203 150 62 462 130 169 88 402 81 415 101 281 213 162 101 262 88 80 44 66
internal_count=1996 1555 441 304 1183 372 174 921 459 137 203 150 62 462 130 169 88 402 81 415 101 281 213 162 101 262 88 80 44 66
is_linear=0
shrinkage=0.1


Tree=4
num_leaves=31
num_cat=0
split_feature=5 9 9 3 3 8 11 3 8 11 8 6 11 3 3 12 12 9 3 8 3 3 3 11 3 9 6 0 3 3
split_gain=4.65076e+16 1.41655e+16 7.14658e+15 6.19548e+15 6.32219e+15 5.79568e+15 5.21574e+15 5.18697e+15 4.46941e+15 3.42614e+15 2.00161e+15 1.94213e+15 1.80967e+15 1.7036e+15 1.69243e+15 1.61451e+15 1.60127e+15 1.55005e+15 1.51533e+15 1.0538e+15 9.97352e+14 9.9712e+14 1.50208e+15 9.57611e+14 9.50746e+14 8.11284e+14 8.07641e+14 6.72144e+14 6.40705e+14 5.86606e+14
threshold=4.0000000000000009 96.500000000000014 96.500000000000014 137.50000000000003 119.50000000000001 4.0000000000000009 17.500000000000004 275.50000000000006 2.5000000000000004 6.5000000000000009 1.5000000000000002 1.0000000180025095e-35 17.500000000000004 201.50000000000003 213.50000000000003 12.500000000000002 12.500000000000002 28.000000000000004 285.50000000000006 4.0000000000000009 223.50000000000003 128.50000000000003 75.500000000000014 17.500000000000004 305.50000000000006 113.50000000000001 6.5000000000000009 1.5000000000000002 151.50000000000003 258.50000000000006
decision_type=2 2 2 2 2 2 2 2 2 2 2 2 2 2 2 2 2 2 2 2 2 2 2 2 2 2 2 2 2 2
left_child=1 3 10 4 9 8 11 13 12 -1 21 -3 14 28 -4 -12 -9 -11 -8 -13 -14 22 -2 -7 -22 -20 -24 -6 -5 -21
right_child=2 6 5 7 27 23 18 16 -10 17 15 19 20 -15 -16 -17 -18 -19 25 29 24 -23 26 -25 -26 -27 -28 -29 -30 -31
leaf_value=890036.67750000011 149526.85238095239 -675308.27317073173 1376214.173076923 -1186413.0530769231 -37602.970108695656 152028.83013392857 486367.95894701092 -258132.58049737336 2856995.4625000004 -802231.88522418484 -305232.62380319153 506382.77152777783 2188296.0666666669 -570746.15837273852 294644.2841032609 732737.2536931819 513583.18169642857 -305073.20005651173 794672.79112903227 -206356.13983433737 1021344.5075231482 292843.94263392861 864700.91962209309 872545.70721153845 1845948.5724137933 1578533.1065217392 1598847.7559782611 557772.72870370373 -829620.13546454604 286803.67587316176
leaf_weight=20 21 41 39 65 23 35 115 116 24 92 47 45 27 304 23 22 35 197 31 83 27 42 43 39 29 23 23 108 223 34
leaf_count=20 21 41 39 65 23 35 115 116 24 92 47 45 27 304 23 22 35 197 31 83 27 42 43 39 29 23 23 108 223 34
internal_value=0 -257061 906416 -426311 -128931 1.26979e+06 281174 -602418 1.59296e+06 -375741 460452 -60476.1 1.38374e+06 -735860 974987 25714.3 -79258.1 -463338 691559 95129.6 1.68907e+06 692986 886157 531761 1.44837e+06 1.12854e+06 1.12054e+06 453241 -910146 -63044.7
internal_weight=0 1555 441 1183 440 243 372 743 169 309 198 203 145 592 62 69 151 289 169 162 83 129 87 74 56 54 66 131 288 117
internal_count=1996 1555 441 1183 440 243 372 743 169 309 198 203 145 592 62 69 151 289 169 162 83 129 87 74 56 54 66 131 288 117
is_linear=0
shrinkage=0.1


Tree=5
num_leaves=31
num_cat=0
split_feature=5 9 6 9 5 11 9 11 12 6 9 3 3 6 12 6 1 3 3 12 11 9 8 9 12 11 3 3 3 3
split_gain=3.76712e+16 1.14741e+16 6.5575e+15 8.34307e+15 5.24962e+15 4.22475e+15 4.00702e+15 3.49587e+15 2.59145e+15 2.30134e+15 1.955e+15 1.57666e+15 1.74427e+15 1.96677e+15 1.63665e+15 1.57312e+15 1.54648e+15 1.36177e+15 1.35288e+15 1.34718e+15 1.34499e+15 1.21077e+15 8.56103e+14 8.46122e+14 8.06491e+14 7.6201e+14 7.11524e+14 7.08562e+14 6.09262e+14 8.26473e+14
threshold=4.0000000000000009 96.500000000000014 1.0000000180025095e-35 117.50000000000001 1.5000000000000002 17.500000000000004 133.50000000000003 8.5000000000000018 12.500000000000002 5.5000000000000009 45.500000000000007 41.500000000000007 89.500000000000014 1.5000000000000002 9.5000000000000018 1.0000000180025095e-35 1.0000000180025095e-35 152.50000000000003 280.50000000000006 11.500000000000002 21.500000000000004 117.50000000000001 1.5000000000000002 46.500000000000007 11.500000000000002 13.500000000000002 258.50000000000006 187.50000000000003 280.50000000000006 153.50000000000003
decision_type=2 2 2 2 2 2 2 2 2 2 2 2 2 2 2 2 2 2 2 2 2 2 2 2 2 2 2 2 2 2
left_child=1 4 -2 11 27 15 -5 10 16 -8 -6 -4 -13 14 -14 -3 20 23 -16 26 25 -21 -17 -15 -12 -9 -7 -1 29 -10
right_child=2 5 3 6 7 19 9 8 28 -11 24 12 13 17 18 22 -18 -19 -20 21 -22 -23 -24 -25 -26 -27 -28 -29 -30 -31
leaf_value=-907843.67229938274 -518384.50266544125 -607777.44923780486 -117771.37067307693 2265196.7501179245 1204363.9619047621 40036.291562500002 1467764.1148584906 -317825.60845130403 39060.72705439815 208840.89476562501 -417266.5422619048 1334526.1727090373 1416942.0510416667 219270.64169642856 350002.52187500003 462077.81475053274 -1056502.1533783784 -275747.21728219697 1170211.3987500002 680600.86777012714 71755.853782894745 1549832.7800426139 -54758.759745762713 1000057.6456521739 380274.54959106445 -554590.07266959874 611101.35387369792 -569325.47581249999 429665.97109375003 -444056.44264322921
leaf_weight=162 34 41 26 53 21 40 53 266 135 20 21 37 36 35 61 44 37 33 30 59 57 22 118 23 32 278 48 100 26 48
leaf_count=162 34 41 26 53 21 40 53 266 135 20 21 37 36 35 61 44 37 33 30 59 57 22 118 23 32 278 48 100 26 48
internal_value=0 -231355 815775 927228 -383680 253057 1.60336e+06 -271325 -328912 1.12285e+06 387809 624050 699686 591938 846192 -54428.5 -429025 237100 620401 622403 -390395 916689 85616.6 528893 64267.7 -438819 351526 -778638 -23302.4 -87658.5
internal_weight=0 1555 441 407 1183 372 126 921 847 73 74 281 255 218 127 203 638 91 91 169 601 81 162 58 53 544 88 262 209 183
internal_count=1996 1555 441 407 1183 372 126 921 847 73 74 281 255 218 127 203 638 91 91 169 601 81 162 58 53 544 88 262 209 183
is_linear=0
shrinkage=0.1


Tree=6
num_leaves=31
num_cat=0
split_feature=5 6 3 6 9 3 3 9 9 3 6 9 11 8 12 10 9 9 3 12 0 12 9 6 3 3 3 11 0 9
split_gain=3.05137e+16 9.64379e+15 6.63151e+15 5.31158e+15 6.75789e+15 4.31718e+15 4.70064e+15 3.58192e+15 3.24569e+15 1.94967e+15 1.86409e+15 1.84988e+15 1.7569e+15 1.4466e+15 1.46913e+15 1.25397e+15 1.07291e+15 9.63612e+14 9.42044e+14 7.42437e+14 6.32605e+14 6.28708e+14 6.36651e+14 5.95101e+14 8.58149e+14 5.85823e+14 5.08189e+14 4.98928e+14 4.28737e+14 5.29396e+14
threshold=4.0000000000000009 1.0000000180025095e-35 279.50000000000006 1.0000000180025095e-35 117.50000000000001 140.50000000000003 119.50000000000001 81.500000000000014 133.50000000000003 201.50000000000003 5.5000000000000009 119.50000000000001 6.5000000000000009 4.0000000000000009 1.5000000000000002 2.5000000000000004 109.50000000000001 62.500000000000007 203.50000000000003 12.500000000000002 5.5000000000000009 10.500000000000002 81.500000000000014 7.5000000000000009 119.50000000000001 39.500000000000007 205.50000000000003 17.500000000000004 1.5000000000000002 45.500000000000007
decision_type=2 2 2 2 2 2 2 2 2 2 2 2 2 2 2 2 2 2 2 2 2 2 2 2 2 2 2 2 2 2
left_child=1 9 5 -2 13 6 12 26 -6 -1 -10 -4 -3 14 -5 28 25 23 -9 20 -15 -11 -23 24 -16 -14 -7 -20 -8 -30
right_child=3 2 11 4 8 7 15 18 10 21 -12 -13 16 19 17 -17 -18 -19 27 -21 -22 22 -24 -25 -26 -27 -28 -29 29 -31
leaf_value=-776698.1330662393 -466546.0569852941 759924.80070312507 423367.35044181033 -85880.310624999998 2038677.1174528301 -766328.77326680673 674.79345238095243 -374087.90357638896 1320987.692393868 -609165.11733284884 187956.79890625001 1449288.9737500001 -495344.10916895606 417563.84990234376 53514.507572115392 1265365.881328125 199114.03581090856 1168333.8112847223 -44052.1861462163 738783.45584239135 -178959.793515625 -345992.87333241961 250292.51687500003 1107491.8139266304 736355.34683779767 -180961.71492647059 -481365.39608191291 400486.602796875 648824.13785264757 170042.50863970589
leaf_weight=234 34 20 145 20 53 119 21 45 53 86 20 20 91 32 26 20 54 54 51 23 40 171 20 23 63 170 132 50 72 34
leaf_count=234 34 20 145 20 53 119 21 45 53 86 20 20 91 32 26 20 54 54 51 23 40 171 20 23 63 170 132 50 72 34
internal_value=0 -208219 -33990.9 734197 834505 -143186 57944.2 -387379 1.44303e+06 -564177 1.01057e+06 547721 -148923 561645 723798 529376 -206627 821350 6463.79 244165 86161.8 -384647 -283555 654054 536874 -290574 -616468 176017 413472 495253
internal_weight=0 1555 1044 441 407 879 482 397 126 511 73 165 335 281 186 147 315 166 146 95 72 277 191 112 89 261 251 101 127 106
internal_count=1996 1555 1044 441 407 879 482 397 126 511 73 165 335 281 186 147 315 166 146 95 72 277 191 112 89 261 251 101 127 106
is_linear=0
shrinkage=0.1


Tree=7
num_leaves=31
num_cat=0
split_feature=5 6 3 6 9 11 9 3 9 3 3 9 6 8 12 11 9 11 9 9 12 4 12 3 3 9 8 0 11 9
split_gain=2.47161e+16 7.81147e+15 5.37152e+15 4.30238e+15 5.47389e+15 3.66736e+15 2.629e+15 2.48076e+15 2.91894e+15 2.03792e+15 1.57923e+15 1.5533e+15 1.50991e+15 1.17175e+15 1.19e+15 1.15436e+15 9.82624e+14 8.77063e+14 7.80526e+14 7.64473e+14 6.37734e+14 6.09383e+14 9.06266e+14 5.17419e+14 6.65448e+14 5.0773e+14 4.19177e+14 9.02291e+14 3.8681e+14 3.70192e+14
threshold=4.0000000000000009 1.0000000180025095e-35 279.50000000000006 1.0000000180025095e-35 117.50000000000001 26.500000000000004 133.50000000000003 140.50000000000003 80.500000000000014 40.500000000000007 201.50000000000003 117.50000000000001 5.5000000000000009 4.0000000000000009 1.5000000000000002 6.5000000000000009 99.500000000000014 17.500000000000004 62.500000000000007 45.500000000000007 11.500000000000002 1.5000000000000002 9.5000000000000018 300.00000000000006 277.50000000000006 53.500000000000007 4.0000000000000009 1.5000000000000002 21.500000000000004 91.500000000000014
decision_type=2 2 2 2 2 2 2 2 2 2 2 2 2 2 2 2 2 2 2 2 2 2 2 2 2 2 2 2 2 2
left_child=1 10 5 -2 13 7 -6 9 25 -3 -1 26 28 14 -5 19 -17 -10 21 -11 29 -16 -23 24 -12 -9 -4 -28 -8 -15
right_child=3 2 11 4 6 -7 12 8 17 15 23 -13 -14 20 18 16 -18 -19 -20 -21 -22 22 -24 -25 -26 -27 27 -29 -30 -31
leaf_value=-699028.3195379274 -419891.45248161769 -381692.10796875 535970.93930191535 -77292.291562500002 1834809.3745283019 1090289.4828125001 855403.86391369055 -426714.63310474542 -195137.1326508621 1052646.8509375001 -410821.03040319623 1130856.7137096773 169161.11492187501 -283632.550462963 1060436.0071022727 -38534.800470595474 420895.54759799899 304329.25571868377 1051500.4319444445 188776.86443452383 476129.69150390627 844530.37989309209 202056.20859375002 -823372.44464285718 -56573.198333333334 -714712.18872767861 -237613.65145833336 480435.58415178576 1407738.5186035158 283997.89046875003
leaf_weight=234 34 110 62 20 53 24 21 135 87 20 181 31 20 27 22 254 57 59 54 21 48 38 52 21 75 112 30 42 32 20
leaf_count=234 34 110 62 20 53 24 21 135 87 20 181 31 20 27 22 254 57 59 54 21 48 38 52 21 75 112 30 42 32 20
internal_value=0 -187397 -30591.8 660777 751055 -128867 1.29872e+06 -163089 -347775 -5986.31 -507759 492949 909511 505480 651419 111422 45669.5 6702.02 739215 610177 219748 588649 473323 -346182 -307037 -557305 345374 181248 1.18889e+06 -42087.7
internal_weight=0 1555 1044 441 407 879 126 855 393 462 511 165 73 281 186 352 311 146 166 41 95 112 90 277 256 247 134 72 53 47
internal_count=1996 1555 1044 441 407 879 126 855 393 462 511 165 73 281 186 352 311 146 166 41 95 112 90 277 256 247 134 72 53 47
is_linear=0
shrinkage=0.1


Tree=8
num_leaves=31
num_cat=0
split_feature=5 9 8 5 9 5 12 12 11 8 12 11 12 11 0 1 3 6 11 11 0 3 11 3 3 0 3 3 0 0
split_gain=2.002e+16 6.43908e+15 3.67018e+15 4.72216e+15 3.73882e+15 3.26463e+15 2.71168e+15 2.10024e+15 2.05911e+15 2.00354e+15 1.47539e+15 1.40954e+15 1.3715e+15 1.09722e+15 1.0972e+15 1.0706e+15 1.01263e+15 9.61485e+14 8.68217e+14 8.61369e+14 8.36845e+14 7.6347e+14 5.22893e+14 5.163e+14 4.93015e+14 4.4961e+14 4.46486e+14 4.19907e+14 4.18585e+14 9.44408e+14
threshold=4.0000000000000009 96.500000000000014 4.0000000000000009 6.5000000000000009 55.500000000000007 1.5000000000000002 11.500000000000002 5.5000000000000009 7.5000000000000009 2.5000000000000004 12.500000000000002 5.5000000000000009 12.500000000000002 17.500000000000004 3.5000000000000004 1.0000000180025095e-35 285.50000000000006 1.0000000180025095e-35 12.500000000000002 21.500000000000004 5.5000000000000009 305.50000000000006 13.500000000000002 171.50000000000003 126.50000000000001 5.5000000000000009 187.50000000000003 213.50000000000003 5.5000000000000009 3.5000000000000004
decision_type=2 2 2 2 2 2 2 2 2 2 2 2 2 2 2 2 2 2 2 2 2 2 2 2 2 2 2 2 2 2
left_child=1 5 3 4 18 26 7 -3 11 13 15 -7 25 27 -15 19 23 -9 24 22 -18 -16 -10 -8 -2 -4 -1 -6 29 -12
right_child=2 6 12 -5 9 8 16 17 10 -11 28 -13 -14 14 21 -17 20 -19 -20 -21 -22 -23 -24 -25 -26 -27 -28 -29 -30 -31
leaf_value=-696793.67247299384 635796.93025000009 549763.87941176479 206772.5090692935 2273538.4649999999 751078.46979166672 36210.256790865387 661638.09992532176 -596149.08831845247 -220094.33823205475 1930172.4275 -185465.29344161184 1006917.3548363096 694928.97986111115 1701591.4136363638 643881.29741097381 -835794.63682432438 1331872.3902343751 -49707.899844316125 -137829.56990131582 88274.527686403511 487757.06171875005 1391735.7637499999 -416223.69850916142 173885.15343098959 128214.29536290323 -216888.39417613638 -428075.48856250005 211076.49633407593 -117765.29072041984 506540.2895198171
leaf_weight=162 50 51 46 20 36 52 34 42 266 20 38 21 36 22 43 37 24 138 38 57 23 20 278 60 31 55 100 24 131 41
leaf_count=162 50 51 46 20 36 52 34 42 266 20 38 21 36 22 43 37 24 138 38 57 23 20 278 60 31 55 100 24 131 41
internal_value=0 -168658 594700 788363 683774 -282768 194226 -16709.9 -194166 991907 -238036 315455 164964 862492 1.09361e+06 -313712 539803 -177211 256529 -281570 918795 881295 -320322 350306 441537 -23933.9 -594229 535078 -8127.54 173677
internal_weight=0 1555 441 304 284 1183 372 231 921 165 848 73 137 145 85 638 141 180 119 601 47 63 544 94 81 101 262 60 210 79
internal_count=1996 1555 441 304 284 1183 372 231 921 165 848 73 137 145 85 638 141 180 119 601 47 63 544 94 81 101 262 60 210 79
is_linear=0
shrinkage=0.1


Tree=9
num_leaves=31
num_cat=0
split_feature=5 6 3 6 9 11 3 9 9 3 9 3 6 11 3 9 0 3 3 6 6 11 9 9 12 9 9 0 11 11
split_gain=1.62162e+16 5.29791e+15 3.76222e+15 3.25174e+15 3.75447e+15 2.7811e+15 1.82854e+15 2.11024e+15 1.7964e+15 1.72619e+15 1.17674e+15 1.1438e+15 1.1395e+15 1.13453e+15 9.45755e+14 1.23772e+15 1.38232e+15 9.08466e+14 8.81196e+14 7.94874e+14 7.34086e+14 6.68609e+14 6.16757e+14 5.78324e+14 3.96128e+14 4.76688e+14 3.59149e+14 3.09794e+14 3.28139e+14 2.72831e+14
threshold=4.0000000000000009 1.0000000180025095e-35 279.50000000000006 1.0000000180025095e-35 117.50000000000001 26.500000000000004 140.50000000000003 59.500000000000007 133.50000000000003 119.50000000000001 119.50000000000001 201.50000000000003 5.5000000000000009 6.5000000000000009 41.500000000000007 38.500000000000007 4.5000000000000009 203.50000000000003 120.50000000000001 4.5000000000000009 1.5000000000000002 16.500000000000004 109.50000000000001 53.500000000000007 10.500000000000002 81.500000000000014 109.50000000000001 1.5000000000000002 16.500000000000004 21.500000000000004
decision_type=2 2 2 2 2 2 2 2 2 2 2 2 2 2 2 2 2 2 2 2 2 2 2 2 2 2 2 2 2 2
left_child=1 11 5 -2 14 6 9 23 -6 13 -4 -1 29 -3 -5 -16 19 -9 -18 21 -20 -17 -15 -8 -13 -26 -19 -11 -29 -10
right_child=3 2 10 4 8 -7 7 17 12 27 -12 24 -14 22 15 16 18 26 20 -21 -22 -23 -24 -25 25 -27 -28 28 -30 -31
leaf_value=-578401.80200320517 -404269.68419117649 608632.47687500005 316314.42688577587 -164205.69338942308 1510422.7611733491 956771.9858072917 -358201.79057870375 -331278.74059895833 708181.10595238104 -25801.955298913046 1134558.493125 -456329.62485465122 102393.109375 -232929.04686284048 1096212.9446986606 1392481.6223214287 -357372.87099609378 -16496.785879952567 525713.94482717803 360437.62660256412 11749.277604166668 651576.92209051736 138840.60018084492 -682276.23803763452 -251898.26110768458 264067.08880859375 354218.08484135848 517447.44651988638 159891.3888392857 1172055.0259399414
leaf_weight=234 34 20 145 26 53 24 135 60 21 23 20 86 20 257 28 21 24 56 66 39 48 29 54 93 171 20 49 66 42 32
leaf_count=234 34 20 145 26 53 24 135 60 21 23 20 86 20 257 28 21 24 56 66 39 48 29 54 93 171 20 49 66 42 32
internal_value=0 -151792 -22655.8 535230 613714 -104903 -134704 -293264 1.06728e+06 174.896 415496 -415624 745554 -121428 410333 468914 391538 -20871.9 193363 698819 309308 962757 -168377 -490390 -278114 -197870 156503 307431 378398 988256
internal_weight=0 1555 1044 441 407 879 855 393 126 462 165 511 73 331 281 255 227 165 138 89 114 50 311 228 277 191 105 131 108 53
internal_count=1996 1555 1044 441 407 879 855 393 126 462 165 511 73 331 281 255 227 165 138 89 114 50 311 228 277 191 105 131 108 53
is_linear=0
shrinkage=0.1


Tree=10
num_leaves=31
num_cat=0
split_feature=5 9 8 5 9 5 11 12 8 11 12 9 1 11 0 11 3 3 12 9 3 0 12 6 0 6 0 3 3 12
split_gain=1.31351e+16 4.34316e+15 2.65176e+15 3.67576e+15 2.66083e+15 2.34683e+15 2.03463e+15 1.45304e+15 1.44966e+15 1.38797e+15 9.61677e+14 9.0312e+14 7.72511e+14 7.39745e+14 8.15224e+14 6.87835e+14 6.53753e+14 8.72264e+14 6.20863e+14 6.85471e+14 5.70656e+14 5.47155e+14 5.22639e+14 6.8791e+14 4.99741e+14 7.90636e+14 4.72385e+14 4.65612e+14 3.71963e+14 3.52041e+14
threshold=4.0000000000000009 96.500000000000014 4.0000000000000009 6.5000000000000009 55.500000000000007 1.5000000000000002 17.500000000000004 11.500000000000002 2.5000000000000004 7.5000000000000009 13.500000000000002 139.50000000000003 1.0000000180025095e-35 17.500000000000004 3.5000000000000004 17.500000000000004 119.50000000000001 126.50000000000001 11.500000000000002 117.50000000000001 305.50000000000006 1.5000000000000002 9.5000000000000018 6.5000000000000009 5.5000000000000009 1.0000000180025095e-35 1.5000000000000002 120.50000000000001 280.50000000000006 13.500000000000002
decision_type=2 2 2 2 2 2 2 2 2 2 2 2 2 2 2 2 2 2 2 2 2 2 2 2 2 2 2 2 2 2
left_child=1 5 3 4 15 -1 11 12 13 -9 28 -3 22 -6 -15 16 -2 -18 -8 26 -16 29 -7 -24 25 -23 -20 -25 -4 -11
right_child=2 6 10 -5 8 7 18 9 -10 21 -12 -13 -14 14 20 -17 17 -19 19 -21 -22 24 23 27 -26 -27 -28 -29 -30 -31
leaf_value=-494404.77777388482 -158449.19343377976 86274.19096542144 -111976.45929324129 1956653.5350000001 435068.76927083335 -63264.814214230377 233843.4638250178 504857.22642045462 1612094.2025000001 -426132.49567307695 651200.44250578713 -373782.75404713117 -678963.45909090911 1417743.4340909093 505410.03081395349 -229918.49870689656 799912.8371710527 85127.037197580648 179960.83432006836 1093907.4740056819 1151969.010703125 -136239.9054193038 -374974.57859499502 337272.83900000004 -153321.06131338445 298404.7748419944 747919.86420717603 -301448.61900809151 333260.5199869792 29083.514673913043
leaf_weight=262 21 142 86 20 60 121 88 44 20 65 27 61 44 22 43 29 38 31 32 22 20 79 251 25 159 89 27 21 24 23
leaf_count=262 21 142 86 20 60 121 88 44 20 65 27 61 44 22 43 29 38 31 32 22 20 79 251 25 159 89 27 21 24 23
internal_value=0 -136613 481707 646322 554046 -230329 161417 -155207 813990 -29191.6 116428 -51969.5 -280404 703907 893675 193618 330091 478777 417732 617513 710667 -85813.7 -238450 -309822 -26247.6 94018.3 439874 45682.6 -14833.8 -307156
internal_weight=0 1555 441 304 284 1183 372 921 165 459 137 203 462 145 85 119 90 69 169 81 63 415 418 297 327 168 59 46 110 88
internal_count=1996 1555 441 304 284 1183 372 921 165 459 137 203 462 145 85 119 90 69 169 81 63 415 418 297 327 168 59 46 110 88
is_linear=0
shrinkage=0.1


Tree=11
num_leaves=31
num_cat=0
split_feature=5 6 3 3 3 6 9 9 8 3 11 9 9 3 3 6 0 6 9 9 9 9 0 3 3 12 0 11 0 11
split_gain=1.06395e+16 3.63049e+15 2.68451e+15 2.61431e+15 3.1167e+15 2.50751e+15 2.56698e+15 1.26611e+15 1.23435e+15 8.6749e+14 8.28369e+14 7.28259e+14 6.68197e+14 6.37289e+14 9.99342e+14 9.55099e+14 1.03317e+15 8.37092e+14 6.59181e+14 6.09019e+14 4.43353e+14 3.91286e+14 3.83434e+14 3.48186e+14 4.3769e+14 3.40672e+14 3.33764e+14 3.08661e+14 3.07788e+14 2.98784e+14
threshold=4.0000000000000009 1.0000000180025095e-35 259.50000000000006 129.50000000000003 119.50000000000001 1.0000000180025095e-35 117.50000000000001 117.50000000000001 4.0000000000000009 201.50000000000003 6.5000000000000009 59.500000000000007 136.50000000000003 41.500000000000007 89.500000000000014 1.5000000000000002 3.5000000000000004 6.5000000000000009 46.500000000000007 81.500000000000014 109.50000000000001 53.500000000000007 1.0000000180025095e-35 300.00000000000006 277.50000000000006 9.5000000000000018 1.5000000000000002 9.5000000000000018 5.5000000000000009 21.500000000000004
decision_type=2 2 2 2 2 2 2 2 2 2 2 2 2 2 2 2 2 2 2 2 2 2 2 2 2 2 2 2 2 2
left_child=1 9 3 4 10 -2 13 22 12 -1 -3 21 -8 -7 -15 16 -16 -17 -19 26 27 -5 -4 24 -11 -18 -6 -12 -28 -14
right_child=5 2 7 11 19 6 8 -9 -10 23 20 -13 29 14 15 17 25 18 -20 -21 -22 -23 -24 -25 -26 -27 28 -29 -30 -31
leaf_value=-483113.63554103236 -391475.18305951287 518106.71250000002 -90890.219250801296 -303603.26086856617 18822.691964285714 -137339.83046875001 1303389.6754464286 843225.47120535711 278165.734375 -273657.98141860537 -434648.82492357335 -111784.60599733384 539316.42050000001 862897.51913006755 1026908.0942129629 -348545.48212002846 641176.50576923089 18778.263791232639 713568.78693181823 977282.29062500002 115239.69809751157 -570627.94507472822 261073.78067187499 -613049.3784877233 13640.372239583332 220386.24712837837 605659.59372209827 -149242.9722320131 224230.94724264706 1028220.4071249999
leaf_weight=234 34 20 39 136 21 26 49 35 27 181 46 126 25 37 27 33 26 36 22 20 54 92 150 21 75 74 56 215 34 25
leaf_count=234 34 20 39 136 21 26 49 35 27 181 46 126 25 37 27 33 26 36 22 20 54 92 150 21 75 74 56 215 34 25
internal_value=0 -122951 -16051.5 -99862.2 55763.3 433536 502456 290756 877500 -341354 -105958 -304725 1.04095e+06 334287 382374 300818 477998 53544.3 282319 469326 -145581 -411350 188446 -221600 -189489 329792 377802 -199544 461564 783768
internal_weight=0 1555 1044 820 466 441 407 224 126 511 335 354 99 281 255 218 127 91 58 131 315 228 189 277 256 100 111 261 90 50
internal_count=1996 1555 1044 820 466 441 407 224 126 511 335 354 99 281 255 218 127 91 58 131 315 228 189 277 256 100 111 261 90 50
is_linear=0
shrinkage=0.1


Tree=12
num_leaves=31
num_cat=0
split_feature=5 9 6 9 9 11 6 9 9 3 6 3 3 11 9 11 3 3 9 0 3 12 3 12 3 9 12 9 9 11
split_gain=8.61796e+15 3.07397e+15 2.03108e+15 2.07926e+15 1.7883e+15 1.68254e+15 1.18489e+15 1.08002e+15 1.00321e+15 8.84334e+14 8.50434e+14 8.35071e+14 1.74703e+15 8.2906e+14 7.55372e+14 9.82745e+14 5.38426e+14 5.16204e+14 8.25243e+14 9.55045e+14 6.30255e+14 6.55614e+14 5.4865e+14 4.32442e+14 4.19854e+14 3.19706e+14 3.05863e+14 2.8687e+14 2.83622e+14 3.68013e+14
threshold=4.0000000000000009 81.500000000000014 1.0000000180025095e-35 117.50000000000001 51.500000000000007 17.500000000000004 1.0000000180025095e-35 62.500000000000007 133.50000000000003 275.50000000000006 5.5000000000000009 129.50000000000003 119.50000000000001 7.5000000000000009 181.50000000000003 16.500000000000004 287.50000000000006 41.500000000000007 38.500000000000007 4.5000000000000009 120.50000000000001 13.500000000000002 121.50000000000001 11.500000000000002 205.50000000000003 77.500000000000014 12.500000000000002 55.500000000000007 133.50000000000003 24.500000000000004
decision_type=2 2 2 2 2 2 2 2 2 2 2 2 2 2 2 2 2 2 2 2 2 2 2 2 2 2 2 2 2 2
left_child=1 4 -2 17 6 14 24 -6 -5 11 -10 12 13 -8 15 -3 28 -4 -19 22 -21 -22 -20 -17 -1 -9 -18 -24 29 -7
right_child=2 5 3 8 7 16 9 25 10 -11 -12 -13 -14 -15 -16 23 26 18 19 20 21 -23 27 -25 -26 -27 -28 -29 -30 -31
leaf_value=-415663.26918580924 -352327.65854779416 546856.20691964286 -123605.84676983173 1120906.5787735849 -522377.17423986486 203471.88079111045 461944.95953125006 66629.045647321429 758990.9355837265 413087.08506097563 -6303.8412500000004 -268648.44169855444 340022.1629504505 -214933.55754728621 -649853.15750000009 -173943.81040804996 848033.41093750007 856354.55022321444 875983.34729712701 -349530.83264160156 331558.79320439883 -276116.16676136362 116548.98764331959 135625.70252075195 -172857.93424971731 -361921.44730902783 352975.60091145837 562404.41819556453 -119503.84406250001 638291.43528645835
leaf_weight=134 34 28 26 53 222 103 20 49 53 41 20 147 111 190 20 153 26 28 31 24 92 22 27 64 152 27 24 31 20 24
leaf_count=134 34 28 26 53 222 103 20 49 53 41 20 147 111 190 20 153 26 28 31 24 92 22 27 64 152 27 24 31 20 24
internal_value=0 -110656 390183 452210 -202067 105603 -123754 -410989 789750 -32241.2 549321 -71255 19140.1 -150469 -58937.5 -10699.5 326938 300858 344137 280956 116233 214288 536369 -82642.2 -286620 -85619.2 610406 354851 230521 285643
internal_weight=0 1555 441 407 1093 462 795 298 126 509 73 468 321 210 265 245 197 281 255 227 138 114 89 217 286 76 50 58 147 127
internal_count=1996 1555 441 407 1093 462 795 298 126 509 73 468 321 210 265 245 197 281 255 227 138 114 89 217 286 76 50 58 147 127
is_linear=0
shrinkage=0.1


Tree=13
num_leaves=31
num_cat=0
split_feature=5 5 9 11 8 9 12 11 12 0 0 1 11 11 8 3 9 3 3 3 3 3 6 11 11 3 11 9 9 8
split_gain=6.98054e+15 2.57796e+15 1.9799e+15 1.75177e+15 1.56907e+15 1.31797e+15 1.2554e+15 1.07395e+15 9.42896e+14 9.03207e+14 1.85386e+15 8.92664e+14 1.02529e+15 9.71741e+14 7.3737e+14 7.10728e+14 5.69845e+14 9.52807e+14 8.70124e+14 5.86025e+14 5.04899e+14 3.771e+14 3.00867e+14 2.98412e+14 2.95462e+14 2.73187e+14 2.61322e+14 2.59775e+14 2.54831e+14 2.54265e+14
threshold=4.0000000000000009 1.5000000000000002 96.500000000000014 25.500000000000004 4.0000000000000009 72.500000000000014 11.500000000000002 12.500000000000002 3.5000000000000004 5.5000000000000009 1.5000000000000002 1.0000000180025095e-35 7.5000000000000009 5.5000000000000009 1.5000000000000002 280.50000000000006 35.500000000000007 128.50000000000003 119.50000000000001 205.50000000000003 136.50000000000003 211.50000000000003 1.0000000180025095e-35 17.500000000000004 17.500000000000004 121.50000000000001 21.500000000000004 59.500000000000007 139.50000000000003 4.0000000000000009
decision_type=2 2 2 2 2 2 2 2 2 2 2 2 2 2 2 2 2 2 2 2 2 2 2 2 2 2 2 2 2 2
left_child=1 27 11 4 5 7 8 20 -4 10 29 12 13 -3 21 -6 -14 18 -18 -19 25 23 -10 -7 -24 -2 28 -1 -23 -8
right_child=3 2 6 -5 15 14 9 -9 22 -11 -12 -13 16 -15 -16 -17 17 19 -20 -21 -22 26 24 -25 -26 -27 -28 -29 -30 -31
leaf_value=-418665.48809931509 320454.61602564109 36423.645244565218 410236.24960106384 1019655.1077962241 -130869.75061211339 545880.42580128217 538695.60647321434 -291502.62107142858 -385474.63750000001 89982.925245098042 1408991.2306107956 -551166.17428977275 -383019.07850846357 871360.06539062504 1181044.0946875 449219.61342592596 -79293.854761584065 -322592.34815271478 293258.49956951535 -91722.001721491222 -78282.612988891604 450051.62130681821 -128705.52382921007 1000039.0739130436 213707.45919642859 725732.67664331896 588126.49172219669 -211814.21941964288 -43149.986093750005 112529.00376674108
leaf_weight=219 39 46 47 36 97 39 28 35 30 51 22 44 75 20 20 27 174 179 98 285 20 22 90 23 35 29 34 84 20 28
leaf_count=219 39 46 47 36 97 39 28 35 30 51 22 44 75 20 20 27 174 179 98 285 20 22 90 23 35 29 34 84 20 28
internal_value=0 -99590.6 -36248.6 351164 291743 422496 173518 177038 17886.8 417219 631181 -111637 -89585.3 289435 613579 -4559.97 -120430 -93672 54934.6 -180786 363390 531338 -101084 714359 -32829.9 493294 382032 -361321 215194 325612
internal_weight=0 1555 1252 441 405 281 331 123 202 129 78 921 877 66 158 124 811 736 272 464 88 138 155 62 125 68 76 303 42 56
internal_count=1996 1555 1252 441 405 281 331 123 202 129 78 921 877 66 158 124 811 736 272 464 88 138 155 62 125 68 76 303 42 56
is_linear=0
shrinkage=0.1


Tree=14
num_leaves=31
num_cat=0
split_feature=5 8 6 9 3 3 3 11 8 3 11 9 11 9 11 11 12 12 3 3 3 9 0 9 3 9 3 0 0 0
split_gain=5.65424e+15 2.09804e+15 1.52449e+15 1.435e+15 1.18839e+15 1.39708e+15 1.66871e+15 8.95185e+14 8.20878e+14 7.77261e+14 7.27419e+14 8.9297e+14 6.38101e+14 5.11876e+14 5.05218e+14 5.77319e+14 4.0504e+14 1.39283e+15 9.49571e+14 1.48379e+15 8.53424e+14 6.60891e+14 3.95224e+14 3.91409e+14 3.91012e+14 3.8113e+14 3.80338e+14 3.46897e+14 3.02231e+14 2.94901e+14
threshold=4.0000000000000009 1.5000000000000002 1.0000000180025095e-35 117.50000000000001 257.50000000000006 133.50000000000003 119.50000000000001 17.500000000000004 4.0000000000000009 317.50000000000006 8.5000000000000018 114.50000000000001 9.5000000000000018 22.500000000000004 24.500000000000004 16.500000000000004 17.500000000000004 13.500000000000002 120.50000000000001 152.50000000000003 266.50000000000006 46.500000000000007 1.5000000000000002 70.500000000000014 134.50000000000003 110.50000000000001 201.50000000000003 5.5000000000000009 5.5000000000000009 5.5000000000000009
decision_type=2 2 2 2 2 2 2 2 2 2 2 2 2 2 2 2 2 2 2 2 2 2 2 2 2 2 2 2 2 2
left_child=1 10 -2 16 5 6 13 9 22 -6 -1 12 -12 -3 15 27 17 18 28 21 -21 -20 -5 -17 -24 -9 -7 -14 -4 -8
right_child=2 4 3 8 7 26 29 25 -10 -11 11 -13 14 -15 -16 23 -18 -19 19 20 -22 -23 24 -25 -26 -27 -28 -29 -30 -31
leaf_value=730158.23281250009 -327234.17320772063 -391905.8425299658 171443.64362500003 457216.78677662037 31207.138027076198 -361814.98838283669 447411.65684223792 205790.90814144738 161445.47777777779 -572234.11800000002 -447733.45600000001 525373.1582394623 477184.7904605263 -88599.042035590275 564730.17437500006 -286931.91377314815 -131942.72860576923 934815.62715517252 347610.80050872097 -382062.736328125 310794.3938964844 908760.2544207318 576282.28020833328 62393.951597112347 1070632.9822916666 736627.72559523815 -205304.53602503135 -21783.500284090911 -262209.38826388889 77372.702272727271
leaf_weight=20 34 73 25 27 146 323 62 38 27 25 25 43 38 234 20 54 26 29 43 32 40 41 24 79 48 21 299 22 45 33
leaf_count=20 34 73 25 27 146 323 62 38 27 25 25 43 38 234 20 54 26 29 43 32 40 41 24 79 48 21 299 22 45 33
internal_value=0 -89631.6 316048 369786 -146540 -192677 -47384.3 58867.9 650199 -57015.3 147455 105982 30209.5 -160721 86306 36728.4 244050 282386 198668 335976 2857.89 621505 783495 -79437.6 905849 394733 -286579 294230 -107333 318872
internal_weight=0 1555 441 407 1254 1024 402 230 126 171 301 281 238 307 213 193 281 255 226 156 72 84 99 133 72 59 622 60 70 95
internal_count=1996 1555 441 407 1254 1024 402 230 126 171 301 281 238 307 213 193 281 255 226 156 72 84 99 133 72 59 622 60 70 95
is_linear=0
shrinkage=0.1


Tree=15
num_leaves=31
num_cat=0
split_feature=9 11 8 12 9 12 12 9 9 3 12 5 0 11 8 12 0 9 8 11 3 3 11 9 11 12 9 11 11 12
split_gain=4.71049e+15 1.98025e+15 1.94544e+15 1.27011e+15 9.27215e+14 9.04732e+14 8.82356e+14 7.97087e+14 6.94431e+14 8.57469e+14 6.4994e+14 5.30598e+14 5.52232e+14 5.19083e+14 5.15572e+14 4.99751e+14 4.25265e+14 4.13654e+14 3.80201e+14 3.90238e+14 3.68851e+14 3.46501e+14 3.22223e+14 2.93849e+14 2.86327e+14 2.79468e+14 2.92148e+14 2.51151e+14 2.48702e+14 3.39341e+14
threshold=96.500000000000014 17.500000000000004 1.5000000000000002 5.5000000000000009 117.50000000000001 1.5000000000000002 10.500000000000002 133.50000000000003 121.50000000000001 285.50000000000006 12.500000000000002 4.0000000000000009 5.5000000000000009 16.500000000000004 4.0000000000000009 11.500000000000002 3.5000000000000004 139.50000000000003 2.5000000000000004 8.5000000000000018 151.50000000000003 280.50000000000006 24.500000000000004 28.000000000000004 21.500000000000004 9.5000000000000018 65.500000000000014 16.500000000000004 10.500000000000002 9.5000000000000018
decision_type=2 2 2 2 2 2 2 2 2 2 2 2 2 2 2 2 2 2 2 2 2 2 2 2 2 2 2 2 2 2
left_child=2 3 5 -2 20 -1 17 8 9 -6 18 12 13 -7 27 -9 -12 -5 -4 -20 -3 -18 25 -13 -15 -21 -27 -8 29 -25
right_child=1 4 10 6 7 11 14 15 -10 -11 16 23 -14 24 -16 -17 21 -19 19 22 -22 -23 -24 28 -26 26 -28 -29 -30 -31
leaf_value=-481556.40326086956 818270.96687500004 516919.68265224365 -405291.87839298695 -15848.168420272999 1143128.2875000001 405132.27585227275 734341.40078125009 131270.05853182165 1333149.3862500002 297813.44218750001 -304583.90029761905 -15649.660781250001 -183761.33814036887 -278978.74762500002 44867.656637534616 654079.85274621216 -3196.6348785768078 -338229.72222222225 176304.49935344828 -52127.447812906903 165963.49674403467 410960.57500000001 141305.67199074075 560114.42937500007 215671.8116477273 -271962.68317697442 -103400.26957299619 249809.42989130435 663146.0927662038 115199.62833984377
leaf_weight=23 20 39 86 89 20 55 20 41 20 30 42 20 61 25 79 33 166 72 29 96 129 23 27 30 22 478 131 23 27 40
leaf_count=23 20 39 86 89 20 55 20 41 20 30 42 20 61 25 79 33 166 72 29 96 129 23 27 30 22 478 131 23 27 40
internal_value=0 230204 -102516 48116.8 407038 121356 -6311.09 593241 835142 635939 -165441 170880 54252.4 196594 196533 364415 -16757.9 -160019 -205992 -183469 247435 47203.4 -197722 333362 -47440.2 -210706 -235704 475173 405323 305877
internal_weight=0 615 1381 303 312 303 283 144 70 50 1078 280 163 102 122 74 231 161 847 761 168 189 732 117 47 705 609 43 97 70
internal_count=1996 615 1381 303 312 303 283 144 70 50 1078 280 163 102 122 74 231 161 847 761 168 189 732 117 47 705 609 43 97 70
is_linear=0
shrinkage=0.1


Tree=16
num_leaves=31
num_cat=0
split_feature=9 11 8 11 3 9 12 9 3 3 3 9 3 3 5 0 11 12 12 3 3 0 6 9 9 0 0 11 3 12
split_gain=3.8155e+15 1.604e+15 1.5758e+15 1.04542e+15 8.24222e+14 7.51044e+14 7.32833e+14 6.45641e+14 5.89183e+14 9.03035e+14 6.52697e+14 5.62489e+14 6.9455e+14 4.78709e+14 5.43068e+14 4.91425e+14 5.06745e+14 4.57741e+14 4.04798e+14 3.93329e+14 3.909e+14 3.70911e+14 4.13632e+14 3.34808e+14 3.68971e+14 3.26559e+14 3.49722e+14 3.06802e+14 2.98769e+14 2.74867e+14
threshold=96.500000000000014 17.500000000000004 1.5000000000000002 16.500000000000004 182.50000000000003 117.50000000000001 1.5000000000000002 133.50000000000003 124.50000000000001 40.500000000000007 280.50000000000006 121.50000000000001 285.50000000000006 75.500000000000014 4.0000000000000009 5.5000000000000009 16.500000000000004 10.500000000000002 11.500000000000002 119.50000000000001 234.50000000000003 1.5000000000000002 1.0000000180025095e-35 65.500000000000014 51.500000000000007 3.5000000000000004 5.5000000000000009 10.500000000000002 151.50000000000003 9.5000000000000018
decision_type=2 2 2 2 2 2 2 2 2 2 2 2 2 2 2 2 2 2 2 2 2 2 2 2 2 2 2 2 2 2
left_child=2 3 6 4 -2 28 -1 11 9 -4 23 12 -7 -8 15 16 -15 -5 -9 -11 -19 -12 -23 24 25 -10 -27 29 -3 -16
right_child=1 5 8 17 -6 7 13 18 10 19 21 -13 -14 14 27 -17 -18 20 -20 -21 -22 22 -24 -25 -26 26 -28 -29 -30 -31
leaf_value=-433400.75489130442 570756.56917258527 465227.70913461543 -295732.73922557646 -197669.05514062502 -80856.354583333334 1028815.4384375 -176176.40493421053 118143.04851371952 -320258.86591318838 -39195.645049715909 -320171.76009615388 1199834.4840625001 268032.09270833334 450555.35273021949 504102.98739583336 -163694.77530048077 -18942.285811631944 -78918.121209490753 588671.88560606062 216227.87820723688 336557.26348157052 -54761.191056034484 384524.75744485296 -74027.168250644332 -386298.72427396924 62353.483733675377 -233489.15299873741 666954.29062500002 149367.14742005814 103679.67458007814
leaf_weight=23 55 39 103 125 30 20 38 41 143 165 26 20 30 47 30 52 45 54 33 95 39 58 34 97 191 67 99 28 129 40
leaf_count=23 55 39 103 125 30 20 38 41 143 165 26 20 30 47 30 52 45 54 33 95 39 58 34 97 191 67 99 28 129 40
internal_value=0 207183 -92264.8 43305.1 340776 366334 109220 533917 -148897 -45140.8 -201574 751628 572345 153792 205606 82024.8 220910 -72681.1 327973 54132.2 95313.5 13332.4 107584 -244051 -277036 -209498 -114083 387194 222692 275290
internal_weight=0 615 1381 303 85 312 303 144 1078 363 715 70 50 280 242 144 92 218 74 260 93 118 92 597 500 309 166 98 168 70
internal_count=1996 615 1381 303 85 312 303 144 1078 363 715 70 50 280 242 144 92 218 74 260 93 118 92 597 500 309 166 98 168 70
is_linear=0
shrinkage=0.1


Tree=17
num_leaves=31
num_cat=0
split_feature=9 11 8 12 9 11 9 12 9 12 0 9 3 6 12 11 3 12 12 0 3 3 12 3 3 12 12 9 0 3
split_gain=3.09055e+15 1.29924e+15 1.2764e+15 9.43496e+14 6.47493e+14 7.21198e+14 6.08346e+14 5.93595e+14 5.22969e+14 4.87876e+14 8.02751e+14 4.55616e+14 5.62585e+14 4.29653e+14 4.24178e+14 4.17054e+14 5.99902e+14 9.33651e+14 7.58253e+14 3.65639e+14 3.62093e+14 5.07602e+14 3.59387e+14 3.89671e+14 3.28998e+14 3.03136e+14 3.01403e+14 2.97119e+14 2.90409e+14 6.75645e+14
threshold=96.500000000000014 17.500000000000004 1.5000000000000002 5.5000000000000009 184.50000000000003 16.500000000000004 117.50000000000001 1.5000000000000002 133.50000000000003 11.500000000000002 1.5000000000000002 121.50000000000001 285.50000000000006 1.0000000180025095e-35 9.5000000000000018 8.5000000000000018 67.500000000000014 9.5000000000000018 10.500000000000002 5.5000000000000009 264.00000000000006 151.50000000000003 10.500000000000002 234.50000000000003 268.50000000000006 11.500000000000002 17.500000000000004 46.500000000000007 1.0000000180025095e-35 151.50000000000003
decision_type=2 2 2 2 2 2 2 2 2 2 2 2 2 2 2 2 2 2 2 2 2 2 2 2 2 2 2 2 2 2
left_child=2 3 7 -2 5 25 28 -1 11 14 -11 12 -8 -12 -4 -9 -17 -18 -19 27 21 -10 -7 -24 -20 -5 -21 -15 -3 -30
right_child=1 6 9 4 -6 22 8 15 20 10 13 -13 -14 19 -16 16 17 18 24 26 -22 -23 23 -25 -26 -27 -28 -29 29 -31
leaf_value=-390060.68792459241 702758.72625000007 -42758.567516447372 -37966.905997522867 150430.12104166669 -516501.72500000003 -165713.99326256794 925933.9018750001 451178.96128325595 400028.50322580646 -290982.06942327239 -114673.42104252049 1079851.0189062501 241228.88666666669 488910.13070816529 -249291.72433771734 -312672.18212890625 631931.44742647058 -284440.77765957447 102786.00314538456 45080.911027712245 624569.86739130446 -246147.85312500002 -71026.307255497682 350254.87018581084 494950.13958333334 627244.20247395837 -369278.31354166666 119388.82909621147 750615.9927083333 163028.87734375001
leaf_weight=23 20 38 123 30 23 115 20 37 31 123 183 20 30 31 417 32 34 47 103 107 23 20 54 37 27 24 21 73 24 106
leaf_count=23 20 38 123 30 23 115 20 37 31 123 183 20 30 31 417 32 34 47 103 107 23 20 54 37 27 24 21 73 24 106
internal_value=0 186465 -83038.3 38974.6 -7935.95 37052.6 329701 98298 480525 -134008 -66609 676465 515111 -108.011 -201157 138413 90790.3 151979 59784.7 90260.4 295176 146626 -48218.9 100264 184235 362347 -22899.9 229535 200423 271506
internal_weight=0 615 1381 303 283 260 312 303 144 1078 538 70 50 415 540 280 243 211 177 232 74 51 206 91 130 54 128 104 168 130
internal_count=1996 615 1381 303 283 260 312 303 144 1078 538 70 50 415 540 280 243 211 177 232 74 51 206 91 130 54 128 104 168 130
is_linear=0
shrinkage=0.1


Tree=18
num_leaves=31
num_cat=0
split_feature=9 8 8 3 3 11 3 3 6 12 12 0 0 11 3 12 3 9 6 12 0 9 9 9 9 3 9 9 6 12
split_gain=2.50998e+15 1.08853e+15 1.13629e+15 1.05097e+15 1.32373e+15 1.26819e+15 9.1005e+14 6.65202e+14 6.59654e+14 6.17958e+14 8.53978e+14 5.51815e+14 1.44965e+15 5.49562e+14 6.45865e+14 4.70253e+14 4.09775e+14 3.62331e+14 3.58879e+14 3.55327e+14 2.95891e+14 3.26386e+14 2.88443e+14 2.61921e+14 2.59579e+14 2.28111e+14 2.13159e+14 3.07921e+14 2.11924e+14 1.99974e+14
threshold=92.500000000000014 4.0000000000000009 2.5000000000000004 129.50000000000003 40.500000000000007 25.500000000000004 277.50000000000006 312.50000000000006 1.0000000180025095e-35 11.500000000000002 9.5000000000000018 5.5000000000000009 1.5000000000000002 6.5000000000000009 119.50000000000001 9.5000000000000018 118.50000000000001 114.50000000000001 1.0000000180025095e-35 5.5000000000000009 6.5000000000000009 136.50000000000003 102.50000000000001 121.50000000000001 55.500000000000007 206.50000000000003 65.500000000000014 51.500000000000007 5.5000000000000009 13.500000000000002
decision_type=2 2 2 2 2 2 2 2 2 2 2 2 2 2 2 2 2 2 2 2 2 2 2 2 2 2 2 2 2 2
left_child=3 2 8 4 -1 13 26 18 -2 10 -3 12 -11 16 29 19 -6 22 -8 -16 21 -19 -10 -12 -20 -13 27 -5 -24 -15
right_child=1 9 -4 6 5 -7 7 -9 17 11 23 25 -14 14 15 -17 -18 20 24 -21 -22 -23 28 -25 -26 -27 -28 -29 -30 -31
leaf_value=-257165.56790000002 -257345.12981770837 381819.3683928572 947583.39650000003 -168573.71795094374 728878.24750000006 803432.94590625004 -2066.1708223417209 -473778.89531250001 472930.73798076925 32010.484148848685 -63209.266383713941 198487.85004069013 1012494.4619999999 -130253.9401888951 179724.23348214288 74126.666826923072 151866.93154296876 673975.9822385204 478995.2954026442 761451.5395833333 105027.217625 312580.45882352942 25654.329558879574 -320327.7893188477 61004.266406250004 -229041.57454927886 -67629.226537607232 -324036.69872363284 369144.38519021741 120150.89997996796
leaf_weight=125 24 35 25 351 20 25 77 20 26 38 104 24 25 175 21 104 32 49 39 21 25 51 82 64 24 26 102 200 23 39
leaf_count=125 24 35 25 351 20 25 77 20 26 38 104 24 25 175 21 104 32 49 39 21 25 51 82 64 24 26 102 200 23 39
internal_value=0 166863 301625 -75361.4 29791.4 111873 -148050 65689 243950 36792.2 -67542.2 224225 421091 69909.3 26014.8 188177 373794 290946 142756 470588 412737 489664 174734 -161159 319761 -23827.5 -200421 -225003 100895 -84619.4
internal_weight=0 621 305 1375 562 437 813 160 280 316 203 113 63 412 360 146 52 256 140 42 125 100 131 168 63 50 653 551 105 214
internal_count=1996 621 305 1375 562 437 813 160 280 316 203 113 63 412 360 146 52 256 140 42 125 100 131 168 63 50 653 551 105 214
is_linear=0
shrinkage=0.1


Tree=19
num_leaves=31
num_cat=0
split_feature=5 5 11 1 11 3 6 5 11 11 3 11 9 6 3 3 9 11 11 8 12 3 3 9 9 0 9 11 11 12
split_gain=2.04241e+15 1.06826e+15 8.62898e+14 8.00553e+14 8.17813e+14 7.43498e+14 6.25016e+14 7.72639e+14 5.98929e+14 8.21793e+14 5.86591e+14 5.16175e+14 4.43072e+14 3.75927e+14 3.73819e+14 6.2669e+14 3.73167e+14 2.70465e+14 2.69038e+14 2.34393e+14 1.64303e+14 1.40606e+14 1.37346e+14 1.35913e+14 1.12692e+14 2.02372e+14 1.05297e+14 9.25026e+13 9.20642e+13 9.13371e+13
threshold=4.0000000000000009 1.5000000000000002 25.500000000000004 1.0000000180025095e-35 20.500000000000004 287.50000000000006 1.0000000180025095e-35 6.5000000000000009 7.5000000000000009 5.5000000000000009 280.50000000000006 26.500000000000004 109.50000000000001 5.5000000000000009 128.50000000000003 120.50000000000001 35.500000000000007 9.5000000000000018 13.500000000000002 2.5000000000000004 11.500000000000002 158.50000000000003 182.50000000000003 113.50000000000001 62.500000000000007 4.5000000000000009 91.500000000000014 16.500000000000004 16.500000000000004 9.5000000000000018
decision_type=2 2 2 2 2 2 2 2 2 2 2 2 2 2 2 2 2 2 2 2 2 2 2 2 2 2 2 2 2 2
left_child=1 22 6 4 8 11 -2 10 9 -3 12 24 14 20 15 -8 28 21 -19 27 -12 -18 -1 -22 25 -6 -26 -14 -10 -16
right_child=2 3 -4 -5 5 -7 7 -9 16 -11 13 -13 19 -15 29 -17 17 18 -20 -21 23 -23 -24 -25 26 -27 -28 -29 -30 -31
leaf_value=-286424.069706371 -268848.24507575756 9569.0310546875007 659125.98806423612 -369509.49950520834 -298764.5570703125 594560.37335069443 -143483.95823863635 722167.07068750006 -193309.68359375 736554.7239130435 667495.75564313622 462671.693359375 264934.77698863641 -11493.844375000001 -118820.82775000001 297455.43820684525 -42902.462966844512 59319.489576661879 -65281.418420218994 69646.048750000002 535986.91355468752 -279388.6863461539 -151605.44985622828 167323.16447265627 303180.76750000002 49693.36838671875 36494.726260964911 548817.50546875002 -437935.34821875003 -391936.08619791665
leaf_weight=159 33 48 36 60 25 36 66 25 40 23 28 32 22 20 25 63 41 283 447 35 20 65 144 20 20 50 57 24 25 24
leaf_count=159 33 48 36 60 25 36 66 25 40 23 28 32 22 20 25 63 41 283 447 35 20 65 144 20 20 50 57 24 25 24
internal_value=0 -53869.8 189949 -13094.9 4845.38 178950 148244 185244 -34561.1 245071 146561 97635.1 70774.4 369616 -17456.4 71858.5 -56596.5 -38651.5 -16977.2 264664 481707 -187918 -222352 351655 20785.3 -66459.3 105764 413048 -287396 -252592
internal_weight=0 1555 441 1252 1192 220 405 372 972 71 347 184 259 88 178 129 901 836 730 81 68 106 303 40 152 75 77 46 65 49
internal_count=1996 1555 441 1252 1192 220 405 372 972 71 347 184 259 88 178 129 901 836 730 81 68 106 303 40 152 75 77 46 65 49
is_linear=0
shrinkage=0.1


Tree=20
num_leaves=31
num_cat=0
split_feature=9 9 11 0 11 12 3 9 3 11 9 9 0 8 3 11 12 9 3 0 12 0 3 8 9 5 1 5 11 9
split_gain=1.76095e+15 1.3111e+15 1.20458e+15 1.12721e+15 8.88305e+14 6.16679e+14 5.41293e+14 4.87673e+14 6.18724e+14 6.47737e+14 4.57965e+14 4.75344e+14 4.55678e+14 4.29079e+14 3.71196e+14 9.59433e+14 4.36298e+14 3.00403e+14 7.10972e+14 3.66722e+14 2.90566e+14 3.40488e+14 2.80425e+14 2.62704e+14 2.36714e+14 1.88546e+14 1.87718e+14 1.80957e+14 1.67522e+14 2.76504e+14
threshold=62.500000000000007 51.500000000000007 17.500000000000004 7.5000000000000009 13.500000000000002 5.5000000000000009 257.50000000000006 50.500000000000007 119.50000000000001 8.5000000000000018 184.50000000000003 168.50000000000003 1.5000000000000002 4.0000000000000009 304.00000000000006 26.500000000000004 12.500000000000002 159.50000000000003 213.50000000000003 2.5000000000000004 11.500000000000002 5.5000000000000009 169.50000000000003 2.5000000000000004 109.50000000000001 5.5000000000000009 1.0000000180025095e-35 5.5000000000000009 21.500000000000004 46.500000000000007
decision_type=2 2 2 2 2 2 2 2 2 2 2 2 2 2 2 2 2 2 2 2 2 2 2 2 2 2 2 2 2 2
left_child=1 3 5 4 6 -2 7 8 9 -1 11 20 -10 -8 15 17 -16 19 -19 23 26 -22 -21 -4 -25 -24 27 -7 -6 -30
right_child=2 -3 14 -5 28 10 13 -9 12 -11 -12 -13 -14 -15 16 -17 -18 18 -20 22 21 -23 25 24 -26 -27 -28 -29 29 -31
leaf_value=477947.80374999996 485584.72149999999 -293908.66634921188 446820.56533994939 636360.79481250001 -222940.57280076377 -92453.50275801809 632707.15356657607 -153377.33453491211 -143494.361875 -122786.53783035715 -459498.58804347826 462477.01071428577 290495.07666874997 126977.72333669355 647612.14751420461 768419.75254629634 124469.5816875 29619.02459891183 789281.67982954544 219708.94581801473 221224.45751220707 -125105.82173295454 -12180.743085252194 -53175.135221354169 357523.27336956526 -321901.21513020835 -328294.20631734916 179854.31531808036 64318.061767578125 -234687.25115201273
leaf_weight=20 25 226 37 25 223 190 23 160 30 175 23 21 125 62 44 27 25 28 22 34 80 44 57 36 23 30 29 28 65 59
leaf_count=20 25 226 37 25 223 190 23 160 30 175 23 21 125 62 44 27 25 28 22 34 80 44 57 36 23 30 29 28 65 59
internal_value=0 -77060.4 114487 -26380.3 -43968.9 3240.21 30189.7 -8749.03 57366.8 -61172.8 -25816.7 -371.069 206497 263822 249332 200343 458068 142897 363871 91980.9 -26570 98333.1 -23811.9 237928 106928 -118981 -89274.4 -57478.2 -171129 -77950.6
internal_weight=0 1193 803 967 942 440 595 510 350 195 415 392 155 85 363 294 69 267 50 217 371 124 121 96 59 87 247 218 347 124
internal_count=1996 1193 803 967 942 440 595 510 350 195 415 392 155 85 363 294 69 267 50 217 371 124 121 96 59 87 247 218 347 124
is_linear=0
shrinkage=0.1


Tree=21
num_leaves=31
num_cat=0
split_feature=9 9 11 0 11 12 8 3 6 9 9 3 9 11 9 0 8 12 0 0 3 0 0 3 9 3 3 3 11 1
split_gain=1.42637e+15 1.06199e+15 9.75712e+14 9.13037e+14 7.19527e+14 4.9951e+14 4.61084e+14 4.86647e+14 4.52029e+14 3.70952e+14 3.85029e+14 3.05905e+14 1.07576e+15 8.43379e+14 4.2358e+14 2.98809e+14 2.80309e+14 2.35359e+14 2.75795e+14 1.99166e+14 1.82189e+14 1.62101e+14 2.05357e+14 1.83885e+14 4.04358e+14 1.57442e+14 4.18869e+14 2.12169e+14 1.55044e+14 1.52052e+14
threshold=62.500000000000007 51.500000000000007 17.500000000000004 7.5000000000000009 13.500000000000002 5.5000000000000009 1.5000000000000002 109.50000000000001 3.5000000000000004 184.50000000000003 168.50000000000003 287.50000000000006 124.50000000000001 26.500000000000004 110.50000000000001 1.0000000180025095e-35 2.5000000000000004 11.500000000000002 5.5000000000000009 4.5000000000000009 222.50000000000003 5.5000000000000009 3.5000000000000004 119.50000000000001 46.500000000000007 137.50000000000003 120.50000000000001 213.50000000000003 21.500000000000004 1.0000000180025095e-35
decision_type=2 2 2 2 2 2 2 2 2 2 2 2 2 2 2 2 2 2 2 2 2 2 2 2 2 2 2 2 2 2
left_child=1 3 5 4 6 -2 7 -1 19 10 17 13 14 25 -13 -8 -17 29 -19 -9 -18 22 -6 -24 -25 26 -4 -27 -23 -7
right_child=2 -3 11 -5 21 9 15 8 -10 -11 -12 12 -14 -15 -16 16 20 18 -20 -21 -22 28 23 24 -26 27 -28 -29 -30 -31
leaf_value=-75960.860965401793 437026.25639062497 -264517.79837398021 71078.041251148898 572724.71106250002 -182851.22911982914 -51730.368424105865 -322554.08261718752 628051.41837121209 53413.142135682399 -413548.73057065223 416229.30773809529 427432.50560897443 911820.99380787043 691577.77867476863 -22833.226006944446 -274817.72997767857 -16971.326081516432 199102.01207031251 -112595.23694069602 280622.85643939395 153596.75601851853 -374503.45014467597 -251242.55621279764 454377.80505952379 -67002.413189338244 -189705.09354876896 549769.88887500006 103083.11581833965 -141847.04054815575 -295464.79310344829
leaf_weight=56 25 226 68 25 139 218 32 33 49 23 21 39 27 27 45 35 276 80 44 33 81 54 21 21 51 33 25 99 61 29
leaf_count=56 25 226 68 25 139 218 32 33 49 23 21 39 27 27 45 35 276 80 44 33 81 54 21 21 51 33 25 99 61 29
internal_value=0 -69354.4 103038 -23742.2 -39572.1 2916.19 27170.7 165788 283509 -23235 -333.963 224398 362717 163473 186219 -28733.7 -4748.39 -23913 88499.8 454337 21729 -154016 -105895 9125.99 85066.8 100100 199759 29886.1 -251094 -80347
internal_weight=0 1193 803 967 942 440 595 171 115 415 392 363 111 252 84 424 392 371 124 66 357 347 232 93 72 225 93 132 115 247
internal_count=1996 1193 803 967 942 440 595 171 115 415 392 363 111 252 84 424 392 371 124 66 357 347 232 93 72 225 93 132 115 247
is_linear=0
shrinkage=0.1


Tree=22
num_leaves=31
num_cat=0
split_feature=6 11 11 3 5 9 3 3 5 9 8 11 12 12 9 11 3 3 0 0 3 3 0 0 3 12 3 6 0 5
split_gain=1.1614e+15 1.31229e+15 1.58636e+15 9.9078e+14 9.19064e+14 8.85822e+14 1.50085e+15 6.81125e+14 4.67374e+14 4.30628e+14 2.92124e+14 4.09086e+14 2.51166e+14 2.35378e+14 1.56169e+14 1.55614e+14 5.19461e+14 2.94631e+14 1.10314e+14 1.10912e+14 9.95591e+13 1.00153e+14 1.26299e+14 1.73842e+14 9.40915e+13 8.49211e+13 7.46107e+13 5.86298e+13 3.60558e+13 3.06832e+13
threshold=1.0000000180025095e-35 25.500000000000004 36.500000000000007 284.50000000000006 6.5000000000000009 124.50000000000001 311.50000000000006 136.50000000000003 1.5000000000000002 9.5000000000000018 1.5000000000000002 6.5000000000000009 9.5000000000000018 10.500000000000002 81.500000000000014 20.500000000000004 307.50000000000006 313.50000000000006 1.5000000000000002 5.5000000000000009 182.50000000000003 306.50000000000006 5.5000000000000009 2.5000000000000004 245.50000000000003 12.500000000000002 206.50000000000003 3.5000000000000004 3.5000000000000004 2.5000000000000004
decision_type=2 2 2 2 2 2 2 2 2 2 2 2 2 2 2 2 2 2 2 2 2 2 2 2 2 2 2 2 2 2
left_child=13 3 7 4 8 15 -7 -3 27 -10 11 -11 -12 20 18 17 -17 -5 -15 26 -1 22 23 24 -22 -21 28 -2 -20 -30
right_child=1 2 -4 5 -6 6 -8 -9 9 10 12 -13 -14 14 -16 16 -18 -19 19 25 21 -23 -24 -25 -26 -27 -28 -29 29 -31
leaf_value=-296169.05925164477 -172601.66381433824 1250663.2964285715 -216523.12559523812 190032.66092722039 636516.43583096599 1251862.9386904761 41441.752226562501 445250.10446428577 -414897.16813151044 477724.30175000004 111490.87586922481 58119.010693210963 -49208.961139787949 -234055.21163807745 147668.73666666666 -10536.261215672348 608547.65326086956 -251993.29625000001 -141825.46775369847 -294195.08964843751 -230152.0717857143 -347136.67895720107 -245260.14822225767 213712.34078125001 37595.495684523812 -60005.258385416673 58894.616856060609 -346812.81743749999 -89345.253556743424 43556.976806640625
leaf_weight=76 85 21 21 38 22 21 20 21 24 25 116 329 602 46 30 33 23 25 47 32 35 23 49 20 21 30 66 25 38 32
leaf_count=76 85 21 21 38 22 21 20 21 24 25 116 329 602 46 30 33 23 25 47 32 35 23 49 20 21 30 66 25 38 32
internal_value=0 46749.3 493130 26488.5 -4008.33 260552 661414 847957 -15692.9 4029.08 13408 87752.2 -23246.3 -124465 -69566.8 122440 243730 14625.5 -91962.2 -65283.5 -203135 -155361 -120075 -39362.8 -129747 -180877 -26120.5 -212195 -74077.7 -28589.9
internal_weight=0 1451 63 1388 1228 160 41 42 1206 1096 1072 354 718 545 321 119 56 63 291 245 224 148 125 76 56 62 183 110 117 70
internal_count=1996 1451 63 1388 1228 160 41 42 1206 1096 1072 354 718 545 321 119 56 63 291 245 224 148 125 76 56 62 183 110 117 70
is_linear=0
shrinkage=0.1


Tree=23
num_leaves=31
num_cat=0
split_feature=9 9 0 11 11 9 11 3 9 3 11 0 0 8 3 3 3 9 0 9 3 12 5 11 9 0 6 8 3 3
split_gain=9.90662e+14 7.84657e+14 6.82741e+14 6.52813e+14 5.38432e+14 3.79112e+14 6.26365e+14 3.76918e+14 3.45194e+14 3.97109e+14 4.93163e+14 3.5979e+14 3.1021e+14 2.97281e+14 2.1862e+14 7.32936e+14 5.84397e+14 7.48625e+14 5.59422e+14 3.0451e+14 2.13428e+14 2.38293e+14 1.54342e+14 1.66179e+14 2.12568e+14 1.96015e+14 1.42106e+14 1.4128e+14 1.37492e+14 1.24264e+14
threshold=62.500000000000007 51.500000000000007 7.5000000000000009 17.500000000000004 13.500000000000002 181.50000000000003 16.500000000000004 257.50000000000006 50.500000000000007 119.50000000000001 8.5000000000000018 1.5000000000000002 5.5000000000000009 4.0000000000000009 137.50000000000003 61.500000000000007 258.50000000000006 124.50000000000001 5.5000000000000009 102.50000000000001 234.50000000000003 10.500000000000002 4.0000000000000009 21.500000000000004 46.500000000000007 5.5000000000000009 1.0000000180025095e-35 4.0000000000000009 285.50000000000006 269.50000000000006
decision_type=2 2 2 2 2 2 2 2 2 2 2 2 2 2 2 2 2 2 2 2 2 2 2 2 2 2 2 2 2 2
left_child=1 2 4 5 7 6 12 8 9 10 -1 -11 -2 -9 15 -5 -16 19 -17 -18 -8 -22 23 -6 25 -25 -15 -10 -21 -3
right_child=3 29 -4 14 22 -7 20 13 27 11 -12 -13 -14 26 16 18 17 -19 -20 28 21 -23 -24 24 -26 -27 -28 -29 -30 -31
leaf_value=424036.79375000001 429847.20278125 -197104.98285017451 497194.46100000007 5776.3735704787241 -158244.76231770834 -352088.69762834825 -89862.456970816987 527460.66487771738 -281292.89019886364 -142933.32822916665 -100140.65320089286 242699.90752500005 41680.449375000004 -60320.307589285716 -135504.78688524591 860383.26930803573 381591.53558035719 617342.18881578953 256786.26640625001 189600.77245639535 -51194.436153017246 253580.41866508155 -321460.21150544821 342900.66937500006 -146144.376625 -57197.876517740886 243896.47757352941 -70845.104754849148 -33627.80907315341 -418820.20344827586
leaf_weight=20 50 197 25 47 210 28 223 23 44 30 175 125 35 28 61 28 35 38 34 43 58 46 38 25 50 24 34 116 77 29
leaf_count=20 50 197 25 47 210 28 223 23 44 30 175 125 35 28 61 28 35 38 34 43 58 46 38 25 50 24 34 116 77 29
internal_value=0 -57799 -18592.2 85870.7 -32280.8 3974.51 28173 25455.1 -7037.86 48587.5 -46378.9 168061 270014 220413 185139 303605 134301 219576 529378 122059 -34690.8 83609.8 -131281 -107893 -1085.36 146934 106508 -128718 46362.4 -225555
internal_weight=0 1193 967 803 942 440 412 595 510 350 195 155 85 85 363 109 254 193 62 155 327 104 347 309 99 49 62 160 120 226
internal_count=1996 1193 967 803 942 440 412 595 510 350 195 155 85 85 363 109 254 193 62 155 327 104 347 309 99 49 62 160 120 226
is_linear=0
shrinkage=0.1


Tree=24
num_leaves=31
num_cat=0
split_feature=9 9 0 1 8 8 0 11 6 6 3 6 0 3 12 6 9 0 0 9 9 3 12 0 12 0 9 11 9 11
split_gain=8.02436e+14 6.35572e+14 5.5302e+14 5.33878e+14 6.16429e+14 5.78163e+14 4.4904e+14 4.11772e+14 3.11659e+14 4.55622e+14 6.26038e+14 3.11221e+14 3.03333e+14 5.65425e+14 3.47991e+14 3.24573e+14 2.48125e+14 2.20121e+14 4.02902e+14 4.55447e+14 4.04991e+14 2.19071e+14 1.87495e+14 1.71289e+14 1.52819e+14 1.46548e+14 1.32629e+14 1.18266e+14 1.0838e+14 2.78923e+14
threshold=62.500000000000007 51.500000000000007 7.5000000000000009 1.0000000180025095e-35 4.0000000000000009 2.5000000000000004 1.0000000180025095e-35 13.500000000000002 3.5000000000000004 1.0000000180025095e-35 275.50000000000006 5.5000000000000009 5.5000000000000009 287.50000000000006 9.5000000000000018 5.5000000000000009 46.500000000000007 1.0000000180025095e-35 4.5000000000000009 121.50000000000001 102.50000000000001 213.50000000000003 11.500000000000002 5.5000000000000009 9.5000000000000018 1.5000000000000002 121.50000000000001 17.500000000000004 46.500000000000007 21.500000000000004
decision_type=2 2 2 2 2 2 2 2 2 2 2 2 2 2 2 2 2 2 2 2 2 2 2 2 2 2 2 2 2 2
left_child=1 2 6 4 5 17 24 8 9 -8 -11 -10 13 14 -6 27 -13 -2 20 -20 -19 -22 26 28 -1 -24 -16 -14 29 -9
right_child=3 -3 -4 -5 12 -7 7 23 11 10 -12 16 15 -15 22 -17 -18 18 19 -21 21 -23 25 -25 -26 -27 -28 -29 -30 -31
leaf_value=-68067.429062499999 -65105.184939236118 -202999.64868293697 447475.03025000007 -261371.65458096593 442571.0234375 667636.81562500005 -67977.690198266806 -124151.46405639649 -339159.84393382352 110703.81471557618 590178.48911290325 -100823.00609248993 -76349.238190857446 532303.13124999998 -24715.251281977635 -448286.57581845246 171934.26565504808 696119.72343750007 -47730.916711288621 339804.86824048916 454298.78499999997 117264.13242187501 8065.9370251071077 -198059.11947690218 -406615.25296875002 248311.32665334304 -285990.5401529948 132371.06425223214 -89615.372918429042 321643.21756250004
leaf_weight=20 36 226 25 44 20 25 119 32 34 224 31 93 121 26 102 21 52 25 89 46 30 54 62 115 40 43 24 35 157 25
leaf_count=20 36 226 25 44 20 25 119 32 34 224 31 93 121 26 102 21 52 25 89 46 30 54 62 115 40 43 24 35 157 25
internal_value=0 -52019.1 -16733 77283.6 96915.8 206867 -29052.7 -11045 41657.2 93593.2 168993 -66856.9 23050.1 88390.1 42407 -79205 -3006.61 165726 199784 84318.3 342791 237634 7760.81 -99629.7 -293766 106452 -74482 -29521 -46735.4 71372.5
internal_weight=0 1193 967 803 759 305 942 882 553 374 255 179 454 277 251 177 145 280 244 135 109 84 231 329 60 105 126 156 214 57
internal_count=1996 1193 967 803 759 305 942 882 553 374 255 179 454 277 251 177 145 280 244 135 109 84 231 329 60 105 126 156 214 57
is_linear=0
shrinkage=0.1


Tree=25
num_leaves=30
num_cat=0
split_feature=1 9 5 3 11 3 9 9 5 3 9 3 11 3 3 3 3 3 3 0 0 0 3 11 3 9 3 3 3
split_gain=6.86246e+14 8.13308e+14 7.441e+14 6.79433e+14 4.55806e+14 4.52093e+14 1.78553e+15 3.971e+14 3.63392e+14 3.38075e+14 2.75726e+14 3.62084e+14 4.74798e+14 3.07452e+14 2.26309e+14 1.79338e+14 1.63805e+14 1.57481e+14 1.49816e+14 1.01567e+14 7.64152e+13 1.25516e+14 5.1295e+13 3.79759e+13 3.14596e+13 2.88999e+13 2.11086e+13 1.53116e+13 3.45844e+12
threshold=1.0000000180025095e-35 109.50000000000001 6.5000000000000009 317.50000000000006 26.500000000000004 285.50000000000006 124.50000000000001 180.50000000000003 1.5000000000000002 289.50000000000006 9.5000000000000018 126.50000000000001 25.500000000000004 222.50000000000003 307.50000000000006 244.50000000000003 268.50000000000006 36.500000000000007 147.50000000000003 1.5000000000000002 5.5000000000000009 3.5000000000000004 295.50000000000006 16.500000000000004 137.50000000000003 55.500000000000007 19.500000000000004 209.50000000000003 185.50000000000003
decision_type=2 2 2 2 2 2 2 2 2 2 2 2 2 2 2 2 2 2 2 2 2 2 2 2 2 2 2 2 2
left_child=1 2 8 4 5 7 14 17 18 10 -10 12 -12 -13 22 23 -17 -3 24 -19 21 27 -7 -2 26 -23 -1 -20 -22
right_child=15 3 -4 -5 -6 6 -8 -9 9 -11 11 13 -14 -15 -16 16 -18 19 20 -21 28 25 -24 -25 -26 -27 -28 -29 -30
leaf_value=-275435.88352272729 -310750.21920362901 -121635.11453125 585081.37375000003 -311056.42321068549 597688.8002604167 -142324.89836237981 1058954.2845000001 -338103.86875000002 -342352.07037500001 310746.65572916664 33357.898396307552 -116859.20449793986 471974.15279447124 26250.203310355395 346357.37670200894 68471.753190104166 -309297.07897727273 235325.70844155844 -96893.17702717206 91206.920358413015 -177965.63421875003 2446.0524305555555 65147.387500000004 -482540.98110795463 -339440.7815972222 153261.50703125002 -141129.2754921875 -188215.63668478263 -235422.0616477273
leaf_weight=22 31 25 20 31 24 26 25 21 25 33 486 365 26 255 21 24 22 77 91 134 20 27 22 22 27 24 25 23 22
leaf_count=22 31 25 20 31 24 26 25 21 25 33 486 365 26 255 21 24 22 77 91 134 20 27 22 22 27 24 25 23 22
internal_value=0 13395 -20772.8 138874 176068 147239 334895 78602.1 -29010.2 -4857.73 -13859.4 -6604.72 55631.4 -57999.7 72555.1 -256670 -112200 115682 -131293 143800 -87635.3 -56981.3 -47233.4 -382060 -253415 73418 -203996 -115318 -208062
internal_weight=0 1897 1491 406 375 351 94 257 1471 1190 1157 1132 512 620 69 99 46 236 281 211 207 165 48 53 74 51 47 114 42
internal_count=1996 1897 1491 406 375 351 94 257 1471 1190 1157 1132 512 620 69 99 46 236 281 211 207 165 48 53 74 51 47 114 42
is_linear=0
shrinkage=0.1


Tree=26
num_leaves=29
num_cat=0
split_feature=5 1 11 11 3 9 3 5 3 9 9 9 12 11 12 3 6 3 3 3 9 9 0 12 9 3 3 0
split_gain=5.56492e+14 5.49086e+14 6.2849e+14 1.97463e+15 5.29263e+14 5.15729e+14 1.06323e+15 4.10416e+14 3.7037e+14 2.40017e+14 4.6648e+14 2.32994e+14 2.32459e+14 3.44994e+14 1.95509e+14 1.47932e+14 1.27113e+14 1.18813e+14 1.13455e+14 1.05616e+14 5.02546e+13 5.03332e+13 6.85086e+13 6.0547e+13 2.34634e+13 2.16355e+13 5.61517e+13 7.29614e+12
threshold=1.5000000000000002 1.0000000180025095e-35 25.500000000000004 41.000000000000007 284.50000000000006 124.50000000000001 311.50000000000006 6.5000000000000009 136.50000000000003 72.500000000000014 109.50000000000001 9.5000000000000018 9.5000000000000018 7.5000000000000009 7.5000000000000009 244.50000000000003 1.5000000000000002 295.50000000000006 261.50000000000006 148.50000000000003 99.500000000000014 77.500000000000014 1.5000000000000002 10.500000000000002 55.500000000000007 137.50000000000003 19.500000000000004 3.5000000000000004
decision_type=2 2 2 2 2 2 2 2 2 2 2 2 2 2 2 2 2 2 2 2 2 2 2 2 2 2 2 2
left_child=16 2 4 8 7 9 -7 11 -4 -6 -11 -2 14 -14 -13 24 19 -12 -17 25 21 22 -21 -24 -3 26 -1 -25
right_child=1 15 3 -5 5 6 -8 -9 -10 10 17 12 13 -15 -16 18 -18 -19 -20 20 -22 -23 23 27 -26 -27 -28 -29
leaf_value=-276935.58630952379 -308116.86593749997 -267135.97092391306 1002132.7333333334 -361922.28701923077 -169300.63923863004 1021232.1084375 13810.335227272728 395449.16057692311 419461.32437500008 568188.27514204546 -128092.40733173078 45134.712879376639 207346.43555927579 -33837.970800226387 274782.583763587 76711.854545454538 -336222.56159855775 135459.8566875 -240934.21331521741 -180419.43152794472 -184489.75202872985 98892.948716517858 -135179.40303571429 68027.216375000004 -408479.26868489588 -268566.26821289066 -48325.869779829547 2079.7094822303925
leaf_weight=21 25 23 24 26 28 20 22 26 20 22 26 191 63 1012 46 22 26 50 23 39 31 21 35 25 24 32 22 51
leaf_count=21 25 23 24 26 28 20 22 26 20 22 26 191 63 1012 46 22 26 50 23 39 31 21 35 25 24 32 22 51
internal_value=0 22337.9 35989.7 329006 22592.5 190064 493535 1950.32 737282 88907.3 162681 -5701.87 60.6159 -19703.4 89707.7 -215233 -124812 45297.2 -85640.6 -104968 -67343.2 -46106.1 -66405.9 -26347.1 -339311 -206306 -159972 23773
internal_weight=0 1693 1601 70 1531 168 42 1363 44 126 98 1337 1312 1075 237 92 303 76 45 277 202 171 150 111 47 75 43 76
internal_count=1996 1693 1601 70 1531 168 42 1363 44 126 98 1337 1312 1075 237 92 303 76 45 277 202 171 150 111 47 75 43 76
is_linear=0
shrinkage=0.1


Tree=27
num_leaves=31
num_cat=0
split_feature=9 9 4 3 9 0 3 3 0 0 11 9 3 12 3 3 3 3 3 3 6 11 5 11 3 0 9 12 3 3
split_gain=4.74092e+14 4.13988e+14 4.07987e+14 5.279e+14 4.10544e+14 3.96383e+14 3.92793e+14 8.12594e+14 5.50348e+14 3.63552e+14 3.13018e+14 2.97877e+14 2.34365e+14 2.86893e+14 2.21274e+14 3.07848e+14 2.24841e+14 2.18022e+14 4.38526e+14 1.99135e+14 1.71223e+14 1.5931e+14 1.48822e+14 1.28507e+14 1.14294e+14 1.13817e+14 1.09855e+14 1.08829e+14 9.26283e+13 8.22598e+13
threshold=59.500000000000007 51.500000000000007 2.5000000000000004 287.50000000000006 124.50000000000001 7.5000000000000009 137.50000000000003 120.50000000000001 4.5000000000000009 1.0000000180025095e-35 13.500000000000002 110.50000000000001 275.50000000000006 12.500000000000002 36.500000000000007 89.500000000000014 62.500000000000007 133.50000000000003 119.50000000000001 310.50000000000006 5.5000000000000009 9.5000000000000018 5.5000000000000009 21.500000000000004 269.50000000000006 4.5000000000000009 120.50000000000001 9.5000000000000018 36.500000000000007 192.50000000000003
decision_type=2 2 2 2 2 2 2 2 2 2 2 2 2 2 2 2 2 2 2 2 2 2 2 2 2 2 2 2 2 2
left_child=1 5 3 6 11 9 7 14 -9 27 12 -5 17 -14 -2 16 -16 18 -11 -6 29 -19 23 28 -3 -25 -10 -1 -12 -8
right_child=2 24 -4 4 19 -7 20 8 26 10 22 -13 13 -15 15 -17 -18 21 -20 -21 -22 -23 -24 25 -26 -27 -28 -29 -30 -31
leaf_value=-69938.219687500008 -105664.63701054217 -135253.3207587488 -346900.80013020837 315725.60166666668 714369.3738636364 381221.76450000005 -96902.886356707313 719659.40971679694 30382.683723958333 -33231.200051795582 -298471.94261363638 -42398.417854817708 40680.736585365856 451658.29482758627 110201.94371875002 -171177.90474537038 500119.17217261903 -167520.77131320225 210305.41962031252 288890.78522727272 -244047.31262637867 22225.085731645067 -272188.19587468327 -85463.344828869056 -348098.65829741379 135867.2872295673 347715.61656250001 -355632.86410156253 -80832.917948774862 17359.690931611905
leaf_weight=20 83 194 24 45 22 25 82 32 24 181 22 48 41 29 50 27 21 89 125 22 34 88 37 42 29 52 20 40 176 272
leaf_count=20 83 194 24 45 22 25 82 32 24 181 22 48 41 29 50 27 21 89 125 22 34 88 37 42 29 52 20 40 176 272
internal_value=0 -40109.3 59218.4 71682.4 249958 -11784.9 33816.2 129701 404113 -22215.1 -6011.92 130887 39938.1 210943 14478.6 116233 225530 15154.8 66252.7 501630 -29695.4 -73183.8 -83247.1 -59306 -162933 36974.9 174625 -260401 -105015 -9107.91
internal_weight=0 1190 806 782 137 967 645 257 76 942 882 93 553 70 181 98 71 483 306 44 388 177 329 292 223 94 44 60 198 354
internal_count=1996 1190 806 782 137 967 645 257 76 942 882 93 553 70 181 98 71 483 306 44 388 177 329 292 223 94 44 60 198 354
is_linear=0
shrinkage=0.1


Tree=28
num_leaves=29
num_cat=0
split_feature=1 11 11 11 3 12 5 12 3 3 12 0 3 9 9 9 12 11 11 3 3 3 10 8 9 0 5 9
split_gain=4.67878e+14 5.0541e+14 5.91814e+14 1.1245e+15 5.06087e+14 3.496e+14 4.35351e+14 3.26991e+14 3.18654e+14 2.77535e+14 2.72786e+14 2.62015e+14 4.90913e+14 2.59606e+14 2.76351e+14 1.99153e+14 2.55113e+14 3.28524e+14 2.56699e+14 1.57966e+14 1.06079e+14 1.11339e+14 8.89041e+13 2.02572e+14 1.09004e+14 9.2101e+13 6.13235e+13 1.83183e+13
threshold=1.0000000180025095e-35 20.500000000000004 41.000000000000007 25.500000000000004 287.50000000000006 16.500000000000004 6.5000000000000009 12.500000000000002 136.50000000000003 257.50000000000006 12.500000000000002 5.5000000000000009 142.50000000000003 117.50000000000001 136.50000000000003 9.5000000000000018 9.5000000000000018 7.5000000000000009 8.5000000000000018 314.50000000000006 240.50000000000003 268.50000000000006 2.5000000000000004 2.5000000000000004 99.500000000000014 4.5000000000000009 5.5000000000000009 53.500000000000007
decision_type=2 2 2 2 2 2 2 2 2 2 2 2 2 2 2 2 2 2 2 2 2 2 2 2 2 2 2 2
left_child=1 5 3 4 22 6 9 -6 -5 15 13 12 -7 19 -15 -1 18 -18 -17 -11 27 -22 25 -24 -25 -3 -27 -2
right_child=20 2 -4 8 7 11 -8 -9 -10 10 -12 -13 -14 14 -16 16 17 -19 -20 -21 21 -23 23 24 -26 26 -28 -29
leaf_value=-331711.90532670455 -266423.39592633926 -188522.314453125 -326083.89793526789 866868.23841145844 593134.9089285715 245332.20494791667 428354.02554347826 114033.61600215518 333471.03184523812 26791.78857514881 339821.65896139707 -434603.36647727276 -416721.44635416666 524600.91644345247 36866.639272836539 -217888.86900000001 202182.26211734695 -64074.452983661453 126967.91774129747 -230167.95787037039 17179.89073275862 -281151.16576704546 273222.76643264358 162534.65042067308 -83876.408748653019 72356.691546630856 -102949.85665322581 -391728.73625000002
leaf_weight=22 28 32 28 24 28 24 23 29 21 210 34 33 21 21 26 25 49 854 158 27 29 22 37 26 58 56 31 20
leaf_count=22 28 32 28 24 28 24 23 29 21 210 34 33 21 21 26 25 49 854 158 27 29 22 37 26 58 56 31 20
internal_value=0 11060.4 115920 152107 81524.8 -14347.6 -3246.12 349382 617950 -10207.4 72141 -220578 -63626.2 40094.7 254790 -33841.7 -27807.5 -49626.4 79856.3 -2482.11 -211935 -111512 17908.9 78267 -7606.32 -43463.7 9891.14 -318634
internal_weight=0 1897 370 342 297 1527 1449 57 45 1426 318 78 45 284 47 1108 1086 903 183 237 99 51 240 121 84 119 87 48
internal_count=1996 1897 370 342 297 1527 1449 57 45 1426 318 78 45 284 47 1108 1086 903 183 237 99 51 240 121 84 119 87 48
is_linear=0
shrinkage=0.1


Tree=29
num_leaves=29
num_cat=0
split_feature=1 11 11 11 3 12 12 9 0 0 11 12 0 9 9 3 8 9 9 11 3 10 9 3 3 6 11 12
split_gain=3.78981e+14 4.09382e+14 4.79369e+14 9.10847e+14 4.16843e+14 2.83176e+14 3.74654e+14 2.9845e+14 4.30408e+14 4.38944e+14 3.49938e+14 2.71824e+14 2.12232e+14 4.06563e+14 2.04912e+14 1.55925e+14 1.54997e+14 1.19132e+14 2.00656e+14 1.15783e+14 2.3873e+14 1.89811e+14 9.77111e+13 9.00555e+13 1.14341e+14 4.13195e+13 2.66432e+13 1.02527e+11
threshold=1.0000000180025095e-35 20.500000000000004 41.000000000000007 25.500000000000004 307.50000000000006 16.500000000000004 13.500000000000002 109.50000000000001 6.5000000000000009 1.5000000000000002 13.500000000000002 13.500000000000002 5.5000000000000009 50.500000000000007 181.50000000000003 162.00000000000003 1.5000000000000002 168.50000000000003 133.50000000000003 24.500000000000004 285.50000000000006 2.5000000000000004 81.500000000000014 244.50000000000003 268.50000000000006 1.0000000180025095e-35 16.500000000000004 11.500000000000002
decision_type=2 2 2 2 2 2 2 2 2 2 2 2 2 2 2 2 2 2 2 2 2 2 2 2 2 2 2 2
left_child=1 5 3 4 19 6 7 8 9 22 -11 -5 13 -7 17 -10 -8 18 -9 20 21 -3 -1 26 -25 -17 -2 -21
right_child=23 2 -4 11 -6 12 16 14 15 10 -12 -13 -14 -15 -16 25 -18 -19 -20 27 -22 -23 -24 24 -26 -27 -28 -29
leaf_value=-151875.58618529735 -219866.51882560487 -61049.074194335939 -293475.50580357143 293409.94642857142 440574.37081473222 278793.2940625 461462.15176630439 148319.89023694489 -466317.40512499999 75767.308677455352 -60104.209208796572 786056.14479166677 -391143.02504734852 -326109.01699999999 -198199.16022727275 -238752.45625000002 94338.695923913052 354757.96156250004 -114242.19164496528 -126888.17515625 311402.1803503788 139174.3101171875 -19555.334379618878 62582.290494791669 -253036.0465909091 -58323.056250000001 -363759.28696732956 -116762.60179687501
leaf_weight=227 31 116 28 21 28 20 23 152 25 483 312 24 33 25 22 30 23 20 36 20 33 80 74 24 22 22 22 20
leaf_count=227 31 116 28 21 28 20 23 152 25 483 312 24 33 25 22 30 23 20 36 20 33 80 74 24 22 22 22 20
internal_value=0 9954.34 104328 136896 73372.4 -12912.8 -2921.51 -12128.8 -32551.9 -16496.1 22444.1 556155 -198520 -57263.5 92029.1 -261086 277900 122726 98042 35150.6 62570 20674.8 -119345 -190741 -88365.6 -162417 -279596 -121825
internal_weight=0 1897 370 342 297 1527 1449 1403 1173 1096 795 45 78 45 230 77 46 208 188 269 229 196 301 99 46 52 53 40
internal_count=1996 1897 370 342 297 1527 1449 1403 1173 1096 795 45 78 45 230 77 46 208 188 269 229 196 301 99 46 52 53 40
is_linear=0
shrinkage=0.1


Tree=30
num_leaves=28
num_cat=0
split_feature=1 11 11 11 3 3 5 3 0 0 11 11 11 12 3 3 3 11 3 3 3 3 3 0 3 11 12
split_gain=3.06975e+14 3.31599e+14 3.88289e+14 7.37786e+14 3.37643e+14 2.64451e+14 3.69535e+14 2.52465e+14 1.8159e+14 3.1995e+14 3.08817e+14 5.10396e+14 2.70593e+14 2.15258e+14 1.29234e+14 5.85671e+14 1.11704e+14 9.37839e+13 1.93371e+14 1.54587e+14 7.29757e+13 9.69977e+13 5.05313e+13 4.65687e+13 2.35681e+13 2.22066e+13 8.30472e+10
threshold=1.0000000180025095e-35 20.500000000000004 41.000000000000007 25.500000000000004 307.50000000000006 40.500000000000007 6.5000000000000009 136.50000000000003 5.5000000000000009 4.5000000000000009 8.5000000000000018 5.5000000000000009 9.5000000000000018 17.500000000000004 108.50000000000001 126.50000000000001 89.500000000000014 24.500000000000004 285.50000000000006 85.500000000000014 245.50000000000003 268.50000000000006 9.5000000000000018 2.5000000000000004 25.500000000000004 16.500000000000004 11.500000000000002
decision_type=2 2 2 2 2 2 2 2 2 2 2 2 2 2 2 2 2 2 2 2 2 2 2 2 2 2 2
left_child=1 5 3 4 17 22 8 -5 9 10 11 -7 -12 14 16 -16 -10 18 19 -3 25 -22 -1 -24 -25 -2 -19
right_child=20 2 -4 7 -6 6 -8 -9 13 -11 12 -13 -14 -15 15 -17 -18 26 -20 -21 21 -23 23 24 -26 -27 -28
leaf_value=-238752.64511230469 -196871.06691894532 196794.35023036861 -264127.95128348214 722102.7255208334 396516.92806919641 7561.0352090371634 417749.23035714286 247323.60684523813 2705.1146205357145 418520.37273437507 -168078.58547252309 615790.19588068186 18137.924632619739 -311905.19989583333 258767.61429570895 -66372.104851531985 -221409.76895491802 -114199.36312500002 280261.96858428034 -25655.747484574047 65972.857269021741 -227732.44460227271 -199495.21433823532 18687.392097355769 -105548.00484058278 -327383.36519886367 -105086.33812500001
leaf_weight=40 32 39 28 24 28 37 21 21 35 20 88 22 689 30 67 320 61 20 33 157 23 22 34 26 37 22 20
leaf_count=40 32 39 28 24 28 37 21 21 35 20 88 22 689 30 67 320 61 20 33 157 23 22 34 26 37 22 20
internal_value=0 8958.91 93894.9 123207 66035.1 -11621.5 1443.37 500539 -4942.62 23251.9 13795.8 234358 -2952.23 -51988.5 -35844.6 -10081.8 -139701 31635.5 56313 18607.3 -171667 -77616.4 -144178 -105178 -54276.3 -250043 -109643
internal_weight=0 1897 370 342 297 1527 1390 45 1369 856 836 59 777 513 483 387 96 269 229 196 99 45 137 97 63 54 40
internal_count=1996 1897 370 342 297 1527 1390 45 1369 856 836 59 777 513 483 387 96 269 229 196 99 45 137 97 63 54 40
is_linear=0
shrinkage=0.1


Tree=31
num_leaves=31
num_cat=0
split_feature=5 0 0 0 9 0 3 3 11 8 11 3 0 0 6 6 9 10 3 3 6 12 3 6 5 3 0 9 9 12
split_gain=2.81857e+14 2.90158e+14 3.26306e+14 6.00017e+14 4.31581e+14 3.26492e+14 5.59113e+14 4.22451e+14 2.56964e+14 2.91732e+14 4.60544e+14 2.0193e+14 2.0839e+14 1.55654e+14 1.54464e+14 2.25228e+14 2.81403e+14 2.1943e+14 1.29208e+14 2.15314e+14 1.20758e+14 1.14859e+14 9.47805e+13 9.22122e+13 7.79881e+13 7.10763e+13 6.86898e+13 5.20435e+13 4.47488e+13 6.22638e+13
threshold=1.5000000000000002 7.5000000000000009 5.5000000000000009 4.5000000000000009 66.500000000000014 1.5000000000000002 287.50000000000006 151.50000000000003 16.500000000000004 4.0000000000000009 8.5000000000000018 312.50000000000006 1.0000000180025095e-35 3.5000000000000004 1.0000000180025095e-35 1.5000000000000002 124.50000000000001 2.5000000000000004 107.50000000000001 151.50000000000003 1.0000000180025095e-35 14.500000000000002 121.50000000000001 1.5000000000000002 5.5000000000000009 148.50000000000003 3.5000000000000004 99.500000000000014 97.500000000000014 12.500000000000002
decision_type=2 2 2 2 2 2 2 2 2 2 2 2 2 2 2 2 2 2 2 2 2 2 2 2 2 2 2 2 2 2
left_child=23 2 3 4 8 11 7 -7 9 10 -2 12 -6 -11 28 16 21 -18 -17 -20 -10 22 -16 25 -21 -1 -22 -27 29 -4
right_child=1 -3 14 -5 5 6 -8 -9 20 13 -12 -13 -14 -15 15 18 17 -19 19 24 26 -23 -24 -25 -26 27 -28 -29 -30 -31
leaf_value=-155056.83725000001 602067.25250000006 394533.18375000003 -243188.00216557016 469147.33328598487 -47717.920624999999 357596.23041294643 592402.10142045456 -19950.265416666669 -44345.881199544274 -102758.51377180233 67502.717601656623 -235366.5490559896 158018.95224776311 71535.518952205879 -57391.115229696865 -293355.8783318015 4820.1192708333338 368755.2181587838 115529.0205792683 -111338.35869278171 -141633.77390873016 -223385.34846875002 44776.956077261304 -268889.8519230769 -334896.61179687502 -19447.377079906797 -334823.56801382214 -160272.48578629034 -32649.996750000006 -53902.519054687502
leaf_weight=75 20 20 57 33 85 49 33 75 120 129 83 24 117 85 167 34 30 37 41 71 63 25 199 26 20 171 26 31 25 25
leaf_count=75 20 20 57 33 85 49 33 75 120 129 83 24 117 85 167 34 30 37 41 71 63 25 199 26 20 171 26 31 25 25
internal_value=0 15897.4 11371 50275.3 35068.8 115819 226594 129241 -23728.3 33024.4 171302 38864.6 71446.5 -33529.6 -38762.9 -19727.8 16441.5 205799 -119520 -74744.4 -109808 -16006 -1840.72 -88826.2 -160472 -71925 -198071 -41059.2 -149771 -185479
internal_weight=0 1693 1673 942 909 383 157 124 526 317 103 226 202 214 731 624 458 67 166 132 209 391 366 303 91 277 89 202 107 82
internal_count=1996 1693 1673 942 909 383 157 124 526 317 103 226 202 214 731 624 458 67 166 132 209 391 366 303 91 277 89 202 107 82
is_linear=0
shrinkage=0.1


Tree=32
num_leaves=28
num_cat=0
split_feature=4 5 9 3 0 3 3 3 3 0 11 6 0 5 0 5 3 9 9 3 3 9 5 3 6 12 9
split_gain=2.50898e+14 2.70279e+14 2.73434e+14 2.24329e+14 2.17407e+14 2.21085e+14 1.86166e+14 2.00871e+14 2.85857e+14 1.77118e+14 1.71332e+14 1.5039e+14 1.50205e+14 3.32086e+14 6.96142e+14 1.28448e+14 1.21169e+14 3.33819e+14 2.7901e+14 1.01499e+14 9.8793e+13 7.37736e+13 6.11213e+13 1.29149e+14 5.90049e+13 4.6353e+13 4.09625e+13
threshold=2.5000000000000004 6.5000000000000009 59.500000000000007 307.50000000000006 1.0000000180025095e-35 285.50000000000006 280.50000000000006 129.50000000000003 119.50000000000001 3.5000000000000004 16.500000000000004 1.0000000180025095e-35 2.5000000000000004 5.5000000000000009 1.0000000180025095e-35 5.5000000000000009 252.50000000000003 141.50000000000003 113.50000000000001 162.00000000000003 128.50000000000003 87.500000000000014 5.5000000000000009 291.50000000000006 1.0000000180025095e-35 9.5000000000000018 55.500000000000007
decision_type=2 2 2 2 2 2 2 2 2 2 2 2 2 2 2 2 2 2 2 2 2 2 2 2 2 2 2
left_child=1 2 4 12 25 6 7 8 -6 -5 11 -8 13 16 -15 -9 17 -4 -18 20 21 -14 24 -24 -21 -1 -27
right_child=-2 -3 3 9 5 -7 10 15 -10 -11 -12 -13 19 14 -16 -17 18 -19 -20 22 -22 -23 23 -25 -26 26 -28
leaf_value=-48292.450624999998 -297236.23387276789 279636.13991071429 41546.801374647359 78778.298848684222 -37876.70212070585 -277658.79399414064 48220.261406250007 -54707.519781831783 123993.74749644886 406932.95010775863 -49096.180803571428 375562.00185546878 191542.39785156251 -185656.1525292969 539994.3752403846 -264869.05756048387 17882.23329763105 -347777.73982872599 425694.02330163051 85390.401762820518 243692.87262228262 -19577.371240234377 -245625.35402343748 56022.698437500003 -54137.553285845592 -288405.36442307691 -131471.55129310346
leaf_weight=20 28 35 144 38 287 32 25 470 176 29 35 32 20 20 39 31 62 26 23 39 23 96 40 22 136 39 29
leaf_count=20 28 35 144 38 287 32 25 470 176 29 35 32 20 20 39 31 62 26 23 39 23 96 40 22 136 39 29
internal_value=0 4228.97 -757.709 46120 -30933.2 -18705.1 -10858 -23829 23655 220815 125056 231991 29156.8 80212.9 294011 -67711.5 30745.8 -17997 128231 -13480.4 54362.3 16822.6 -53270 -138589 -23042.8 -182117 -221478
internal_weight=0 1968 1933 757 1176 1088 1056 964 463 67 92 57 690 314 59 501 255 170 85 376 139 116 237 62 175 88 68
internal_count=1996 1968 1933 757 1176 1088 1056 964 463 67 92 57 690 314 59 501 255 170 85 376 139 116 237 62 175 88 68
is_linear=0
shrinkage=0.1


Tree=33
num_leaves=31
num_cat=0
split_feature=1 12 12 11 6 9 11 9 0 0 0 12 9 0 5 11 5 6 9 3 3 9 12 8 3 3 9 0 3 6
split_gain=2.33859e+14 2.29394e+14 9.8854e+14 4.38087e+14 2.91185e+14 2.48719e+14 2.50734e+14 2.3203e+14 2.52914e+14 3.24294e+14 2.75583e+14 2.49695e+14 1.70188e+14 1.4585e+14 2.30761e+14 1.59662e+14 1.35992e+14 1.31996e+14 1.86062e+14 5.0615e+14 1.68376e+14 9.52591e+13 5.48571e+13 4.43779e+13 4.06872e+13 8.2724e+13 3.9825e+13 8.62965e+13 3.91547e+13 3.38345e+13
threshold=1.0000000180025095e-35 16.500000000000004 13.500000000000002 10.500000000000002 6.5000000000000009 46.500000000000007 12.500000000000002 110.50000000000001 1.5000000000000002 5.5000000000000009 4.5000000000000009 9.5000000000000018 180.50000000000003 6.5000000000000009 5.5000000000000009 16.500000000000004 5.5000000000000009 1.0000000180025095e-35 119.50000000000001 233.50000000000003 285.50000000000006 72.500000000000014 10.500000000000002 4.0000000000000009 240.50000000000003 268.50000000000006 92.500000000000014 1.0000000180025095e-35 201.50000000000003 1.0000000180025095e-35
decision_type=2 2 2 2 2 2 2 2 2 2 2 2 2 2 2 2 2 2 2 2 2 2 2 2 2 2 2 2 2 2
left_child=1 2 7 -4 5 -3 -7 8 21 10 11 -10 17 14 -11 -15 -8 -9 20 -20 -19 22 23 -1 -2 -26 28 -28 -23 -24
right_child=24 4 3 -5 -6 6 16 12 9 13 -12 -13 -14 15 -16 -17 -18 18 19 -21 -22 26 29 -25 25 -27 27 -29 -30 -31
leaf_value=-192680.6739955357 -215915.81315104166 227187.155 160777.17105263157 667338.7210433468 -434405.85664062505 -389956.27061298076 -142264.35681295957 -130005.42059570314 254007.3549623843 -54855.228511255438 397895.43216145836 26271.729805391329 -126247.36922348484 -341776.81270161294 128731.50455882354 -67306.15384794776 172576.37126358697 122104.60175039557 46455.9033203125 478633.46259973408 -156173.24687500001 -22506.616145833337 -106499.84250000001 -48335.44109353055 23287.311045258622 -233865.02890625002 -155669.09250781251 34118.732965353258 149311.31123511906 -229843.33560450817
leaf_weight=28 48 25 38 31 24 26 34 20 54 352 24 444 33 31 85 67 23 79 64 47 30 36 35 89 29 22 50 46 21 61
leaf_count=28 48 25 38 31 24 26 34 20 54 352 24 444 33 31 85 67 23 79 64 47 30 36 35 89 29 22 50 46 21 61
internal_value=0 7819.53 17329.4 388363 -119338 -49323.3 -132610 2234.25 -13966.6 10841.1 66916.7 50966 86680.4 -43871.9 -19146.1 -154129 -15223.4 115958 138318 229450 45514.4 -85610.8 -128849 -82879.6 -149835 -87641.1 -25416.3 -64729.1 40794.7 -184874
internal_weight=0 1897 1765 69 132 108 83 1696 1423 1057 522 498 273 535 437 98 57 240 220 111 109 366 213 117 99 51 153 96 57 96
internal_count=1996 1897 1765 69 132 108 83 1696 1423 1057 522 498 273 535 437 98 57 240 220 111 109 366 213 117 99 51 153 96 57 96
is_linear=0
shrinkage=0.1


Tree=34
num_leaves=23
num_cat=0
split_feature=4 5 9 9 3 0 0 0 9 12 12 11 6 0 3 9 12 3 12 12 8 6
split_gain=1.94437e+14 2.02628e+14 1.96923e+14 1.96218e+14 1.59004e+14 1.63796e+14 2.51488e+14 5.48242e+14 1.86678e+14 1.34648e+14 1.88925e+14 1.28391e+14 1.07279e+14 1.06205e+14 1.03388e+14 9.87843e+13 9.75122e+13 8.71214e+13 7.91898e+13 5.12909e+13 3.33519e+13 2.23887e+13
threshold=2.5000000000000004 6.5000000000000009 59.500000000000007 75.500000000000014 306.50000000000006 1.5000000000000002 5.5000000000000009 4.5000000000000009 45.500000000000007 13.500000000000002 17.500000000000004 24.500000000000004 6.5000000000000009 5.5000000000000009 277.50000000000006 114.50000000000001 13.500000000000002 209.50000000000003 13.500000000000002 10.500000000000002 4.0000000000000009 1.0000000180025095e-35
decision_type=2 2 2 2 2 2 2 2 2 2 2 2 2 2 2 2 2 2 2 2 2 2
left_child=1 2 4 -4 5 18 7 8 -7 11 -11 12 15 -14 16 -5 -8 -13 19 20 -1 -21
right_child=-2 -3 3 9 -6 6 14 -9 -10 10 -12 17 13 -15 -16 -17 -18 -19 -20 21 -22 -23
leaf_value=-169556.31458333333 -261663.16495535715 242184.55433035718 314677.68085937505 -10070.149718854816 -298900.93943452381 160783.88548259495 -49950.332397628161 470845.38642241381 -9182.5803147007045 415914.77564174111 36516.861863839287 -2263.199030172414 336687.54034090909 22285.016145833335 118144.30124206544 77704.203124494015 -195105.7695754717 -247383.03006465521 49570.109943181822 -107083.28244485294 -42503.006130149151 -208652.70559244792
leaf_weight=27 28 35 25 382 21 79 365 29 355 21 35 29 22 21 32 193 53 29 33 34 88 60
leaf_count=27 28 35 25 382 21 79 365 29 355 21 35 29 22 21 32 193 53 29 33 34 88 60
internal_value=0 3722.85 -594.873 39187.2 -26202.9 -21244.8 -1856.77 49884.7 21756 29778.4 178791 17434.1 30785.2 183142 -55093 19391.5 -68355.2 -124823 -94390.4 -117121 -72332.9 -171915
internal_weight=0 1968 1933 757 1176 1155 913 463 434 732 56 676 618 43 450 575 418 58 242 209 115 94
internal_count=1996 1968 1933 757 1176 1155 913 463 434 732 56 676 618 43 450 575 418 58 242 209 115 94
is_linear=0
shrinkage=0.1


Tree=35
num_leaves=31
num_cat=0
split_feature=3 3 11 6 9 6 9 6 0 1 0 3 12 3 9 3 5 5 9 3 0 0 12 0 3 12 11 3 5 3
split_gain=1.94347e+14 3.34524e+14 5.81544e+14 2.81825e+14 2.30722e+14 3.7694e+14 2.00342e+14 4.73491e+14 2.16873e+14 1.92553e+14 1.86134e+14 1.44783e+14 1.41489e+14 1.3709e+14 2.40879e+14 2.21777e+14 3.67225e+14 2.08738e+14 1.98934e+14 1.81026e+14 1.20949e+14 2.73865e+14 1.83569e+14 1.16684e+14 1.05503e+14 9.01903e+13 8.78608e+13 8.56025e+13 8.30333e+13 7.52323e+13
threshold=40.500000000000007 137.50000000000003 25.500000000000004 1.5000000000000002 133.50000000000003 5.5000000000000009 119.50000000000001 1.0000000180025095e-35 3.5000000000000004 1.0000000180025095e-35 6.5000000000000009 285.50000000000006 13.500000000000002 119.50000000000001 46.500000000000007 85.500000000000014 5.5000000000000009 5.5000000000000009 102.50000000000001 112.50000000000001 5.5000000000000009 3.5000000000000004 12.500000000000002 5.5000000000000009 147.50000000000003 11.500000000000002 32.500000000000007 7.5000000000000009 5.5000000000000009 122.50000000000001
decision_type=2 2 2 2 2 2 2 2 2 2 2 2 2 2 2 2 2 2 2 2 2 2 2 2 2 2 2 2 2 2
left_child=27 2 13 6 5 9 10 -8 -9 -5 12 -10 24 15 20 28 19 29 -19 23 21 -15 -22 -17 -3 -20 -4 -1 -2 -16
right_child=1 3 26 4 -6 -7 7 8 11 -11 -12 -13 -14 14 17 16 -18 18 25 -21 22 -23 -24 -25 -26 -27 -28 -29 -30 -31
leaf_value=-276324.81269531249 54928.645292207802 -217856.02135416667 586511.97499999998 -516774.49739583331 -391077.45775862073 15521.055944293479 -107923.70303096066 514129.25192307692 -4229.5476412259623 -130769.69994419644 -162104.24064712526 344333.04356800427 186191.18569078948 -55912.623015624995 -87971.317500000005 96585.213742897729 -450557.77045454545 505724.92489224143 57782.818303571432 -285044.94034090912 94887.154579741386 318728.41938476567 -243182.5855902778 -80873.171923828137 -4818.1977698743667 331933.45744047622 290098.68835937505 -72917.424566731774 244520.76308593751 172238.29250000001
leaf_weight=24 77 24 20 24 29 115 54 26 26 28 80 22 38 50 25 88 22 29 28 22 29 32 36 64 740 21 20 150 33 20
leaf_count=24 77 24 20 24 29 115 54 26 26 28 80 22 38 50 25 88 22 29 28 22 29 32 36 64 740 21 20 150 33 20
internal_value=0 9642.93 69597.6 -20980.7 -130717 -85504.3 314.608 117225 281523 -308926 -16652 155528 -2143.07 43992.9 95929.1 -1833.18 -65610.4 199187 298135 -16938.9 9529.47 90288.8 -92351.5 21865.9 -11510.5 175276 438305 -100974 111806 27677.4
internal_weight=0 1822 616 1206 196 167 1010 128 74 52 882 48 802 576 270 306 196 123 78 174 147 82 65 152 764 49 40 174 110 45
internal_count=1996 1822 616 1206 196 167 1010 128 74 52 882 48 802 576 270 306 196 123 78 174 147 82 65 152 764 49 40 174 110 45
is_linear=0
shrinkage=0.1


Tree=36
num_leaves=29
num_cat=0
split_feature=12 12 11 6 3 3 12 11 8 5 12 0 0 0 11 3 10 9 11 8 8 3 10 12 0 11 3 3
split_gain=1.97468e+14 7.16632e+14 2.95858e+14 1.86504e+14 1.82806e+14 3.73034e+14 1.80851e+14 2.53656e+14 4.57802e+14 2.54459e+14 1.84129e+14 3.53599e+14 2.5442e+14 6.17152e+14 2.6305e+14 1.63571e+14 2.59356e+14 1.55631e+14 1.74949e+14 1.09553e+14 1.01531e+14 8.14644e+13 9.90541e+13 6.58959e+13 7.64471e+13 4.38292e+13 1.86441e+13 1.32568e+13
threshold=16.500000000000004 13.500000000000002 10.500000000000002 6.5000000000000009 284.50000000000006 290.50000000000006 9.5000000000000018 8.5000000000000018 4.0000000000000009 6.5000000000000009 1.5000000000000002 1.5000000000000002 1.5000000000000002 4.5000000000000009 8.5000000000000018 295.50000000000006 2.5000000000000004 46.500000000000007 12.500000000000002 2.5000000000000004 4.0000000000000009 9.5000000000000018 2.5000000000000004 10.500000000000002 3.5000000000000004 16.500000000000004 128.50000000000003 7.5000000000000009
decision_type=2 2 2 2 2 2 2 2 2 2 2 2 2 2 2 2 2 2 2 2 2 2 2 2 2 2 2 2
left_child=1 4 -3 17 6 -6 10 8 -8 21 11 -1 20 -14 -15 -7 -17 -2 -19 -20 -12 27 -23 24 -18 -13 -22 -9
right_child=3 2 -4 -5 5 15 7 9 -10 -11 12 25 13 14 -16 16 23 18 19 -21 26 22 -24 -25 -26 -27 -28 -29
