tree
version=v4
num_class=1
num_tree_per_iteration=1
label_index=0
max_feature_idx=12
objective=regression
feature_names=brand old new cpu cpu_brand ram_capacity ram_brand hard_drive_type hard_drive_capacity card card_brand screen_size screen_type
feature_infos=[0:9] [0:1] [0:1] [0:352] [0:4] [4:512] [0:8] none [0:6] [0:191] [0:5] [0:43] [0:20]
tree_sizes=2839 2738 2739 2753 2723 2739 2738 2717 2705 2718 2724 2697 2712 2716 2717 2723 2728 2704 2712 2705 2710 2716 2719 2737 2701 2704 2731 2717 2709 2724 2717 2142 2639 2723 2656 2546 2722 1901 2555 1722 2729 2467 1329 1491 2733 1562 2540 2640 1380 1157 2138 1734 2314 2232 2487 1402 2303 2626 2548 1478 2711 2386 1394 2716 2729 2740 1641 1804 1911 2645 1227 1487 2661 2396 2726 1818 1725 1977 1730 2732 1228 1646 1987 2562 2722 2144 2466 2229 1401 2720 1722 2745 2388 2063 2161 2731 1397 1891 1904 1990 2728 1313 1972 1647 1989 2231 2232 2246 1899 2314 1892 2730 2733 1390 2311 2158 1653 2234 1485 1316 1738 1898 2482 1401 1717 1735 1746 1489 2053 1063 1893 1478 1557 1912 1480 2304 1816 2054 1650 2068 2055 1562 2061 1565 1485 1304 1817 1739 2050 1482 2157 1550 1813 1565 1728 2377 2000 1717 1895 1967 2712 2707 2755 2725 1480 1480 1971 1308 2721 2405 2562 1721 1971 2736 2729 1231 1658 1985 1483 1803 1323 2323 1240 1902 1651 1155 1812 1735 1478 1065 1810 2397 1310 1805 1912 1897 2729 2219 2152 1825 2317 2394 1064 2732 1880 1479 1973 1317 1145 1970 2241 1568 2724 2315 1902 2713 1559 2650 1561 1395 1638 1483 1319 2224 1645 2157 1731 1907 1817 1569 2744 1064 2135 2654 2239 2401 2655 1825 2468 1571 2741 1066 2723 1656 1321 2399 2320 1975 2731 1325 2228 2077 2228 1323 1487 1404 1395 2320 1152 1071 2628 2073 2150 1648 2707 2384 1404 2230 2143 2718 2722 1485 2235 1977 2726 2570 2225 2489 1482 1388 1490 2325 2564 2724 2306 1066 1235 1747 1656 1726 2145 1491 2726 1983 1642 1233 1066 1319 2723 2138

Tree=0
num_leaves=31
num_cat=0
split_feature=5 9 9 1 5 11 12 9 8 3 3 6 9 11 3 3 11 3 8 12 3 3 3 9 6 0 12 6 3 3
split_gain=1.10953e+17 3.25115e+16 1.62824e+16 1.46829e+16 1.32137e+16 1.19288e+16 8.71969e+15 7.85615e+15 6.26685e+15 5.0186e+15 6.46381e+15 4.44058e+15 4.33763e+15 2.98152e+15 2.96972e+15 2.62006e+15 2.59621e+15 2.55795e+15 2.52092e+15 2.48115e+15 2.44991e+15 1.65961e+15 1.5594e+15 1.46687e+15 1.28311e+15 1.20404e+15 1.14145e+15 1.13124e+15 1.15242e+15 1.57078e+15
threshold=20.000000000000004 96.500000000000014 117.50000000000001 1.0000000180025095e-35 14.000000000000002 17.500000000000004 12.500000000000002 133.50000000000003 4.0000000000000009 150.50000000000003 102.50000000000001 1.0000000180025095e-35 72.500000000000014 21.500000000000004 275.50000000000006 152.50000000000003 7.5000000000000009 285.50000000000006 4.0000000000000009 12.500000000000002 75.500000000000014 201.50000000000003 119.50000000000001 99.500000000000014 6.5000000000000009 3.5000000000000004 12.500000000000002 1.0000000180025095e-35 115.50000000000001 128.50000000000003
decision_type=10 2 2 2 10 2 2 2 2 2 2 2 2 2 2 2 2 2 2 2 2 2 2 2 2 2 2 2 2 2
left_child=1 4 8 7 21 11 9 -4 12 10 -6 -3 15 -9 -11 20 -8 -7 -13 23 -2 -1 -12 -10 26 -14 -22 -18 -29 -30
right_child=2 5 3 -5 6 17 16 13 19 14 22 18 25 -15 -16 -17 27 -19 -20 -21 24 -23 -24 -25 -26 -27 -28 28 29 -31
leaf_value=27448947.691917274 29086496.22487475 27829317.226551577 32475526.853412487 28636734.31831225 27954600.282800008 29622090.83210301 29764508.498463459 30189675.486823279 28545305.7491307 27860707.028321717 28686531.418805908 29630400.980152525 31379141.731819194 31504505.780231893 28495210.109216854 28835162.872791413 28152774.317124747 30446230.746749748 28750717.369895935 30111901.000135165 30567484.348624747 27966558.485795077 29361307.844451953 29402786.947407644 30758020.055767607 30484675.482227691 29604453.059835687 28567200.990874749 29505025.979432039 28743056.896850556
leaf_weight=194 21 41 53 20 97 115 31 34 42 330 69 45 27 35 95 21 25 56 118 24 20 91 68 38 35 34 32 75 48 62
leaf_count=194 21 41 53 20 97 115 31 34 42 330 69 45 27 35 95 21 25 56 118 24 20 91 68 38 35 34 32 75 48 62
internal_value=2.88586e+07 2.84644e+07 3.02689e+07 3.11482e+07 2.82076e+07 2.9276e+07 2.83955e+07 3.15599e+07 2.98442e+07 2.82073e+07 2.85792e+07 2.87596e+07 3.01858e+07 3.08566e+07 2.80025e+07 2.98572e+07 2.89102e+07 2.9892e+07 2.89936e+07 2.92201e+07 3.00559e+07 2.76142e+07 2.90215e+07 2.89526e+07 3.02899e+07 3.08806e+07 2.99748e+07 2.87841e+07 2.88695e+07 2.90756e+07
internal_weight=0 1560 436 142 1185 375 900 122 294 659 234 204 190 69 425 129 241 171 163 104 108 285 137 80 87 61 52 210 185 110
internal_count=1996 1560 436 142 1185 375 900 122 294 659 234 204 190 69 425 129 241 171 163 104 108 285 137 80 87 61 52 210 185 110
is_linear=0
shrinkage=1


Tree=1
num_leaves=31
num_cat=0
split_feature=5 9 9 1 5 11 12 9 11 8 6 9 3 3 6 11 12 3 3 8 0 3 12 9 3 0 3 6 6 0
split_gain=8.98716e+16 2.63343e+16 1.31888e+16 1.18932e+16 1.07031e+16 9.66233e+15 7.07174e+15 6.36348e+15 5.86351e+15 5.07615e+15 3.59687e+15 3.51348e+15 3.27512e+15 3.25826e+15 2.457e+15 2.41503e+15 2.31944e+15 2.14058e+15 2.18638e+15 2.04195e+15 2.04088e+15 2.14922e+15 2.00973e+15 1.68276e+15 1.34428e+15 1.27305e+15 1.27264e+15 1.22915e+15 1.10432e+15 9.75272e+14
threshold=20.000000000000004 96.500000000000014 117.50000000000001 1.0000000180025095e-35 14.000000000000002 17.500000000000004 11.500000000000002 133.50000000000003 7.5000000000000009 4.0000000000000009 1.0000000180025095e-35 72.500000000000014 151.50000000000003 119.50000000000001 1.0000000180025095e-35 21.500000000000004 11.500000000000002 136.50000000000003 75.500000000000014 4.0000000000000009 1.5000000000000002 120.50000000000001 12.500000000000002 117.50000000000001 201.50000000000003 5.5000000000000009 258.50000000000006 1.0000000180025095e-35 6.5000000000000009 3.5000000000000004
decision_type=10 2 2 2 10 2 2 2 2 2 2 2 2 2 2 2 2 2 2 2 2 2 2 2 2 2 2 2 2 2
left_child=1 4 9 7 24 10 12 -4 -8 11 -3 17 13 27 -10 -9 26 18 -2 -12 -16 -22 25 -18 -1 -11 -7 -6 -20 -13
right_child=2 5 3 -5 6 16 8 15 14 22 19 29 -14 -15 20 -17 23 -19 28 -21 21 -23 -24 -25 -26 -27 -28 -29 -30 -31
leaf_value=-1268681.3940399485 205112.29642857146 -926348.78353658551 3255239.7528301887 -199673.43031250002 -1357960 155790.90616210937 959083.22073863633 1197973.6176930147 -606869.73947061575 560682.69166666677 694626.57788194448 2268493.237037037 -911755.14318953815 305369.20937500003 -559367.95575597428 2381320.875 1022097.0854343221 125073.625 1048239.0057291667 -97088.684322033907 -324745.00685975607 335121.45607358869 1127976.55 2015256.5822916669 -802831.65329670336 -249646.87486702131 919527.92402343755 -499188.51114062499 1806635.49921875 1463473.6279411765
leaf_weight=194 21 41 53 20 20 40 44 34 134 33 45 27 276 52 68 35 59 28 48 118 82 124 24 24 91 47 48 100 32 34
leaf_count=194 21 41 53 20 20 40 44 34 134 33 45 27 276 52 68 35 59 28 48 118 82 124 24 24 91 47 48 100 32 34
internal_value=0 -354742 1.26926e+06 2.06064e+06 -585871 375627 -416750 2.43119e+06 -137681 887025 -89110.6 1.19445e+06 -698311 -355807 -255960 1.79822e+06 930052 898738 1.11322e+06 121483 -84346.9 72456.2 325390 1.30928e+06 -1.11994e+06 84614.1 572375 -642317 1.3516e+06 1.81979e+06
internal_weight=0 1560 436 142 1185 375 900 122 452 294 204 190 448 172 408 69 171 129 101 163 274 206 104 83 285 80 88 120 80 61
internal_count=1996 1560 436 142 1185 375 900 122 452 294 204 190 448 172 408 69 171 129 101 163 274 206 104 83 285 80 88 120 80 61
is_linear=0
shrinkage=0.1


Tree=2
num_leaves=31
num_cat=0
split_feature=5 9 9 1 3 3 11 3 9 8 6 9 3 3 6 11 12 3 8 12 3 9 9 9 3 0 6 12 6 0
split_gain=7.2796e+16 2.13308e+16 1.06829e+16 9.63347e+15 8.8702e+15 8.82996e+15 7.82649e+15 6.90963e+15 5.15442e+15 4.11168e+15 2.91346e+15 2.84592e+15 2.71826e+15 2.52709e+15 2.03772e+15 1.95617e+15 1.87875e+15 1.78026e+15 1.65398e+15 1.62788e+15 1.61904e+15 1.36304e+15 1.34144e+15 1.13469e+15 1.03084e+15 9.32389e+14 8.47054e+14 9.48112e+14 8.32112e+14 7.8997e+14
threshold=20.000000000000004 96.500000000000014 117.50000000000001 1.0000000180025095e-35 137.50000000000003 101.50000000000001 17.500000000000004 275.50000000000006 133.50000000000003 4.0000000000000009 1.0000000180025095e-35 72.500000000000014 119.50000000000001 190.50000000000003 1.0000000180025095e-35 21.500000000000004 11.500000000000002 152.50000000000003 4.0000000000000009 12.500000000000002 75.500000000000014 117.50000000000001 55.500000000000007 99.500000000000014 258.50000000000006 1.5000000000000002 6.5000000000000009 12.500000000000002 1.0000000180025095e-35 3.5000000000000004
decision_type=10 2 2 2 2 2 2 2 2 2 2 2 2 2 2 2 2 2 2 2 2 2 2 2 2 2 2 2 2 2
left_child=1 4 9 8 5 28 10 13 -4 11 -3 17 -7 -6 -9 -10 24 20 -12 23 -2 -18 -16 -11 -8 -14 27 -22 -1 -13
right_child=2 6 3 -5 7 12 16 14 15 19 18 29 25 -15 22 -17 21 -19 -20 -21 26 -23 -24 -25 -26 -27 -28 -29 -30 -31
leaf_value=-1091478.8479591839 184601.05476190476 -833713.89131097565 2929715.7716981135 -179706.09750000003 -1125014.3096264368 -124048.53153409093 140211.82514648439 -444553.94195049157 1078176.25 -282076.09196428576 625163.89722222218 2041643.9222222224 -71613.217187500006 -708877.08602837054 636699.76631097565 2143188.7552678571 919887.37182203389 -33595.045238095241 -87379.816207627126 1015178.9081380209 1447025.128125 1813730.9170572918 -331248.96262428979 472089.69547697372 827575.12265625002 629613.62055844907 1543233.5185714287 569334.43906250002 -601237.23915519076 1317126.2459558826
leaf_weight=49 21 41 53 20 261 143 40 89 34 42 45 27 23 331 41 35 59 21 118 24 20 24 22 38 48 108 35 32 118 34
leaf_count=49 21 41 53 20 261 143 40 89 34 42 45 27 23 331 41 35 59 21 118 24 20 24 22 38 48 108 35 32 118 34
internal_value=0 -319267 1.14233e+06 1.85458e+06 -527284 -171919 338065 -737924 2.18807e+06 798322 -80199.6 1.075e+06 177417 -892343 -136501 1.6184e+06 837047 808864 109335 292851 972676 1.17835e+06 298686 76152.7 515137 506497 1.1629e+06 906908 -745081 1.63781e+06
internal_weight=0 1560 436 142 1185 441 375 744 122 294 204 190 274 592 152 69 171 129 163 104 108 83 63 80 88 131 87 52 167 61
internal_count=1996 1560 436 142 1185 441 375 744 122 294 204 190 274 592 152 69 171 129 163 104 108 83 63 80 88 131 87 52 167 61
is_linear=0
shrinkage=0.1


Tree=3
num_leaves=31
num_cat=0
split_feature=5 9 9 1 5 11 12 11 9 8 6 9 6 12 11 3 6 3 3 0 0 8 12 3 0 3 9 6 12 1
split_gain=5.89648e+16 1.72779e+16 8.65315e+15 7.80311e+15 7.58491e+15 6.33945e+15 4.96534e+15 4.3982e+15 4.17508e+15 3.33046e+15 2.3599e+15 2.30519e+15 2.04368e+15 1.70633e+15 1.5845e+15 1.56112e+15 1.5134e+15 1.49688e+15 1.45651e+15 1.3752e+15 1.72102e+15 1.33972e+15 1.31859e+15 1.00942e+15 9.84143e+14 8.90121e+14 8.12776e+14 7.29151e+14 7.22899e+14 6.6807e+14
threshold=20.000000000000004 96.500000000000014 117.50000000000001 1.0000000180025095e-35 10.000000000000002 17.500000000000004 11.500000000000002 7.5000000000000009 133.50000000000003 4.0000000000000009 1.0000000180025095e-35 72.500000000000014 6.5000000000000009 9.5000000000000018 21.500000000000004 285.50000000000006 1.0000000180025095e-35 136.50000000000003 75.500000000000014 1.5000000000000002 5.5000000000000009 4.0000000000000009 12.500000000000002 187.50000000000003 5.5000000000000009 129.50000000000003 113.50000000000001 6.5000000000000009 7.5000000000000009 1.0000000180025095e-35
decision_type=10 2 2 2 10 2 2 2 2 2 2 2 2 2 2 2 2 2 2 2 2 2 2 2 2 2 2 2 2 2
left_child=1 4 9 8 23 10 12 25 -4 11 -3 17 13 28 -10 -7 -9 18 -2 -18 -21 -12 24 -1 -11 -8 -17 -20 -6 -15
right_child=2 5 3 -5 6 15 7 16 14 22 21 -13 -14 29 -16 26 19 -19 27 20 -22 -23 -24 -25 -26 -27 -28 -29 -30 -31
leaf_value=-1101023.3858895707 166140.94196428571 -750342.54523628054 2636744.1938679246 -161735.48906250001 -457959.34588815796 542496.3329619565 1255102.8401041667 -483485.03076026123 970358.6351102941 487115.00572916673 562647.5254427084 1474032.9637807377 -26132.203515625002 -730530.45375373506 1928869.8646428571 844206.91451612907 -466606.33692555153 81014.074776785725 855396.7897460938 385439.00844452251 -190897.8705109627 -78641.835886189088 913661.04166666663 -698692.34693688119 -225357.53484042553 351806.61562500003 1610559.4199999999 1471648.5868652344 156290.35638020834 -1215698.8023437501
leaf_weight=163 21 41 53 20 95 115 24 134 34 33 45 61 60 251 35 31 68 28 48 89 124 118 24 101 47 20 25 32 24 32
leaf_count=163 21 41 53 20 95 115 24 134 34 33 45 61 60 251 35 31 68 28 48 89 124 118 24 101 47 20 25 32 24 32
internal_value=0 -287341 1.0281e+06 1.66912e+06 -474555 304258 -339103 -106154 1.96926e+06 718490 -72179.6 967501 -570538 -651793 1.45656e+06 753342 -206948 727978 907334 -75076.5 49918.9 98401.2 263566 -947101 68537.4 844514 1.18633e+06 1.1019e+06 -334077 -785390
internal_weight=0 1560 436 142 1185 375 921 459 122 294 204 190 462 402 69 171 415 129 101 281 213 163 104 264 80 44 56 80 119 283
internal_count=1996 1560 436 142 1185 375 921 459 122 294 204 190 462 402 69 171 415 129 101 281 213 163 104 264 80 44 56 80 119 283
is_linear=0
shrinkage=0.1


Tree=4
num_leaves=31
num_cat=0
split_feature=5 9 9 3 3 11 11 3 11 11 8 6 3 8 8 9 3 3 12 6 12 0 8 9 9 3 0 3 0 0
split_gain=4.77615e+16 1.39951e+16 7.06481e+15 6.15323e+15 6.31407e+15 5.48408e+15 5.13496e+15 5.05935e+15 3.56189e+15 3.43201e+15 1.95422e+15 1.91152e+15 1.7345e+15 1.666e+15 2.77128e+15 1.53834e+15 1.47633e+15 1.8048e+15 1.45309e+15 1.4364e+15 1.41476e+15 1.17775e+15 1.08518e+15 1.01312e+15 9.58167e+14 7.82814e+14 6.73036e+14 6.41883e+14 5.77942e+14 5.50903e+14
threshold=20.000000000000004 96.500000000000014 109.50000000000001 137.50000000000003 119.50000000000001 17.500000000000004 17.500000000000004 275.50000000000006 16.500000000000004 6.5000000000000009 4.0000000000000009 1.0000000180025095e-35 201.50000000000003 4.0000000000000009 2.5000000000000004 28.000000000000004 128.50000000000003 75.500000000000014 12.500000000000002 1.0000000180025095e-35 11.500000000000002 3.5000000000000004 4.0000000000000009 55.500000000000007 117.50000000000001 258.50000000000006 1.5000000000000002 151.50000000000003 1.5000000000000002 5.5000000000000009
decision_type=10 2 2 2 2 2 2 2 2 2 2 2 2 2 2 2 2 2 2 2 2 2 2 2 2 2 2 2 2 2
left_child=1 3 10 4 9 8 11 12 -4 -1 16 -3 27 14 21 -11 17 -2 29 -9 25 -7 -13 -21 28 -8 -6 -5 -22 -12
right_child=2 6 5 7 26 13 20 19 -10 15 18 22 -14 -15 -16 -17 -18 -19 -20 23 24 -23 -24 -25 -26 -27 -28 -29 -30 -31
leaf_value=889905.07046875008 149526.85238095239 -675308.27317073173 1506161.9793103449 -1187055.3715384617 -40214.207880434784 2328396.8166666669 71941.002343750006 -346539.87600289681 58063.56989329269 -799687.8650537635 279863.44674479164 506382.77152777783 -568070.42257401324 1046523.0100961538 2998303.2850000001 -306228.75140287913 320487.45425000001 1184784.2975091913 843606.5108695653 571224.7489329268 469989.22109375003 1458265.6940625003 -70777.651726984579 -269971.45965909091 1506904.0098958334 670931.56544596364 555556.52311921294 -829934.70242432738 1098208.3472222222 -338660.09296875005
leaf_weight=20 21 41 29 65 23 21 40 89 41 93 24 45 304 26 20 197 50 85 23 41 32 60 118 22 24 48 108 223 27 36
leaf_count=20 21 41 29 65 23 21 40 89 41 93 24 45 304 26 20 197 50 85 23 41 32 60 118 22 24 48 108 223 27 36
internal_value=0 -258607 925290 -427100 -131122 1.36867e+06 273832 -602539 657990 -377097 559828 -64961.7 -734675 1.76038e+06 1.94414e+06 -464476 768404 979686 167806 -87902.7 678008 1.68386e+06 88561.1 277474 974180 398663 450956 -910535 757479 -91250.7
internal_weight=0 1560 436 1185 441 197 375 744 70 310 239 204 592 127 101 290 156 106 83 152 171 81 163 63 83 88 131 288 59 60
internal_count=1996 1560 436 1185 441 197 375 744 70 310 239 204 592 127 101 290 156 106 83 152 171 81 163 63 83 88 131 288 59 60
is_linear=0
shrinkage=0.1


Tree=5
num_leaves=31
num_cat=0
split_feature=5 9 6 9 5 11 12 9 3 3 8 12 12 6 12 3 9 12 3 3 3 12 12 12 9 3 3 9 9 9
split_gain=3.86868e+16 1.13361e+16 5.93372e+15 8.23942e+15 5.27417e+15 4.15932e+15 3.46627e+15 2.77408e+15 1.93059e+15 2.94017e+15 1.73639e+15 1.66881e+15 1.58046e+15 1.24978e+15 1.23653e+15 1.21253e+15 1.16031e+15 1.14595e+15 9.72931e+14 1.18405e+15 1.33273e+15 9.48092e+14 8.60363e+14 7.81295e+14 7.16106e+14 6.88205e+14 6.34079e+14 5.79497e+14 5.45649e+14 5.43571e+14
threshold=20.000000000000004 96.500000000000014 1.0000000180025095e-35 117.50000000000001 10.000000000000002 17.500000000000004 12.500000000000002 133.50000000000003 130.50000000000003 101.50000000000001 4.0000000000000009 1.5000000000000002 11.500000000000002 1.0000000180025095e-35 10.500000000000002 279.50000000000006 55.500000000000007 11.500000000000002 280.50000000000006 153.50000000000003 120.50000000000001 11.500000000000002 12.500000000000002 12.500000000000002 104.50000000000001 187.50000000000003 258.50000000000006 99.500000000000014 65.500000000000014 53.500000000000007
decision_type=10 2 2 2 10 2 2 2 2 2 2 2 2 2 2 2 2 2 2 2 2 2 2 2 2 2 2 2 2 2
left_child=1 4 -2 10 25 12 8 -5 9 -6 11 -4 13 -3 -9 28 -13 26 19 20 -8 -11 27 -19 -18 -1 -7 -12 29 -10
right_child=2 5 3 7 6 17 18 14 15 21 22 16 -14 -15 -16 -17 24 23 -20 -21 -22 -23 -24 -25 -26 -27 -28 -29 -30 -31
leaf_value=-905528.5614263803 -456426.67310606065 -739119.83496621624 -45579.431562500002 2166324.4179245285 -567440.915671875 64746.902500000004 -125469.34053453949 774830.32306985301 -561528.94084496365 387.60102351262026 -178885.65275735295 734144.18278409098 372737.44184895838 -64895.077827467874 1615762.0368055557 -175019.86278511136 1774018.9968750002 1295427.0117456897 567921.85439453123 -443130.36631433829 467685.69283234124 622835.68109741213 823581.00645380444 651923.99571759265 1023916.0028571429 -573323.37433477724 603838.38834635424 389391.85571546055 -329321.78062500001 -860849.59963662794
leaf_weight=163 33 37 20 53 100 40 95 34 206 104 34 110 60 107 36 87 20 29 32 51 63 32 23 54 35 101 48 38 65 86
leaf_count=163 33 37 20 53 100 40 95 34 206 104 34 110 60 107 36 87 20 29 32 51 63 32 23 54 35 101 48 38 65 86
internal_value=0 -232746 832761 938327 -384390 246449 -271439 1.62054e+06 -386932 -155818 638639 817090 -58465.5 -238133 1.20731e+06 -509776 921656 610207 54433.5 -24186.8 111042 146846 291128 876762 1.29668e+06 -778435 358797 121039 -591356 -649685
internal_weight=0 1560 436 403 1185 375 921 123 680 236 280 185 204 144 70 444 165 171 241 209 158 136 95 83 55 264 88 72 357 292
internal_count=1996 1560 436 403 1185 375 921 123 680 236 280 185 204 144 70 444 165 171 241 209 158 136 95 83 55 264 88 72 357 292
is_linear=0
shrinkage=0.1


Tree=6
num_leaves=31
num_cat=0
split_feature=5 6 9 9 8 8 5 3 12 11 3 0 3 11 11 9 8 3 11 3 3 3 0 0 0 12 12 12 8 9
split_gain=3.13363e+16 9.43457e+15 6.35625e+15 4.83785e+15 3.89946e+15 4.42754e+15 2.97968e+15 2.30009e+15 2.04766e+15 2.25712e+15 1.96519e+15 1.82955e+15 1.77358e+15 1.72822e+15 1.44642e+15 1.24739e+15 1.2213e+15 1.17251e+15 1.15498e+15 1.0749e+15 1.27366e+15 1.04891e+15 9.19988e+14 1.13786e+15 8.74481e+14 7.68684e+14 7.48094e+14 6.32771e+14 5.93255e+14 5.65544e+14
threshold=20.000000000000004 1.0000000180025095e-35 96.500000000000014 96.500000000000014 4.0000000000000009 2.5000000000000004 14.000000000000002 285.50000000000006 11.500000000000002 7.5000000000000009 201.50000000000003 6.5000000000000009 323.50000000000006 13.500000000000002 17.500000000000004 113.50000000000001 1.5000000000000002 213.50000000000003 17.500000000000004 121.50000000000001 119.50000000000001 119.50000000000001 1.5000000000000002 5.5000000000000009 3.5000000000000004 9.5000000000000018 11.500000000000002 10.500000000000002 4.0000000000000009 81.500000000000014
decision_type=10 2 2 2 2 2 10 2 2 2 2 2 2 2 2 2 2 2 2 2 2 2 2 2 2 2 2 2 2 2
left_child=1 10 6 11 5 14 -3 18 19 -10 -1 13 15 16 17 -9 21 -5 28 20 -8 -2 -11 -24 -16 -23 -6 -12 -4 -29
right_child=3 2 7 4 26 -7 8 12 9 22 27 -13 -14 -15 24 -17 -18 -19 -20 -21 -22 25 23 -25 -26 -27 -28 29 -30 -31
leaf_value=-774013.56263297878 63133.653273809527 -676243.775139509 340239.73670847039 1072067.1804487181 134595.14563301284 2569880.4666666668 -301184.99081738282 699497.89560185187 754459.89344512206 -360016.14105152804 -606101.67782521807 1145254.2438078704 128921.08937500001 -214332.4309994104 1934239.9071428571 1701666.6054347826 -50793.501562500001 171829.43940217391 438574.21811335639 -485636.95119959675 349633.51053779072 1245557.7136197917 333659.88036121841 -140789.03664529914 1187604.4311869962 546156.03295454546 786974.10415039072 -338288.84027777781 -120289.53685878539 223711.77625000002
leaf_weight=235 21 112 38 39 39 24 100 27 41 68 86 27 25 53 21 23 32 23 104 155 43 30 89 117 62 33 32 171 106 20
leaf_count=235 21 112 38 39 39 24 100 27 41 68 86 27 25 53 21 23 32 23 104 155 43 30 89 117 62 33 32 171 106 20
internal_value=0 -209471 -37580.3 749485 1.05051e+06 1.31178e+06 -201962 331387 -115306 62460.9 -561311 380880 816637 258761 1.10354e+06 1.1605e+06 474916 738108 184638 -303215 -105484 675187 -41086.4 64191.3 1.37651e+06 879204 428625 -380859 1239.02 -279441
internal_weight=0 1560 1048 436 240 169 725 323 613 315 512 196 75 169 145 50 116 62 248 298 143 84 274 206 83 63 71 277 144 191
internal_count=1996 1560 1048 436 240 169 725 323 613 315 512 196 75 169 145 50 116 62 248 298 143 84 274 206 83 63 71 277 144 191
is_linear=0
shrinkage=0.1


Tree=7
num_leaves=31
num_cat=0
split_feature=5 6 3 6 9 3 3 9 9 11 3 9 3 4 6 0 10 3 12 9 9 3 12 3 3 3 3 0 9 11
split_gain=2.53824e+16 7.642e+15 5.30745e+15 4.57738e+15 5.71897e+15 3.69773e+15 3.83919e+15 2.76329e+15 1.84771e+15 1.7267e+15 1.5918e+15 1.42927e+15 1.32411e+15 1.82061e+15 1.59634e+15 1.48843e+15 1.29622e+15 9.72612e+14 9.36273e+14 9.3538e+14 8.08433e+14 7.8735e+14 6.66011e+14 5.19865e+14 6.20375e+14 4.82739e+14 4.64557e+14 4.32298e+14 5.48398e+14 4.03205e+14
threshold=20.000000000000004 1.0000000180025095e-35 279.50000000000006 1.0000000180025095e-35 117.50000000000001 140.50000000000003 119.50000000000001 81.500000000000014 133.50000000000003 6.5000000000000009 201.50000000000003 117.50000000000001 41.500000000000007 1.5000000000000002 3.5000000000000004 3.5000000000000004 2.5000000000000004 152.50000000000003 10.500000000000002 109.50000000000001 46.500000000000007 203.50000000000003 9.5000000000000018 300.00000000000006 277.50000000000006 39.500000000000007 205.50000000000003 1.5000000000000002 45.500000000000007 17.500000000000004
decision_type=10 2 2 2 2 2 2 2 2 2 2 2 2 2 2 2 2 2 2 2 2 2 2 2 2 2 2 2 2 2
left_child=1 10 5 -2 12 6 9 26 -6 -3 -1 -4 -5 -14 15 -15 27 20 -10 25 -16 -9 -17 24 -12 -11 -7 -8 -29 -23
right_child=3 2 11 4 8 7 16 21 18 19 23 -13 13 14 17 22 -18 -19 -20 -21 -22 29 -24 -25 -26 -27 -28 28 -30 -31
leaf_value=-696612.20402260637 -457761.50568181818 768172.05109375005 337018.081171875 -162116.44663461539 1781053.5346698114 -702665.08207258978 -52178.245833333334 -361856.58430555556 622050.88658088236 -454303.82645947806 -403743.14698425634 1071172.6181818182 1225454.2995065791 1362751.4945601854 94727.556250000009 959734.3746394231 1228457.00953125 -289379.72402343753 1353795.4184244792 188806.48862847223 857927.25217391318 -54663.89190204328 370334.33301684237 -821089.90297619055 -61702.845953124997 -168918.69383731618 -430209.29597537883 600752.46788194438 113453.99903492648 343055.28815625003
leaf_weight=235 33 20 135 26 53 119 21 45 34 91 181 33 38 27 35 26 20 32 36 54 23 52 73 21 75 170 132 72 34 50
leaf_count=235 33 20 135 26 53 119 21 45 34 91 181 33 38 27 35 26 20 32 36 54 23 52 73 21 75 170 132 72 34 50
internal_value=0 -188524 -33822.3 674536 767255 -132150 54120.7 -357734 1.33563e+06 -132832 -505180 481227 517577 587152 474858 704617 480170 153196 998377 -190039 397376 -13423.8 525126 -342773 -303536 -268421 -559382 362330 444449 140296
internal_weight=0 1560 1048 436 403 880 482 398 123 335 512 168 280 254 216 126 147 90 70 315 58 147 99 277 256 261 251 127 106 102
internal_count=1996 1560 1048 436 403 880 482 398 123 335 512 168 280 254 216 126 147 90 70 315 58 147 99 277 256 261 251 127 106 102
is_linear=0
shrinkage=0.1


Tree=8
num_leaves=31
num_cat=0
split_feature=5 9 11 8 5 9 12 11 12 8 11 11 12 1 11 3 6 0 0 11 8 3 11 3 3 3 3 8 3 3
split_gain=2.05598e+16 6.21171e+15 3.74481e+15 3.36753e+15 3.13807e+15 2.98787e+15 2.51696e+15 2.31926e+15 2.03955e+15 1.89795e+15 1.73464e+15 1.58324e+15 1.51908e+15 1.10902e+15 1.03576e+15 9.76356e+14 9.05589e+14 8.65505e+14 2.48601e+15 7.69427e+14 7.06238e+14 6.80735e+14 5.94067e+14 5.89886e+14 5.68083e+14 5.4948e+14 6.5922e+14 5.0046e+14 4.42217e+14 5.63464e+14
threshold=20.000000000000004 96.500000000000014 25.500000000000004 4.0000000000000009 10.000000000000002 72.500000000000014 11.500000000000002 8.5000000000000018 5.5000000000000009 1.5000000000000002 16.500000000000004 5.5000000000000009 12.500000000000002 1.0000000180025095e-35 21.500000000000004 261.50000000000006 1.0000000180025095e-35 5.5000000000000009 1.5000000000000002 17.500000000000004 4.0000000000000009 213.50000000000003 13.500000000000002 126.50000000000001 120.50000000000001 211.50000000000003 292.50000000000006 4.0000000000000009 277.50000000000006 128.50000000000003
decision_type=10 2 2 2 10 2 2 2 2 2 2 2 2 2 2 2 2 2 2 2 2 2 2 2 2 2 2 2 2 2
left_child=1 4 3 5 -1 10 8 11 -3 19 23 -6 13 14 22 -5 -10 18 20 21 -8 -7 -9 24 -2 -21 -27 -19 29 -14
right_child=2 6 -4 15 7 9 17 12 16 -11 -12 -13 28 -15 -16 -17 -18 27 -20 25 -22 -23 -24 -25 -26 26 -28 -29 -30 -31
leaf_value=-585873.8611683239 358570.55294471158 540220.67886029405 1614814.2775735296 -74593.032480678768 41209.582842548079 853612.22307692305 768629.64972098218 -221304.18186677634 -582655.40997023811 1910359.77 -383409.12992788461 1053199.9317826706 47088.436833817832 -849722.07466216222 119918.07128477933 589981.12155172415 -52781.243463354316 529512.6646634615 1604113.5580163044 1487490.3184782611 98999.258615451399 157930.83977272728 -430356.01440956612 194884.49266690342 968512.77212837851 448272.44375000003 1171804.294485294 -69907.823229166665 362111.14095982141 -342831.85015024041
leaf_weight=264 26 51 34 93 52 39 28 266 42 20 26 22 129 37 57 29 139 26 23 23 36 22 278 33 37 20 34 30 28 52
leaf_count=264 26 51 34 93 52 39 28 266 42 20 26 22 129 37 57 29 139 26 23 23 36 22 278 33 37 20 34 30 28 52
internal_value=0 -169672 607082 521851 -281925 712900 185049 -194800 -18348.6 999947 341150 342072 -241705 -318355 -285642 83379.5 -175735 515037 712416 868003 391963 602711 -328136 537385 716791 1.07817e+06 903830 208395 -7721.22 -64932.9
internal_weight=0 1560 436 402 1185 280 375 921 232 158 122 74 847 638 601 122 181 143 87 138 64 61 544 96 63 77 54 56 209 181
internal_count=1996 1560 436 402 1185 280 375 921 232 158 122 74 847 638 601 122 181 143 87 138 64 61 544 96 63 77 54 56 209 181
is_linear=0
shrinkage=0.1


Tree=9
num_leaves=31
num_cat=0
split_feature=5 6 3 6 9 11 3 9 3 9 3 9 11 3 4 6 12 3 9 9 3 6 9 0 9 12 9 11 0 3
split_gain=1.66534e+16 5.14719e+15 3.59851e+15 3.45789e+15 3.94137e+15 3.10579e+15 1.89501e+15 1.94867e+15 1.56234e+15 1.26692e+15 1.21457e+15 1.11146e+15 1.03498e+15 9.26085e+14 1.51711e+15 1.11553e+15 1.19365e+15 9.95827e+14 8.27713e+14 8.25723e+14 8.14757e+14 7.79834e+14 7.01165e+14 6.94057e+14 6.05209e+14 4.10195e+14 4.29282e+14 3.61398e+14 3.11981e+14 2.98726e+14
threshold=20.000000000000004 1.0000000180025095e-35 279.50000000000006 1.0000000180025095e-35 117.50000000000001 26.500000000000004 140.50000000000003 59.500000000000007 40.500000000000007 133.50000000000003 201.50000000000003 117.50000000000001 6.5000000000000009 41.500000000000007 1.5000000000000002 3.5000000000000004 9.5000000000000018 280.50000000000006 99.500000000000014 45.500000000000007 203.50000000000003 6.5000000000000009 46.500000000000007 5.5000000000000009 53.500000000000007 10.500000000000002 81.500000000000014 17.500000000000004 1.0000000180025095e-35 281.50000000000006
decision_type=10 2 2 2 2 2 2 2 2 2 2 2 2 2 2 2 2 2 2 2 2 2 2 2 2 2 2 2 2 2
left_child=1 10 5 -2 13 6 8 24 -3 -6 -1 28 19 -5 -15 16 -16 -18 -14 -10 -9 -17 -23 -11 -8 -12 -27 -22 -4 -30
right_child=3 2 11 4 9 -7 7 20 12 23 25 -13 18 14 15 21 17 -19 -20 -21 27 22 -24 -25 -26 26 -28 -29 29 -31
leaf_value=-579799.81011884974 -437767.40359848487 -329718.42200284096 -19448.71875 -148742.06490384616 1467640.1554245285 1015249.7640625001 -353815.46592013887 -333111.14468750003 1034154.8321093749 321670.52250000002 -452070.53938953485 918595.49370903242 -37501.992073695867 1060549.659950658 1054088.9471354166 -289822.40375976561 143415.1463114754 855200.91982758627 384161.22789199563 136344.55535714288 -46438.140084402905 53314.396354166667 769889.22329545463 1018692.9187109376 -685337.08118279569 -240333.26705957606 249304.68539062503 323446.91770312504 688442.92380952381 267260.22689338232
leaf_weight=235 33 110 29 26 53 24 135 60 20 20 86 33 254 38 36 32 61 29 57 21 56 36 22 50 93 171 20 50 21 85
leaf_count=235 33 110 29 26 53 24 135 60 20 20 86 33 254 38 36 32 61 29 57 21 56 36 22 50 93 171 20 50 21 85
internal_value=0 -152705 -25741.7 546374 626962 -106706 -138163 -299280 -759.762 1.0988e+06 -412582 398357 102040 419688 477873 375365 567431 372768 39780.3 574301 -38643.7 106473 325119 819544 -489041 -270718 -189062 128036 271188 350702
internal_weight=0 1560 1048 436 403 880 856 394 462 123 512 168 352 280 254 216 126 90 311 41 166 90 58 70 228 277 191 106 135 106
internal_count=1996 1560 1048 436 403 880 856 394 462 123 512 168 352 280 254 216 126 90 311 41 166 90 58 70 228 277 191 106 135 106
is_linear=0
shrinkage=0.1


Tree=10
num_leaves=31
num_cat=0
split_feature=5 5 9 6 5 9 12 11 9 9 12 1 11 0 0 12 3 3 3 12 12 6 11 12 11 6 3 8 9 11
split_gain=1.34893e+16 4.3905e+15 3.58273e+15 2.80089e+15 3.55812e+15 2.96254e+15 1.74666e+15 1.57095e+15 1.31486e+15 1.24158e+15 1.18036e+15 1.05765e+15 9.66377e+14 7.79648e+14 1.82071e+15 7.10759e+14 6.75519e+14 1.12902e+15 6.55629e+14 1.03468e+15 6.00924e+14 4.72721e+14 4.371e+14 4.28444e+14 3.8175e+14 3.60939e+14 3.49778e+14 3.36498e+14 3.27824e+14 2.83571e+14
threshold=20.000000000000004 10.000000000000002 96.500000000000014 1.0000000180025095e-35 34.000000000000007 117.50000000000001 11.500000000000002 7.5000000000000009 133.50000000000003 45.500000000000007 3.5000000000000004 1.0000000180025095e-35 24.500000000000004 5.5000000000000009 1.5000000000000002 12.500000000000002 280.50000000000006 152.50000000000003 120.50000000000001 13.500000000000002 11.500000000000002 1.0000000180025095e-35 21.500000000000004 9.5000000000000018 17.500000000000004 4.5000000000000009 280.50000000000006 4.0000000000000009 59.500000000000007 21.500000000000004
decision_type=10 10 2 2 10 2 2 2 2 2 2 2 2 2 2 2 2 2 2 2 2 2 2 2 2 2 2 2 2 2
left_child=1 28 7 -2 5 16 10 9 -7 -3 -4 12 15 14 27 23 17 18 20 -20 -5 -12 -10 -9 -23 -11 -17 -8 -1 -15
right_child=3 2 6 4 -6 8 13 11 22 25 21 -13 -14 29 -16 26 -18 -19 19 -21 -22 24 -24 -25 -26 -27 -28 -29 -30 -31
leaf_value=-540401.90344669123 -393990.66711647733 960844.03800781257 483360.73986037239 -137383.54484011629 1695732.1016826925 1284163.7405048078 656502.54910714284 -71388.036052178897 336427.3860887097 264651.09614583332 -445210.39348958334 -716812.41418918921 343893.52359375003 -70459.500967261905 1485019.6909801138 -82262.377117187498 665475.95982921519 -280101.77174479165 675553.62602848106 -62580.497406250011 408407.42088815791 -112159.51001302083 871870.99375000002 -291617.17005683342 277055.36966517859 -261887.44395380435 310824.56538461539 166241.66305803572 -311241.21301185346 408662.23250000004
leaf_weight=221 33 20 47 43 26 52 28 109 31 30 30 37 35 21 22 175 43 36 79 25 38 90 30 466 35 23 26 28 87 30
leaf_count=221 33 20 47 43 26 52 28 109 31 30 30 37 35 21 22 175 43 36 79 25 38 90 30 466 35 23 26 28 87 30
internal_value=0 -137434 -54225.6 491737 564265 486233 227951 -155638 914707 289493 44377.4 -193957 -170102 515407 714196 -193285 302833 232274 331980 498118 118667 -88733.7 599760 -249869 -3179.34 36153.2 -31415.3 411372 -475671 211377
internal_weight=0 1560 1252 436 403 377 331 921 113 73 202 848 811 129 78 776 264 221 185 104 81 155 61 575 125 53 201 56 308 51
internal_count=1996 1560 1252 436 403 377 331 921 113 73 202 848 811 129 78 776 264 221 185 104 81 155 61 575 125 53 201 56 308 51
is_linear=0
shrinkage=0.1


Tree=11
num_leaves=31
num_cat=0
split_feature=5 5 9 11 8 8 3 11 11 9 11 6 11 9 3 9 3 9 3 11 12 12 3 3 3 12 9 3 0 3
split_gain=1.09263e+16 3.55631e+15 2.90201e+15 2.59415e+15 2.25059e+15 1.99678e+15 1.42716e+15 1.27247e+15 1.09196e+15 9.70625e+14 1.26703e+15 8.85332e+14 1.3334e+15 8.52148e+14 7.37074e+14 6.78711e+14 5.42038e+14 5.38136e+14 5.33541e+14 4.97175e+14 4.86386e+14 4.54905e+14 4.29719e+14 4.01133e+14 4.2983e+14 3.96402e+14 3.83296e+14 3.36067e+14 3.80807e+14 3.24549e+14
threshold=20.000000000000004 10.000000000000002 96.500000000000014 25.500000000000004 4.0000000000000009 2.5000000000000004 285.50000000000006 7.5000000000000009 5.5000000000000009 72.500000000000014 12.500000000000002 1.0000000180025095e-35 24.500000000000004 133.50000000000003 317.50000000000006 113.50000000000001 261.50000000000006 109.50000000000001 126.50000000000001 17.500000000000004 12.500000000000002 9.5000000000000018 213.50000000000003 211.50000000000003 305.50000000000006 10.500000000000002 167.50000000000003 61.500000000000007 5.5000000000000009 280.50000000000006
decision_type=10 10 2 2 2 2 2 2 2 2 2 2 2 2 2 2 2 2 2 2 2 2 2 2 2 2 2 2 2 2
left_child=1 -1 7 4 5 9 13 8 -3 10 18 25 20 17 15 -8 -6 -4 -2 22 21 -13 -11 -21 -25 -9 -15 -19 -29 -22
right_child=3 2 6 -5 16 -7 14 11 -10 19 -12 12 -14 26 -16 -17 -18 27 -20 23 29 -23 -24 24 -26 -27 -28 28 -30 -31
leaf_value=-428104.30589552049 638869.59897921584 14761.931189903848 16911.396725398936 1281303.7420955882 -104534.09872311828 1442310.5048295455 462973.24503348221 -475389.99625303404 869146.74107142864 620705.03429487185 -286559.91716678505 -9522.7152679771516 627124.05299479177 -501380.56610991381 95501.897619047624 1187675.46953125 390635.92047413794 67357.234059979834 126670.96477272728 1148729.2644361414 -48039.812492439523 -265723.6087129481 75710.78410326087 416110.279296875 990304.46590909082 -229406.28832899305 17331.996491350448 610105.54519230768 128543.66048177083 370870.72261904762
leaf_weight=308 53 52 94 34 93 22 28 103 21 39 33 93 24 29 21 24 29 31 33 23 155 272 23 32 22 180 28 52 24 21
leaf_count=308 53 52 94 34 93 22 28 103 21 39 33 93 24 29 21 24 29 31 33 23 155 272 23 32 22 180 28 52 24 21
internal_value=0 -123691 -48803 442563 371625 527809 205156 -140074 260544 449828 240200 -174561 -102247 94703.6 595521 797451 13170.3 191484 442328 629294 -134603 -200445 418530 799000 650041 -318934 -246574 344847 458033 1943.83
internal_weight=0 1560 1252 436 402 280 331 921 73 258 119 848 565 258 73 52 122 201 86 139 541 365 62 77 54 283 57 107 76 176
internal_count=1996 1560 1252 436 402 280 331 921 73 258 119 848 565 258 73 52 122 201 86 139 541 365 62 77 54 283 57 107 76 176
is_linear=0
shrinkage=0.1


Tree=12
num_leaves=31
num_cat=0
split_feature=5 9 11 9 8 8 11 6 9 0 3 0 0 9 11 9 11 3 12 0 12 12 9 11 12 3 3 12 9 3
split_gain=8.8503e+15 2.9596e+15 2.10126e+15 1.87095e+15 1.82298e+15 1.61739e+15 1.4622e+15 1.19291e+15 1.10194e+15 8.83833e+14 8.81281e+14 8.10854e+14 1.95291e+15 7.86207e+14 1.05031e+15 5.74182e+14 9.36314e+14 5.23036e+14 4.4684e+14 4.94425e+14 4.33999e+14 8.03632e+14 8.74383e+14 4.02712e+14 3.60385e+14 3.48072e+14 3.24918e+14 3.5067e+14 3.20068e+14 3.1983e+14
threshold=20.000000000000004 81.500000000000014 25.500000000000004 51.500000000000007 4.0000000000000009 2.5000000000000004 17.500000000000004 1.0000000180025095e-35 59.500000000000007 1.0000000180025095e-35 275.50000000000006 5.5000000000000009 4.5000000000000009 72.500000000000014 16.500000000000004 139.50000000000003 16.500000000000004 205.50000000000003 12.500000000000002 5.5000000000000009 14.500000000000002 11.500000000000002 117.50000000000001 17.500000000000004 11.500000000000002 213.50000000000003 211.50000000000003 9.5000000000000018 114.50000000000001 126.50000000000001
decision_type=10 2 2 2 2 2 2 2 2 2 2 2 2 2 2 2 2 2 2 2 2 2 2 2 2 2 2 2 2 2
left_child=1 3 4 7 5 13 15 17 -5 -9 11 12 -11 14 29 16 -3 -1 19 -6 21 -8 -23 25 -10 -15 -25 -28 -18 -2
right_child=2 6 -4 8 18 -7 20 9 24 10 -12 -13 -14 23 -16 -17 28 -19 -20 -21 -22 22 -24 26 -26 -27 27 -29 -30 -31
leaf_value=-427240.6378356482 499365.87308467738 628658.12989130442 1153173.3595588235 -529396.3482919035 169463.01386718752 1298079.4754261365 174490.01090745194 -447102.09769021743 -284487.67897727271 -4569.0507520443925 494944.76071428577 -182477.00394365028 913242.0698317308 558634.5317307692 -374893.0502604167 -319837.10259812884 -99442.977476945714 -156771.28698344983 408907.4326086957 -280275.46559659089 -136742.236875 398036.53928977274 1170157.0306250001 1033856.3490489131 145480.92870535713 68139.71786684783 265589.40833333338 788322.03096590913 299828.12770996097 114003.87088068182
leaf_weight=135 62 23 34 220 44 22 104 46 44 214 35 188 26 39 24 62 158 152 23 55 20 55 20 23 35 23 21 33 23 33
leaf_count=135 62 23 34 220 44 22 104 46 44 214 35 188 26 39 24 62 158 152 23 55 20 55 20 23 35 23 21 33 23 33
internal_value=0 -111322 398307 -201080 334462 475028 100044 -120967 -414357 -29042.8 12492.2 -26960.7 94860.5 404845 216180 -53333.5 27662.7 -283996 11853.2 -80391.7 305062 354425 603935 566364 -93995.3 376677 719100 585037 -48706.9 365503
internal_weight=0 1560 436 1095 402 280 465 796 299 509 463 428 240 258 119 266 204 287 122 99 199 179 75 139 79 62 77 54 181 95
internal_count=1996 1560 436 1095 402 280 465 796 299 509 463 428 240 258 119 266 204 287 122 99 199 179 75 139 79 62 77 54 181 95
is_linear=0
shrinkage=0.1


Tree=13
num_leaves=31
num_cat=0
split_feature=5 5 9 6 5 9 12 12 11 12 8 3 3 1 9 3 0 3 9 3 3 3 3 9 3 6 12 0 11 3
split_gain=7.16874e+15 2.5e+15 1.95097e+15 1.88074e+15 2.68393e+15 1.82426e+15 1.08197e+15 9.81653e+14 1.02755e+15 7.69033e+14 6.90251e+14 6.6834e+14 6.16857e+14 6.13004e+14 6.12724e+14 5.23415e+14 4.97292e+14 4.55065e+14 4.32854e+14 5.54898e+14 8.90186e+14 4.80737e+14 3.87928e+14 3.82756e+14 3.69757e+14 3.6228e+14 4.72899e+14 4.19007e+14 3.54069e+14 3.49099e+14
threshold=20.000000000000004 10.000000000000002 96.500000000000014 1.0000000180025095e-35 34.000000000000007 109.50000000000001 11.500000000000002 11.500000000000002 7.5000000000000009 3.5000000000000004 4.0000000000000009 280.50000000000006 128.50000000000003 1.0000000180025095e-35 124.50000000000001 120.50000000000001 1.5000000000000002 97.500000000000014 16.500000000000004 128.50000000000003 120.50000000000001 268.50000000000006 171.50000000000003 46.500000000000007 129.50000000000003 6.5000000000000009 9.5000000000000018 3.5000000000000004 17.500000000000004 134.50000000000003
decision_type=10 10 2 2 10 2 2 2 2 2 2 2 2 2 2 2 2 2 2 2 2 2 2 2 2 2 2 2 2 2
left_child=1 -1 7 -2 5 11 9 13 24 -4 16 12 15 25 22 17 28 -5 -10 20 -20 -21 -8 -17 -9 26 27 -3 -7 -18
right_child=3 2 6 4 -6 10 14 8 18 -11 -12 -13 -14 -15 -16 23 29 -19 19 21 -22 -23 -24 -25 -26 -27 -28 -29 -30 -31
leaf_value=-355420.95937626832 -367323.53579545458 -216715.1259765625 380679.88350920985 204432.24823764537 1400599.3399038464 146650.51339285713 640780.55817307695 715480.55442708335 -444529.49768518517 -81098.232202620973 247764.38766741075 651814.33802083333 -213533.11985012755 -570177.00170454546 905856.96468750003 211101.25927507269 519392.98409090913 -325524.48269230773 -62683.73207959468 -263035.0424552671 434406.82391183032 26270.559068341125 198127.92965396744 697133.25384615385 133291.732421875 51875.419650423733 -290795.28231604834 179677.91153157552 727347.00915178575 985080.05023437506
leaf_weight=308 33 60 47 43 26 21 26 24 27 155 42 24 49 44 20 43 22 26 101 124 56 107 83 26 20 59 251 48 21 60
leaf_count=308 33 60 47 43 26 21 26 24 27 155 42 24 49 44 20 43 22 26 101 124 56 107 83 26 20 59 251 48 21 60
internal_value=0 -100189 -37400.9 358476 417909 350137 170827 -112236 -8659.26 26345.2 598142 155025 91265.5 -215141 397070 199491 716818 4738.41 -57378.2 -30437.3 114622 -129028 303715 394244 450849 -177769 -215510 -40540.4 436999 860140
internal_weight=0 1560 1252 436 403 377 331 921 459 202 166 211 187 462 129 138 124 69 415 388 157 231 109 69 44 418 359 108 42 82
internal_count=1996 1560 1252 436 403 377 331 921 459 202 166 211 187 462 129 138 124 69 415 388 157 231 109 69 44 418 359 108 42 82
is_linear=0
shrinkage=0.1


Tree=14
num_leaves=31
num_cat=0
split_feature=5 8 11 8 8 5 1 3 3 3 9 9 11 11 11 11 9 11 9 3 9 0 9 0 3 3 0 3 0 12
split_gain=5.80668e+15 2.12443e+15 1.55538e+15 1.32088e+15 1.16749e+15 1.09336e+15 9.81876e+14 9.61566e+14 1.09146e+15 1.86623e+15 9.90988e+14 8.3909e+14 8.3408e+14 7.88611e+14 5.06037e+14 5.82731e+14 4.77977e+14 8.22584e+14 4.34167e+14 3.78063e+14 3.61296e+14 3.3538e+14 3.25349e+14 4.72865e+14 3.12928e+14 2.79976e+14 2.66452e+14 2.63831e+14 3.20359e+14 3.17958e+14
threshold=20.000000000000004 1.5000000000000002 25.500000000000004 4.0000000000000009 2.5000000000000004 10.000000000000002 1.0000000180025095e-35 257.50000000000006 133.50000000000003 119.50000000000001 117.50000000000001 114.50000000000001 8.5000000000000018 24.500000000000004 9.5000000000000018 16.500000000000004 72.500000000000014 12.500000000000002 16.500000000000004 259.50000000000006 70.500000000000014 5.5000000000000009 65.500000000000014 1.5000000000000002 126.50000000000001 205.50000000000003 5.5000000000000009 211.50000000000003 5.5000000000000009 9.5000000000000018
decision_type=10 2 2 2 2 10 2 2 2 2 2 2 2 2 2 2 2 2 2 2 2 2 2 2 2 2 2 2 2 2
left_child=1 11 3 4 16 -3 7 8 9 18 22 12 -1 14 -14 21 17 24 -7 -5 -17 -16 23 -9 -2 -10 -11 28 -18 -29
right_child=2 5 -4 19 -6 6 -8 10 25 26 -12 -13 13 -15 15 20 27 -19 -20 -21 -22 -23 -24 -25 -26 -27 -28 29 -30 -31
leaf_value=684219.65297619055 494001.44009433966 -313579.68440606509 972082.38115808822 -111878.65293402779 1086622.8840909093 -402898.82873437501 -517629.97442908655 -418531.25887276791 -325576.62512987788 502903.80216733873 744567.42010869563 557092.12951489829 -451677.43800000002 627755.37629150401 465077.50995065796 -289582.17824074073 857682.38325892854 -243814.4329308712 -74088.809246227785 288311.02481689455 46036.984874406648 -25537.963636363638 214942.6254664179 65778.504079861115 101739.14029356062 -150138.4276164941 151166.54337121212 68603.90840517242 400913.90588235296 487986.97045898438
leaf_weight=21 53 301 34 90 22 50 52 28 197 62 23 43 25 20 38 54 28 33 204 32 79 22 67 72 33 169 33 29 34 48
leaf_count=21 53 301 34 90 22 50 52 28 197 62 23 43 25 20 38 54 28 33 204 32 79 22 67 72 33 169 33 29 34 48
internal_value=0 -90170.5 322629 267700 387351 -147348 -95063.6 -70783.6 -123920 2605.94 129176 148004 80086.4 26780.5 -28354.8 26479.8 327723 180618 -138815 -6910.87 -90229.4 285185 44421.2 -69828.2 343482 -244568 380721 453662 607196 330038
internal_weight=0 1560 436 402 280 1258 957 905 715 349 190 302 259 238 218 193 258 119 254 122 133 60 167 100 86 366 95 139 62 77
internal_count=1996 1560 436 402 280 1258 957 905 715 349 190 302 259 238 218 193 258 119 254 122 133 60 167 100 86 366 95 139 62 77
is_linear=0
shrinkage=0.1


Tree=15
num_leaves=31
num_cat=0
split_feature=5 9 9 6 5 9 11 11 9 9 11 11 3 9 3 11 0 0 3 3 12 3 3 3 11 6 12 6 3 3
split_gain=4.70341e+15 1.79276e+15 1.86693e+15 1.42388e+15 2.10165e+15 1.31913e+15 1.30679e+15 7.34271e+14 6.20975e+14 5.47523e+14 6.90995e+14 5.35651e+14 5.33256e+14 5.93264e+14 7.67644e+14 7.77183e+14 4.72826e+14 6.65178e+14 7.09506e+14 4.40597e+14 6.81775e+14 3.38815e+14 3.28719e+14 4.77818e+14 3.1448e+14 7.66358e+14 3.12972e+14 2.92732e+14 2.79927e+14 4.97274e+14
threshold=20.000000000000004 62.500000000000007 51.500000000000007 1.0000000180025095e-35 34.000000000000007 117.50000000000001 17.500000000000004 13.500000000000002 133.50000000000003 181.50000000000003 16.500000000000004 21.500000000000004 268.50000000000006 50.500000000000007 119.50000000000001 7.5000000000000009 4.5000000000000009 6.5000000000000009 119.50000000000001 287.50000000000006 12.500000000000002 128.50000000000003 129.50000000000003 119.50000000000001 24.500000000000004 4.5000000000000009 11.500000000000002 1.0000000180025095e-35 151.50000000000003 57.500000000000007
decision_type=10 2 2 2 10 2 2 2 2 2 2 2 2 2 2 2 2 2 2 2 2 2 2 2 2 2 2 2 2 2
left_child=1 2 7 -2 5 16 9 12 -7 10 -3 -9 13 14 15 -1 24 18 -18 28 -21 -20 23 -13 25 -5 -12 -14 29 -8
right_child=3 6 -4 4 -6 8 19 11 -10 -11 26 22 27 -15 -16 -17 17 -19 21 20 -22 -23 -24 -25 -26 -27 -28 -29 -30 -31
leaf_value=503802.91625000001 -341156.43399621214 392906.45429687505 -414993.6369709922 783556.96509650734 1211662.6586538462 821920.36893028859 122208.66064453125 -297235.38772571494 351582.86731557379 -565423.63921875006 -150812.20866402119 -117300.10719572369 15389.032459677419 -211653.94369179429 280031.62816091953 -158323.04148700423 -432000.72468750004 475108.73362304689 302202.46875 861792.70011574076 144345.63248197114 -78886.285661764719 -269072.20698529412 427117.92020089284 37420.376116071428 148244.27154796512 79299.679387718032 427079.577724359 83417.578729363217 757846.33515625005
leaf_weight=20 33 35 223 34 26 52 32 212 61 20 189 38 31 151 87 156 35 30 43 27 26 51 34 28 28 43 86 39 106 20
leaf_count=20 33 35 223 34 26 52 32 212 61 20 189 38 31 151 87 156 35 30 43 27 26 51 34 28 28 43 86 39 106 20
internal_value=0 -81153.5 -159264 290366 342078 282107 65971.9 -87621.4 568021 -58304.5 -25587.1 -207245 -10508.6 -53669.9 37035.8 -83081.5 159727 50973.2 -47662.9 260338 509838 95441.5 -16465.6 113665 324412 428772 -78849.9 244759 176645 366685
internal_weight=0 1560 1019 436 403 377 541 796 113 330 310 312 484 414 263 176 264 159 129 211 53 94 100 66 105 77 275 70 158 52
internal_count=1996 1560 1019 436 403 377 541 796 113 330 310 312 484 414 263 176 264 159 129 211 53 94 100 66 105 77 275 70 158 52
is_linear=0
shrinkage=0.1


Tree=16
num_leaves=31
num_cat=0
split_feature=5 8 11 6 5 6 3 11 9 11 11 9 12 0 9 9 3 11 11 3 0 12 11 9 3 0 6 8 3 3
split_gain=3.80976e+15 1.47517e+15 1.16421e+15 9.79e+14 1.17137e+15 1.07434e+15 8.68512e+14 7.76098e+14 6.39821e+14 6.34196e+14 5.78061e+14 5.14918e+14 5.10182e+14 6.02084e+14 4.50168e+14 4.49525e+14 4.02661e+14 3.8727e+14 4.7053e+14 3.68716e+14 4.66894e+14 3.45907e+14 3.38712e+14 3.37729e+14 3.92763e+14 3.31587e+14 3.33169e+14 2.72022e+14 2.68753e+14 3.35437e+14
threshold=20.000000000000004 1.5000000000000002 25.500000000000004 1.0000000180025095e-35 34.000000000000007 3.5000000000000004 120.50000000000001 17.500000000000004 114.50000000000001 8.5000000000000018 24.500000000000004 62.500000000000007 11.500000000000002 1.5000000000000002 75.500000000000014 99.500000000000014 98.500000000000014 9.5000000000000018 16.500000000000004 292.50000000000006 3.5000000000000004 9.5000000000000018 12.500000000000002 46.500000000000007 119.50000000000001 5.5000000000000009 1.0000000180025095e-35 4.0000000000000009 258.50000000000006 151.50000000000003
decision_type=10 2 2 2 10 2 2 2 2 2 2 2 2 2 2 2 2 2 2 2 2 2 2 2 2 2 2 2 2 2
left_child=1 8 3 -2 5 6 16 12 9 -1 17 23 21 14 -14 22 -5 -11 -19 20 -8 -3 -7 24 -9 26 -15 -23 29 -13
right_child=2 7 -4 4 -6 15 19 11 -10 10 -12 28 13 25 -16 -17 -18 18 -20 -21 -22 27 -24 -25 -26 -27 -28 -29 -30 -31
leaf_value=592918.7517857143 -316838.31005859375 -54216.078504022284 823211.60191865813 226117.2697610294 950809.78478260885 -825.06251240079371 780096.77910156257 -227671.40730468754 482656.91824127914 -397890.60887500003 534174.04031250009 253392.77964743591 -399896.13909795857 -31729.425225781248 26965.573348214286 257614.28884943185 -330814.86428571428 252877.50704752604 -84464.986613016925 741906.62211538467 285382.05152889783 -478773.04468750005 -413815.15763065731 -260282.25614013674 372355.77490234375 -129532.76033528645 232698.5559050325 -231777.37522008212 358353.76304086542 -187305.53729838712
leaf_weight=21 32 101 34 34 23 63 24 20 43 25 20 39 84 125 35 44 21 60 133 39 93 50 29 64 24 144 77 412 52 31
leaf_count=21 32 101 34 34 23 63 24 20 43 25 20 39 84 125 35 44 21 60 133 39 93 50 29 64 24 144 77 412 52 31
internal_value=0 -73038.1 261329 213807 259700 213892 355157 -120684 125432 66124.8 19643 45370.8 -157836 -80319.5 -274349 -5276.4 13470.5 -27561.7 20408.3 475623 386862 -221859 -131007 -113657 99616.1 -13587 69067.4 -258509 186150 58226.4
internal_weight=0 1560 436 402 370 347 211 1258 302 259 238 230 1028 465 119 136 55 218 193 156 117 563 92 108 44 346 202 462 122 70
internal_count=1996 1560 436 402 370 347 211 1258 302 259 238 230 1028 465 119 136 55 218 193 156 117 563 92 108 44 346 202 462 122 70
is_linear=0
shrinkage=0.1


Tree=17
num_leaves=31
num_cat=0
split_feature=8 11 0 3 9 8 3 4 9 11 0 11 6 9 3 3 3 3 3 9 3 3 12 12 9 12 3 9 0 9
split_gain=3.09101e+15 1.87647e+15 1.79736e+15 1.26519e+15 6.82313e+14 6.01133e+14 5.76825e+14 6.68197e+14 5.32748e+14 4.74464e+14 4.21454e+14 6.65669e+14 5.62581e+14 4.46596e+14 3.92731e+14 5.92713e+14 9.3821e+14 6.04718e+14 3.66648e+14 3.39658e+14 3.27501e+14 5.83078e+14 3.68455e+14 3.20491e+14 2.87563e+14 2.65881e+14 4.40587e+14 2.56277e+14 8.4418e+14 4.09987e+14
threshold=1.5000000000000002 17.500000000000004 6.5000000000000009 286.50000000000006 114.50000000000001 2.5000000000000004 41.500000000000007 1.5000000000000002 28.000000000000004 6.5000000000000009 5.5000000000000009 16.500000000000004 5.5000000000000009 70.500000000000014 36.500000000000007 128.50000000000003 119.50000000000001 202.50000000000003 317.50000000000006 62.500000000000007 119.50000000000001 126.50000000000001 11.500000000000002 9.5000000000000018 102.50000000000001 11.500000000000002 171.50000000000003 128.50000000000003 6.5000000000000009 159.50000000000003
decision_type=2 2 2 2 2 2 2 2 2 2 2 2 2 2 2 2 2 2 2 2 2 2 2 2 2 2 2 2 2 2
left_child=4 5 3 19 6 -2 -1 8 -8 -7 11 12 -9 -13 -11 16 -16 -17 -19 -3 -12 22 -22 -21 -15 -25 -27 28 -6 -29
right_child=1 2 -4 -5 27 9 7 10 -10 14 20 13 -14 24 15 17 -18 18 -20 23 21 -23 -24 25 -26 26 -28 29 -30 -31
leaf_value=-332618.34378125006 -376978.50910317339 -126270.59231714709 935983.28079927887 745435.96700000006 750047.50618622452 158788.59926509534 185439.48281250001 631488.1956730769 915335.63156250014 -323071.39167829242 -309847.06446010049 -197564.18804598722 139414.36685267856 519615.60636160721 -99674.382404834323 -279343.8022307629 368658.24260416673 -58950.559501203912 -478900.26917613635 407934.54684709827 580870.4236607143 -84866.550479600701 18893.166875000003 -135202.03530649038 68162.333766351745 492858.90162500006 -63689.52259114584 -117728.78541666668 -7760.0593005952387 408797.11768750002
leaf_weight=25 97 116 26 25 49 59 20 52 20 98 28 44 42 21 149 254 60 378 22 28 28 90 20 52 43 25 33 21 21 50
leaf_count=25 97 116 26 25 49 59 20 52 20 98 28 44 42 21 149 254 60 378 22 28 28 90 20 52 43 25 33 21 21 50
internal_value=0 -79063.5 140772 66666.3 195868 -139090 133652 162223 550388 -116468 120031 217044 411625 47686 -133367 -111824 34775.2 -158673 -82047.8 -141.767 1979.08 65248.2 346713 105880 216295 28992.8 176202 386928 522705 253064
internal_weight=0 1422 305 279 574 1117 433 408 40 1020 368 202 94 108 961 863 209 654 400 254 166 138 48 138 64 110 58 141 70 71
internal_count=1996 1422 305 279 574 1117 433 408 40 1020 368 202 94 108 961 863 209 654 400 254 166 138 48 138 64 110 58 141 70 71
is_linear=0
shrinkage=0.1


Tree=18
num_leaves=31
num_cat=0
split_feature=5 5 3 11 11 8 9 8 3 3 0 9 11 3 9 0 0 10 12 0 6 11 8 3 9 3 9 11 0 9
split_gain=2.52747e+15 1.16511e+15 1.00958e+15 9.79419e+14 8.51272e+14 7.7443e+14 7.55627e+14 6.86184e+14 4.99003e+14 6.89217e+14 3.7742e+14 3.58518e+14 3.56576e+14 3.5472e+14 3.79497e+14 3.46926e+14 4.01647e+14 3.46652e+14 3.30472e+14 3.0347e+14 2.88771e+14 2.88756e+14 2.17291e+14 2.11557e+14 2.05182e+14 2.04665e+14 1.9587e+14 4.07228e+14 2.66059e+14 2.75138e+14
threshold=20.000000000000004 10.000000000000002 277.50000000000006 26.500000000000004 25.500000000000004 4.0000000000000009 120.50000000000001 2.5000000000000004 129.50000000000003 119.50000000000001 1.5000000000000002 35.500000000000007 17.500000000000004 314.50000000000006 159.50000000000003 4.5000000000000009 1.5000000000000002 2.5000000000000004 12.500000000000002 5.5000000000000009 1.5000000000000002 12.500000000000002 4.0000000000000009 151.50000000000003 53.500000000000007 222.50000000000003 72.500000000000014 16.500000000000004 5.5000000000000009 105.50000000000001
decision_type=10 10 2 2 2 2 2 2 2 2 2 2 2 2 2 2 2 2 2 2 2 2 2 2 2 2 2 2 2 2
left_child=1 20 3 8 5 7 26 13 9 11 -11 -3 -12 14 15 16 -2 24 19 -7 23 -17 -13 -1 -10 -21 27 -4 29 -28
right_child=4 2 6 -5 -6 18 -8 -9 17 10 12 22 -14 -15 -16 21 -18 -19 -20 25 -22 -23 -24 -25 -26 -27 28 -29 -30 -31
leaf_value=-313044.27468307782 213969.81601083791 -261185.16118421053 191418.36199596775 524049.14419642859 693322.01643497252 78364.978125000009 729991.7536931819 799927.61065340915 -150562.73370121274 -158922.36292613635 436782.73889508931 145717.30236816406 17905.726250000003 -186367.4465625 566840.33948863635 261147.50650614756 710061.71054687502 -36448.86925992919 303408.39972826088 -437521.96640625002 -528486.16677083343 -37492.24505208333 -66773.533263530931 -133439.07026111693 -319398.77248938108 -46442.73641304348 583078.45420673082 -196552.23594563804 -25705.95120967742 167230.82004573173
leaf_weight=106 51 76 62 28 34 44 22 22 239 22 63 64 30 20 33 61 24 203 23 32 30 69 194 172 103 23 26 48 31 41
leaf_count=106 51 76 62 28 34 44 22 22 239 22 63 64 30 20 33 61 24 203 23 32 30 69 194 172 103 23 26 48 31 41
internal_value=0 -59489.9 -16625.8 -59225.4 212854 172217 172665 263835 -75655.7 2405.26 213549 -70294.1 301661 218122 252112 201449 372719 -139966 -38052.7 -117382 -233730 102639 -14062.6 -201922 -201411 -273980 113717 22122.1 216527 328605
internal_weight=0 1560 1252 1022 436 402 230 280 994 449 115 334 93 258 238 205 75 545 122 99 308 130 258 278 342 55 208 110 98 67
internal_count=1996 1560 1252 1022 436 402 230 280 994 449 115 334 93 258 238 205 75 545 122 99 308 130 258 278 342 55 208 110 98 67
is_linear=0
shrinkage=0.1


Tree=19
num_leaves=31
num_cat=0
split_feature=11 8 11 11 3 3 3 3 11 9 3 3 5 3 10 3 9 3 8 3 9 0 3 9 3 9 11 6 3 6
split_gain=2.10346e+15 1.31671e+15 1.00512e+15 1.80968e+15 1.47577e+15 1.43978e+15 6.1347e+14 5.59549e+14 6.74713e+14 5.84976e+14 5.58832e+14 7.3781e+14 4.56701e+14 3.66524e+14 3.34686e+14 3.02453e+14 3.18553e+14 2.90629e+14 2.68024e+14 4.35755e+14 2.58372e+14 2.89172e+14 2.5349e+14 2.37371e+14 2.2865e+14 2.35692e+14 2.2454e+14 2.16988e+14 2.00563e+14 1.93204e+14
threshold=20.500000000000004 1.5000000000000002 41.000000000000007 25.500000000000004 209.50000000000003 285.50000000000006 256.50000000000006 313.50000000000006 6.5000000000000009 28.000000000000004 137.50000000000003 40.500000000000007 20.000000000000004 317.50000000000006 2.5000000000000004 307.50000000000006 117.50000000000001 119.50000000000001 4.0000000000000009 137.50000000000003 113.50000000000001 1.5000000000000002 147.50000000000003 120.50000000000001 265.50000000000006 114.50000000000001 12.500000000000002 6.5000000000000009 207.50000000000003 1.5000000000000002
decision_type=2 2 2 2 2 2 2 2 2 2 2 2 10 2 2 2 2 2 2 2 2 2 2 2 2 2 2 2 2 2
left_child=1 7 3 5 -5 14 10 8 -1 -10 11 -3 24 20 28 16 -7 -13 19 -16 21 -8 -12 27 25 -11 -19 -14 -2 -24
right_child=2 6 -4 4 -6 15 13 -9 9 12 22 17 23 -15 18 -17 -18 26 -20 -21 -22 -23 29 -25 -26 -27 -28 -29 -30 -31
leaf_value=592933.45890624996 -10119.148700459798 -256416.45864809785 -367742.73699776788 1294039.6473214286 199570.34090909094 155044.02361778845 -149377.3736143868 -341652.36388221156 -315917.52358870971 -103339.88234353668 -498730.68842592597 -32267.086305414246 123504.39272151899 -268756.12102272728 658716.8828125 798211.15544181038 685889.86562500009 87760.880161830355 38395.220932904413 43154.062975543478 378559.63322482642 128705.76459153544 -157435.0100156421 561349.6869791667 210453.06151960787 264243.09345238097 422828.15000000002 422608.57508928573 -333321.68463541666 -310888.96595751954
leaf_weight=30 96 115 28 28 22 26 53 26 31 103 27 172 79 33 23 29 20 70 68 23 27 127 457 24 51 21 28 35 24 100
leaf_count=30 96 115 28 28 22 26 53 26 31 103 27 172 79 33 23 29 20 70 68 23 27 127 457 24 51 21 28 35 24 100
internal_value=0 -50346 209320 254327 812473 164012 -102380 106926 138110 98445.6 -137831 -44299.7 139485 40753.3 41806.6 545294 385847 46046.3 164508 350935 90095.4 46825.7 -199490 275511 32218.3 -41087.9 183494 215335 -74759.7 -184985
internal_weight=0 1609 387 359 50 309 1209 400 374 344 969 385 313 240 234 75 46 270 114 46 207 180 584 138 175 124 98 114 120 557
internal_count=1996 1609 387 359 50 309 1209 400 374 344 969 385 313 240 234 75 46 270 114 46 207 180 584 138 175 124 98 114 120 557
is_linear=0
shrinkage=0.1


Tree=20
num_leaves=31
num_cat=0
split_feature=6 5 9 9 11 3 3 3 11 9 3 0 9 0 3 3 9 12 3 12 3 9 12 6 9 9 3 3 3 0
split_gain=1.73118e+15 1.86566e+15 1.438e+15 1.27043e+15 6.94442e+14 6.82492e+14 7.2242e+14 6.98691e+14 7.77328e+14 5.68874e+14 8.17932e+14 4.73308e+14 4.20219e+14 4.01225e+14 3.59257e+14 6.83108e+14 3.18053e+14 3.08166e+14 2.07977e+14 1.92863e+14 3.00089e+14 1.55948e+14 1.4961e+14 1.23612e+14 9.3373e+13 7.98096e+13 6.8684e+13 6.46e+13 1.05524e+14 6.85843e+13
threshold=1.0000000180025095e-35 34.000000000000007 109.50000000000001 184.50000000000003 25.500000000000004 275.50000000000006 129.50000000000003 119.50000000000001 6.5000000000000009 117.50000000000001 304.00000000000006 3.5000000000000004 141.50000000000003 1.5000000000000002 169.50000000000003 62.500000000000007 159.50000000000003 10.500000000000002 223.50000000000003 12.500000000000002 284.50000000000006 59.500000000000007 9.5000000000000018 5.5000000000000009 65.500000000000014 110.50000000000001 290.50000000000006 182.50000000000003 271.50000000000006 5.5000000000000009
decision_type=2 10 2 2 2 2 2 2 2 2 2 2 2 2 2 2 2 2 2 2 2 2 2 2 2 2 2 2 2 2
left_child=17 2 4 9 5 6 7 8 -2 14 11 12 -11 -9 15 -4 -13 22 -19 20 -7 23 -1 -8 -20 26 -16 -24 29 -29
right_child=1 -3 3 -5 -6 19 21 13 -10 10 -12 16 -14 -15 25 -17 -18 18 24 -21 -22 -23 27 -25 -26 -27 -28 28 -30 -31
leaf_value=-61165.928947368418 501637.69943181821 896543.49302884622 54124.851996527781 -436974.82857142854 440765.49326171877 -99878.365462239599 -251753.86927222597 -125450.39375 -113443.77639796022 814846.09900000005 832725.34204963234 -112765.75957031251 250783.8828683036 236909.89170610477 1601.5338286132812 734562.70862499997 290969.33943750005 -143682.26829345705 -18123.715119237077 377387.03468749998 311336.88539062504 -66759.350736959008 -353918.09408010566 -105114.04563253012 223152.09183593752 -45678.569742571723 229644.51718750002 -104353.91724877451 -405545.10555555555 -283195.23492398649
leaf_weight=38 22 26 36 28 32 36 187 38 311 25 34 32 28 156 25 25 50 220 81 40 35 113 71 83 20 61 28 51 27 37
leaf_count=38 22 26 36 28 32 36 187 38 311 25 34 32 28 156 25 25 50 220 81 40 35 113 71 83 20 61 28 51 27 37
internal_value=0 57076.2 41759.6 210771 -17948 -32324.9 -60879.6 15077.5 -72807.8 263494 394353 283949 516851 165932 137121 332993 133414 -151959 -89143.5 201772 102833 -165395 -241975 -206676 29653.7 32313.1 122077 -278915 -232609 -179549
internal_weight=0 1451 1425 372 1053 1021 910 527 333 344 169 135 53 194 175 61 82 545 321 111 71 383 224 270 101 114 53 186 115 88
internal_count=1996 1451 1425 372 1053 1021 910 527 333 344 169 135 53 194 175 61 82 545 321 111 71 383 224 270 101 114 53 186 115 88
is_linear=0
shrinkage=0.1


Tree=21
num_leaves=31
num_cat=0
split_feature=11 8 11 11 3 3 12 9 11 9 12 12 0 0 9 5 0 0 9 9 9 12 12 3 10 6 3 11 9 8
split_gain=1.44957e+15 8.93933e+14 8.21875e+14 1.36637e+15 1.19959e+15 1.03151e+15 5.13181e+14 5.38976e+14 4.71931e+14 6.0282e+14 4.57542e+14 4.35617e+14 3.89116e+14 5.39071e+14 7.29554e+14 4.49407e+14 3.8655e+14 3.74559e+14 2.86172e+14 2.76052e+14 2.55756e+14 2.53341e+14 3.36379e+14 2.52857e+14 2.44332e+14 2.19084e+14 2.12106e+14 2.22412e+14 1.69458e+14 2.05146e+14
threshold=20.500000000000004 1.5000000000000002 41.000000000000007 25.500000000000004 209.50000000000003 287.50000000000006 9.5000000000000018 89.000000000000014 16.500000000000004 102.50000000000001 12.500000000000002 11.500000000000002 4.5000000000000009 1.5000000000000002 45.500000000000007 28.000000000000004 1.5000000000000002 5.5000000000000009 50.500000000000007 75.500000000000014 75.500000000000014 12.500000000000002 17.500000000000004 124.50000000000001 2.5000000000000004 6.5000000000000009 126.50000000000001 12.500000000000002 62.500000000000007 4.0000000000000009
decision_type=2 2 2 2 2 2 2 2 2 2 2 2 2 2 2 10 2 2 2 2 2 2 2 2 2 2 2 2 2 2
left_child=1 8 3 5 -5 28 7 -3 12 -10 -7 24 13 18 -15 -14 19 20 -1 -13 23 -19 -23 -18 25 -8 27 -17 -2 -30
right_child=2 6 -4 4 -6 10 11 -9 9 -11 -12 16 15 14 -16 26 17 21 -20 -21 -22 22 -24 -25 -26 -27 -28 -29 29 -31
leaf_value=-128317.4715625 -53524.71679974725 -23698.497684151789 -348049.38261718751 1133625.1830357143 146866.24019886364 765104.89926757815 -257589.625836855 407951.55663060897 -326321.64261944115 91354.362797235299 216693.5926724138 -299900.40640811011 -222593.78797637197 989218.49694940494 258142.89474158656 414726.66484375001 252850.70086328126 -246486.20549969739 295426.45556066179 16632.287385670734 428423.62410714285 82073.038143643469 -363354.4241071429 -9881.5362269046527 -93471.601281791125 14780.819318181819 -97451.664375000008 6303.6852441406254 252438.49828392768 12625.913719540551
leaf_weight=30 102 112 28 28 22 32 281 39 52 103 29 84 41 21 39 40 50 71 34 41 21 88 21 137 231 33 20 20 62 84
leaf_count=30 102 112 28 28 22 32 281 39 52 103 29 84 41 21 39 40 50 71 34 41 21 88 21 137 231 33 20 20 62 84
internal_value=0 -41794.2 173765 214463 699451 135986 -84668 87787.3 87791.7 -48769.2 504385 -109281 174187 298679 514019 46609.6 -43143.4 6126.61 96796.5 -196078 97527.2 -99491.9 -3743.26 60367.7 -171536 -228965 184576 278586 45371.9 114464
internal_weight=0 1609 387 359 50 309 1209 151 400 155 61 1058 245 124 60 121 513 388 64 125 208 180 109 187 545 314 80 60 248 146
internal_count=1996 1609 387 359 50 309 1209 151 400 155 61 1058 245 124 60 121 513 388 64 125 208 180 109 187 545 314 80 60 248 146
is_linear=0
shrinkage=0.1


Tree=22
num_leaves=31
num_cat=0
split_feature=6 5 9 9 3 3 3 11 9 3 0 12 11 0 0 3 3 9 12 3 9 3 3 3 3 3 12 8 0 0
split_gain=1.19354e+15 1.45559e+15 9.51911e+14 1.00622e+15 5.16976e+14 6.20916e+14 6.20573e+14 5.30601e+14 4.35757e+14 6.43745e+14 3.84346e+14 3.64657e+14 3.44909e+14 2.9342e+14 3.90506e+14 2.91018e+14 4.99151e+14 2.72282e+14 2.37615e+14 2.12267e+14 5.54381e+14 3.61763e+14 1.74681e+14 8.93353e+13 1.33584e+14 1.29667e+14 8.82538e+13 8.38872e+13 1.45381e+14 2.33453e+14
threshold=1.0000000180025095e-35 34.000000000000007 109.50000000000001 184.50000000000003 280.50000000000006 128.50000000000003 119.50000000000001 6.5000000000000009 117.50000000000001 304.00000000000006 3.5000000000000004 13.500000000000002 17.500000000000004 1.5000000000000002 5.5000000000000009 169.50000000000003 62.500000000000007 159.50000000000003 10.500000000000002 281.50000000000006 62.500000000000007 285.50000000000006 232.50000000000003 222.50000000000003 239.50000000000003 217.50000000000003 6.5000000000000009 4.0000000000000009 2.5000000000000004 5.5000000000000009
decision_type=2 10 2 2 2 2 2 2 2 2 2 2 2 2 2 2 2 2 2 2 2 2 2 2 2 2 2 2 2 2
left_child=18 2 4 8 5 6 7 -2 15 10 12 -9 -10 -8 -15 16 -4 -12 26 -6 -21 -22 -20 25 -25 -7 -1 -28 -29 -30
right_child=1 -3 3 -5 19 23 13 11 9 -11 17 -13 -14 14 -16 -17 -18 -19 22 20 21 -23 -24 24 -26 -27 27 28 29 -31
leaf_value=-19662.021195652174 425088.80000000005 788884.93149038462 45601.55460069445 -405095.83750000002 429519.49866071431 -138896.73235442897 -76955.827911698187 -128971.84246706891 164335.26875000002 721726.71953125007 -128551.68984375001 165201.49552343751 676825.49536637939 392345.24392528046 79795.22445217226 13360.518304550438 627248.5295859375 245004.61540625003 -118130.14314061216 -204551.66851325758 34440.981889204551 590447.03500000003 44487.078108198926 180886.21906250002 -107013.62891566264 -372426.82968750002 -334406.62166863214 -293842.50512907607 136836.72220982143 -222539.61106387866
leaf_weight=23 22 26 36 28 28 278 38 268 24 34 32 50 29 78 82 114 25 50 228 33 22 25 93 20 83 26 53 69 28 51
leaf_count=23 22 26 36 28 28 278 38 268 24 34 32 50 29 78 82 114 25 50 228 33 22 25 93 20 83 26 53 69 28 51
internal_value=0 47391.7 33862.7 171372 -14716.2 -38403.6 32099.2 -49860.1 218294 332824 234878 -82718.2 444754 172837 232163 107691 283981 99226.5 -126175 192548 109608 330189 -71016.7 -131599 -51110.7 -158870 -205219 -226452 -187792 -95165.7
internal_weight=0 1451 1425 372 1053 945 538 340 344 169 135 318 53 198 160 175 61 82 545 108 80 47 321 407 103 304 224 201 148 79
internal_count=1996 1451 1425 372 1053 945 538 340 344 169 135 318 53 198 160 175 61 82 545 108 80 47 321 407 103 304 224 201 148 79
is_linear=0
shrinkage=0.1


Tree=23
num_leaves=31
num_cat=0
split_feature=11 11 11 3 3 8 12 0 9 3 11 9 12 3 3 11 0 0 9 12 12 9 10 3 6 9 9 10 0 12
split_gain=9.94904e+14 6.5764e+14 1.06021e+15 9.75171e+14 7.43691e+14 6.32946e+14 4.06439e+14 3.92515e+14 3.88827e+14 3.73173e+14 4.80003e+14 3.63553e+14 2.96251e+14 2.90227e+14 3.73556e+14 3.19048e+14 2.86598e+14 3.07244e+14 2.20194e+14 2.04025e+14 2.73674e+14 2.0271e+14 1.78316e+14 1.72226e+14 1.60149e+14 1.38914e+14 1.47703e+14 1.19772e+14 1.6898e+14 1.2249e+14
threshold=20.500000000000004 41.000000000000007 25.500000000000004 209.50000000000003 287.50000000000006 1.5000000000000002 9.5000000000000018 5.5000000000000009 89.000000000000014 313.50000000000006 8.5000000000000018 28.000000000000004 11.500000000000002 99.500000000000014 109.50000000000001 16.500000000000004 1.5000000000000002 5.5000000000000009 75.500000000000014 12.500000000000002 17.500000000000004 75.500000000000014 2.5000000000000004 124.50000000000001 6.5000000000000009 133.50000000000003 81.500000000000014 2.5000000000000004 5.5000000000000009 12.500000000000002
decision_type=2 2 2 2 2 2 2 2 2 2 2 2 2 2 2 2 2 2 2 2 2 2 2 2 2 2 2 2 2 2
left_child=5 2 4 -4 27 9 8 -6 -7 10 -1 -12 22 -13 -15 -16 18 21 -14 -19 -21 23 24 -18 -8 26 -24 -2 29 -29
right_child=1 -3 3 -5 7 6 12 -9 -10 -11 11 13 16 14 15 -17 17 19 -20 20 -22 -23 25 -25 -26 -27 -28 28 -30 -31
leaf_value=431911.97227564105 -35763.354631923277 -322817.30758928577 999034.21941964293 109351.92755681819 728442.61125000007 -11917.628571428571 -217479.52354384452 212654.26493055557 354710.25208333338 -291915.66562500002 -264996.42298387102 401261.19553571427 -262475.5126953125 -263684.94233870966 207765.46244429977 -21663.279076704548 212915.23540624999 -223211.06783945864 20224.621141387197 72033.482985617899 -329737.88273809524 381730.67544642859 -192581.918136464 -3917.5083656478109 15392.119223484849 -228671.14353027346 14518.390682025549 -30380.086361607144 305694.01295362902 231413.66386718751
leaf_weight=39 123 28 28 22 25 112 281 36 39 26 31 28 84 31 135 110 50 71 41 88 21 21 46 137 33 48 137 70 31 24
leaf_count=39 123 28 28 22 25 112 281 36 39 26 31 28 84 31 135 110 50 71 41 88 21 21 46 137 33 48 137 70 31 24
internal_value=0 143957 180363 607574 111235 -34624.8 -70701.2 424043 82774.3 74415.8 99882.7 61228.6 -92605.5 94494.9 63373.7 104757 -38064.1 4360.5 -169750 -91297.4 -5372.01 87141.4 -143945 54059.2 -193006 -77255.3 -37539.6 34294.1 103231 36460.9
internal_weight=0 387 359 50 309 1609 1209 61 151 400 374 335 1058 304 276 245 513 388 125 180 109 208 545 187 314 231 183 248 125 94
internal_count=1996 387 359 50 309 1609 1209 61 151 400 374 335 1058 304 276 245 513 388 125 180 109 208 545 187 314 231 183 248 125 94
is_linear=0
shrinkage=0.1


Tree=24
num_leaves=31
num_cat=0
split_feature=1 11 11 11 3 12 11 8 3 9 9 10 6 0 12 0 0 3 3 3 9 3 9 0 9 3 3 9 3 3
split_gain=8.18544e+14 9.3258e+14 6.06905e+14 1.36166e+15 6.82788e+14 4.98621e+14 6.17714e+14 7.03033e+14 4.25386e+14 2.3887e+14 2.37613e+14 8.53384e+14 2.89823e+14 2.23606e+14 2.40239e+14 8.57767e+14 8.29542e+14 7.46966e+14 1.3841e+15 2.12477e+14 4.44006e+14 2.09261e+14 1.80888e+14 1.78151e+14 1.37038e+14 3.80896e+14 1.30662e+14 1.44509e+14 1.27351e+14 1.40996e+14
threshold=1.0000000180025095e-35 20.500000000000004 41.000000000000007 25.500000000000004 292.50000000000006 9.5000000000000018 7.5000000000000009 1.5000000000000002 223.50000000000003 110.50000000000001 28.000000000000004 1.5000000000000002 7.5000000000000009 6.5000000000000009 1.5000000000000002 1.5000000000000002 1.5000000000000002 120.50000000000001 129.50000000000003 314.50000000000006 117.50000000000001 338.50000000000006 55.500000000000007 6.5000000000000009 159.50000000000003 136.50000000000003 151.50000000000003 62.500000000000007 245.50000000000003 261.50000000000006
decision_type=2 2 2 2 2 2 2 2 2 2 2 2 2 2 2 2 2 2 2 2 2 2 2 2 2 2 2 2 2 2
left_child=1 5 3 4 24 13 7 -7 10 -5 -8 -12 -13 14 16 -16 -1 -17 -19 20 23 -21 -18 -10 26 -26 27 -3 -2 -30
right_child=28 2 -4 9 -6 6 8 -9 19 -11 11 12 -14 -15 15 17 22 18 -20 21 -22 -23 -24 -25 25 -27 -28 -29 29 -31
leaf_value=401305.91156250006 -383857.9214988426 8641.7010374207439 -290535.57829241076 931662.6669836957 537744.31222426472 723821.9770833333 -281696.35002332088 38273.931670673075 53131.638602487663 470757.48181818187 543394.08571428573 -91249.621120228607 -430897.265625 -220567.0880078125 -55294.105809294881 -26540.748333333337 -469187.30951086956 1145901.6097355771 217519.49631696427 -398240.22752976191 468291.95600000001 48185.806250000001 -90704.219670758932 -238879.47479619566 -60021.385653409096 542956.52812500007 -52239.975037924763 233219.03982780615 33153.221651785716 -321655.7494791667
leaf_weight=30 54 69 28 23 34 21 67 52 228 22 21 745 26 20 78 30 23 26 42 21 25 21 28 23 22 20 103 49 21 24
leaf_count=30 54 69 28 23 34 21 67 52 228 22 21 745 26 20 78 30 23 26 42 21 25 21 28 23 22 20 103 49 21 24
internal_value=0 14629.3 157068 193714 116045 -19884.3 -46784.2 235486 -64291.2 706331 -100869 -85572 -102703 101505 126569 192160 -15948.8 389113 572489 34515.5 66402.5 -175027 -261393 26373.6 61528.3 227111 30060.1 101898 -280322 -156078
internal_weight=0 1897 370 342 297 1527 1250 73 1177 45 859 792 771 277 257 176 81 98 68 318 276 42 51 251 263 42 221 118 99 45
internal_count=1996 1897 370 342 297 1527 1250 73 1177 45 859 792 771 277 257 176 81 98 68 318 276 42 51 251 263 42 221 118 99 45
is_linear=0
shrinkage=0.1


Tree=25
num_leaves=31
num_cat=0
split_feature=5 1 11 11 3 9 3 9 8 3 11 12 6 3 9 9 9 9 9 3 3 3 12 3 12 9 0 3 3 0
split_gain=6.9212e+14 6.64764e+14 7.83824e+14 1.02642e+15 7.22728e+14 9.33879e+14 1.62453e+15 3.63653e+14 3.94455e+14 3.23274e+14 3.96679e+14 2.46237e+14 2.38326e+14 2.3508e+14 1.89329e+14 1.80477e+14 1.69576e+14 1.66917e+14 2.12163e+14 3.21528e+14 1.5082e+14 1.32368e+14 7.202e+13 7.10413e+13 5.33539e+13 4.41271e+13 1.16166e+14 3.98806e+13 5.98913e+13 3.62838e+13
threshold=10.000000000000002 1.0000000180025095e-35 25.500000000000004 36.500000000000007 284.50000000000006 124.50000000000001 312.50000000000006 9.5000000000000018 4.0000000000000009 162.00000000000003 6.5000000000000009 7.5000000000000009 1.5000000000000002 265.50000000000006 113.50000000000001 121.50000000000001 97.500000000000014 110.50000000000001 72.500000000000014 300.00000000000006 245.50000000000003 151.50000000000003 10.500000000000002 261.50000000000006 10.500000000000002 81.500000000000014 1.5000000000000002 137.50000000000003 19.500000000000004 2.5000000000000004
decision_type=10 2 2 2 2 2 2 2 2 2 2 2 2 2 2 2 2 2 2 2 2 2 2 2 2 2 2 2 2 2
left_child=12 2 4 14 7 17 -7 -2 9 10 -9 16 21 -11 -4 -13 -10 18 -6 -20 -3 27 -19 -22 29 26 -26 28 -1 -23
right_child=1 20 3 -5 5 6 -8 8 11 13 -12 15 -14 -15 -16 -17 -18 22 19 -21 23 24 -24 -25 25 -27 -28 -29 -30 -31
leaf_value=-240714.07386363638 -376592.15250000003 -359588.93834635417 914953.38984375005 -92025.36509486608 -54620.986689814825 1251588.0029761905 7735.2455357142862 528766.90337500011 39476.165448521206 -136896.99493075284 111928.23348365467 -35560.314591960065 -405630.98750000005 129689.71951650945 479833.65375 -241623.86250000002 334486.7569444445 42933.628125000003 42231.075841346159 539553.06538461545 29837.892113095237 -211361.5527901786 -209474.70937500001 -227301.51988636365 -234752.44273097828 115619.25614346593 29573.006080729167 -248528.48830645165 -7376.1374289772721 -62156.899238782054
leaf_weight=22 25 48 20 28 27 21 21 25 70 88 263 766 30 53 20 45 27 26 26 26 21 28 20 22 23 22 60 62 22 39
leaf_count=22 25 48 20 28 27 21 21 25 70 88 263 766 30 53 20 45 27 26 26 26 21 28 20 22 23 22 60 62 22 39
internal_value=0 25153.6 40133.7 372339 25359.4 221702 629662 1285.1 8350.87 87372.8 148112 -28984.4 -137855 -36690.6 697394 -46994.2 121593 84627.2 172805 290892 -237740 -108958 -66809.1 -101722 -54788.1 -10298.1 -43673.8 -196856 -124045 -124511
internal_weight=0 1688 1597 68 1529 167 42 1362 1337 429 288 908 308 141 40 811 97 125 79 52 91 278 46 43 172 105 83 106 44 67
internal_count=1996 1688 1597 68 1529 167 42 1362 1337 429 288 908 308 141 40 811 97 125 79 52 91 278 46 43 172 105 83 106 44 67
is_linear=0
shrinkage=0.1


Tree=26
num_leaves=31
num_cat=0
split_feature=5 9 9 9 3 9 9 11 1 3 8 12 11 6 9 3 11 12 3 3 8 0 9 6 11 0 3 3 12 3
split_gain=6.31503e+14 6.75505e+14 5.90065e+14 5.73924e+14 4.94627e+14 8.43747e+14 7.05816e+14 3.96596e+14 3.45645e+14 3.4526e+14 2.84525e+14 2.40172e+14 2.08825e+14 2.39137e+14 2.00106e+14 2.32909e+14 3.2507e+14 2.0108e+14 1.53711e+14 2.31024e+14 1.52441e+14 1.85563e+14 1.28501e+14 1.11357e+14 9.24846e+13 8.13128e+13 5.70864e+13 5.49754e+13 5.07786e+13 4.60205e+13
threshold=34.000000000000007 59.500000000000007 51.500000000000007 184.50000000000003 287.50000000000006 124.50000000000001 109.50000000000001 13.500000000000002 1.0000000180025095e-35 257.50000000000006 4.0000000000000009 13.500000000000002 21.500000000000004 5.5000000000000009 50.500000000000007 119.50000000000001 6.5000000000000009 13.500000000000002 36.500000000000007 151.50000000000003 4.0000000000000009 3.5000000000000004 50.500000000000007 1.0000000180025095e-35 21.500000000000004 4.5000000000000009 215.00000000000003 147.50000000000003 12.500000000000002 307.50000000000006
decision_type=10 2 2 2 2 2 2 2 2 2 2 2 2 2 2 2 2 2 2 2 2 2 2 2 2 2 2 2 2 2
left_child=1 2 7 4 8 6 -6 9 11 14 -11 18 22 25 15 16 -1 -17 -3 -20 -16 -22 -9 -12 -8 28 27 -4 -14 -7
right_child=-2 3 26 -5 5 29 24 12 -10 10 23 -13 13 -15 20 17 -18 -19 19 -21 21 -23 -24 -25 -26 -27 -28 -29 -30 -31
leaf_value=342444.05476190476 440659.44375000003 -82350.242854420736 -312611.78487500001 -356737.93709677423 624057.57179687498 747855.02664062509 77349.851651785706 -252857.10095766131 -287044.21901041665 515615.92398097826 -43886.919866071432 300727.4922275641 -61111.473467548079 314800.53828125005 -243655.07848307292 189638.80836509148 -72957.484967341195 -99108.014791666676 175725.27463809744 20638.295581278671 -168879.22110849057 85956.619204810355 -99628.429649318612 225413.40537683826 -142750.85014880952 17430.643802966104 -299311.03088015295 -152515.24397635556 -265091.59721467394 533331.24093750003
leaf_weight=21 32 82 25 31 20 20 35 93 30 23 28 39 26 20 48 123 183 30 136 327 53 62 133 34 42 59 47 151 23 20
leaf_count=21 32 82 25 31 20 20 35 93 30 23 28 39 26 20 48 123 183 30 136 327 53 62 133 34 42 59 47 151 23 20
internal_value=0 -7179.79 -54882 64922.5 82327.9 254136 94771.8 -20811 43993 28380.3 215228 60998.3 -104881 -2824.89 -2162.1 39754.7 -30195.6 133022 43843.4 66193 -93967.7 -31489.5 -162683 103794 -42705.1 -61644.4 -201402 -175256 -156857 640593
internal_weight=0 1964 1182 782 751 137 97 959 614 605 85 584 354 128 520 357 204 153 545 463 163 115 226 62 77 108 223 176 49 40
internal_count=1996 1964 1182 782 751 137 97 959 614 605 85 584 354 128 520 357 204 153 545 463 163 115 226 62 77 108 223 176 49 40
is_linear=0
shrinkage=0.1


Tree=27
num_leaves=31
num_cat=0
split_feature=5 9 9 9 1 3 9 9 0 12 11 3 12 3 11 12 12 0 12 0 9 3 9 8 3 0 0 3 5 12
split_gain=5.11517e+14 5.47159e+14 4.77952e+14 4.68951e+14 4.39765e+14 4.74886e+14 1.5493e+15 5.71711e+14 3.60252e+14 3.037e+14 3.05677e+14 2.63901e+14 3.08198e+14 2.93827e+14 1.9791e+14 1.92331e+14 1.39142e+14 1.36588e+14 1.35622e+14 3.99533e+14 1.27666e+14 1.04089e+14 7.59387e+13 4.80922e+13 4.60068e+13 3.4447e+13 3.71637e+13 3.44247e+13 2.17074e+13 1.46495e+13
threshold=34.000000000000007 59.500000000000007 51.500000000000007 181.50000000000003 1.0000000180025095e-35 287.50000000000006 124.50000000000001 109.50000000000001 1.0000000180025095e-35 1.5000000000000002 13.500000000000002 222.50000000000003 12.500000000000002 213.50000000000003 21.500000000000004 13.500000000000002 9.5000000000000018 5.5000000000000009 3.5000000000000004 4.5000000000000009 46.500000000000007 9.5000000000000018 110.50000000000001 4.0000000000000009 201.50000000000003 1.5000000000000002 5.5000000000000009 204.50000000000003 28.000000000000004 11.500000000000002
decision_type=10 2 2 2 2 2 2 2 2 2 2 2 2 2 2 2 2 2 2 2 2 2 2 2 2 2 2 2 10 2
left_child=1 2 8 4 5 15 7 -7 16 -10 11 13 -13 -11 17 18 -1 -12 19 -3 -16 -20 -9 24 -4 29 27 -27 -6 -25
right_child=-2 3 23 -5 28 6 -8 22 9 10 14 12 -14 -15 20 -17 -18 -19 21 -21 -22 -23 -24 25 -26 26 -28 -29 -30 -31
leaf_value=-40614.208750000005 396593.49687500001 399640.673828125 -191900.74507575759 -299325.53035714285 -304682.04550337361 561651.81359375 941760.88362268533 92938.200223214284 -315713.95979166671 36827.209365402341 -82034.765089184089 86982.718821231625 451085.10617675784 -330555.56841032609 125616.0621685606 270654.74273337342 -363656.28400512697 -271316.52596507355 -180871.49179687502 -94483.734332682303 -81712.359324363424 32853.536800166294 -113504.721875 -142382.67963867189 -384111.20144531253 -135114.99266304349 -174255.67173713236 39855.932457386371 -162541.8931547619 -237429.13593750002
leaf_weight=20 32 36 33 35 22 20 27 28 30 407 151 85 32 23 66 39 40 51 24 30 54 451 49 24 20 23 51 22 21 50
leaf_count=20 32 36 33 35 22 20 27 28 30 407 151 85 32 23 66 39 40 51 24 30 54 451 49 24 20 23 51 22 21 50
internal_value=0 -6461.81 -49393.8 58430.3 75192.6 94155.2 271783 85294.6 -18729.9 -2895.96 7903.28 53408 186566 17176.5 -69398.1 56179.5 -255976 -129824 40718.3 175039 32318.3 22054.8 -38434.6 -181262 -264433 -155332 -115811 -49573.7 -235265 -206603
internal_weight=0 1964 1182 782 747 704 124 97 959 899 869 547 117 430 322 580 60 202 541 66 120 475 77 223 53 170 96 45 43 74
internal_count=1996 1964 1182 782 747 704 124 97 959 899 869 547 117 430 322 580 60 202 541 66 120 475 77 223 53 170 96 45 43 74
is_linear=0
shrinkage=0.1


Tree=28
num_leaves=31
num_cat=0
split_feature=1 0 9 9 0 11 8 9 9 3 9 8 9 3 3 3 9 11 3 3 5 3 6 11 3 9 3 9 11 3
split_gain=4.32706e+14 5.29463e+14 5.1774e+14 4.52287e+14 4.05348e+14 3.73457e+14 5.32048e+14 3.23067e+14 2.85463e+14 4.1026e+14 1.03944e+15 4.17834e+14 2.82135e+14 3.10949e+14 2.71861e+14 1.77719e+14 4.32742e+14 2.65868e+14 1.68852e+14 3.22747e+14 1.3213e+14 1.13518e+14 9.33672e+13 6.72969e+13 6.21349e+13 5.35617e+13 3.46825e+13 3.20729e+13 4.05501e+13 2.54904e+13
threshold=1.0000000180025095e-35 7.5000000000000009 109.50000000000001 180.50000000000003 6.5000000000000009 6.5000000000000009 1.5000000000000002 62.500000000000007 117.50000000000001 258.50000000000006 124.50000000000001 4.0000000000000009 51.500000000000007 119.50000000000001 137.50000000000003 280.50000000000006 99.500000000000014 16.500000000000004 209.50000000000003 120.50000000000001 28.000000000000004 134.50000000000003 1.0000000180025095e-35 16.500000000000004 245.50000000000003 110.50000000000001 147.50000000000003 110.50000000000001 21.500000000000004 133.50000000000003
decision_type=2 2 2 2 2 2 2 2 2 2 2 2 2 2 2 2 2 2 2 2 10 2 2 2 2 2 2 2 2 2
left_child=1 2 4 8 5 6 -1 12 18 11 -11 21 13 -7 -6 17 -17 -9 19 25 -5 -10 -16 -2 -25 -4 -14 28 -20 -8
right_child=23 -3 3 20 14 7 29 15 9 10 -12 -13 26 -15 22 16 -18 -19 27 -21 -22 -23 -24 24 -26 -27 -28 -29 -30 -31
leaf_value=647295.34484375 -105750.89100609758 477346.8949869792 -94806.088778409103 -339112.8516826923 -533482.34660326084 -110207.06445741758 120844.72355769231 308243.3263356855 164796.25126488096 85480.358067103793 841991.21484375 -154053.47129407054 -264827.43096874998 20908.731475237946 -242995.43669270832 545872.35442708328 -48607.113746093753 -4741.4697453770068 133128.95553668481 464285.85812500003 2770.7200000000003 445201.92670454545 18670.913500000002 -405534.80010653409 -192220.90329861111 121211.48655598958 -139172.58853941862 -75663.114662388398 -40946.882910156251 -13418.930443548388
leaf_weight=20 41 24 22 26 23 273 26 31 42 42 32 39 25 536 30 24 25 218 23 25 20 22 25 22 36 24 181 56 32 31
leaf_count=20 41 24 22 26 23 273 26 31 42 42 32 39 25 536 30 24 25 218 23 25 20 22 25 22 36 24 181 56 32 31
internal_value=0 10636.5 4656.26 104754 -22959.1 -10511.4 203531 -23063.8 142581 233004 412620 103959 -49941.3 -23336.8 -244784 68482.1 242567 34224.5 54643 175077 -190468 261186 -124056 -203813 -273133 17898.7 -154422 -22391.6 31848.5 47824.1
internal_weight=0 1897 1873 405 1468 1390 77 1313 359 177 74 103 1015 809 78 298 49 249 182 71 46 64 55 99 58 46 206 111 55 57
internal_count=1996 1897 1873 405 1468 1390 77 1313 359 177 74 103 1015 809 78 298 49 249 182 71 46 64 55 99 58 46 206 111 55 57
is_linear=0
shrinkage=0.1


Tree=29
num_leaves=31
num_cat=0
split_feature=5 9 9 9 12 9 0 9 9 9 9 3 3 11 11 0 11 9 3 11 5 11 12 12 9 0 6 0 3 0
split_gain=3.98555e+14 3.66292e+14 3.31533e+14 3.19669e+14 3.00092e+14 4.17551e+14 2.8645e+14 2.71773e+14 4.19187e+14 3.62829e+14 2.62639e+14 2.56428e+14 4.5174e+14 2.46642e+14 2.38336e+14 2.27632e+14 2.15418e+14 2.13211e+14 2.73325e+14 1.53551e+14 1.48154e+14 2.48163e+14 1.128e+14 1.087e+14 8.69002e+13 6.19095e+13 4.58059e+13 3.93601e+13 3.27781e+13 4.21418e+13
threshold=34.000000000000007 59.500000000000007 184.50000000000003 51.500000000000007 11.500000000000002 124.50000000000001 1.0000000180025095e-35 168.50000000000003 133.50000000000003 117.50000000000001 9.5000000000000018 167.50000000000003 62.500000000000007 13.500000000000002 9.5000000000000018 5.5000000000000009 7.5000000000000009 99.500000000000014 279.50000000000006 17.500000000000004 28.000000000000004 25.500000000000004 9.5000000000000018 7.5000000000000009 150.50000000000003 3.5000000000000004 1.5000000000000002 5.5000000000000009 148.50000000000003 3.5000000000000004
decision_type=10 2 2 2 2 2 2 2 2 2 2 2 2 2 2 2 2 2 2 2 8 2 2 2 2 2 2 2 2 2
left_child=1 3 4 6 7 11 22 8 9 23 -8 12 25 14 16 -16 -12 18 -13 -19 21 -15 -1 -3 -10 -6 28 -26 -5 -30
right_child=-2 2 -4 26 5 -7 10 -9 24 -11 13 17 -14 20 15 -17 -18 19 -20 -21 -22 -23 -24 -25 27 -27 -28 -29 29 -31
leaf_value=-33399.029687499999 350073.75078125001 101835.40127013408 -273088.24233870971 -222329.77862903225 -110409.84390625 443742.07516025641 -292537.38989583333 344418.51684782607 -377707.64285481774 325334.74287688429 77387.33932549505 8916.6351116071437 497452.91699482687 -67709.404689002418 184346.5352348373 16551.153389144409 -120429.98639430528 109693.13710937501 452684.68763586954 -127811.4795138889 -255132.21303571432 245618.71004464288 -324259.64650390623 -32571.173033311632 -229779.94118303573 135426.37932477679 -250291.66266891893 -57149.584281249998 -157625.56690615701 -52972.073195422534
leaf_weight=20 32 81 31 31 20 39 30 23 24 39 101 35 37 260 169 155 121 41 23 81 35 28 40 234 28 21 37 25 84 71
leaf_count=20 32 81 31 31 20 39 30 23 24 39 101 35 37 260 169 155 121 41 23 81 35 28 40 234 28 21 37 25 84 71
internal_value=0 -5703.85 47390.5 -40830.6 60619.3 138774 -15753 9491.48 -8381.66 37613.2 -1633.8 92674.5 244122 8408.9 49384.8 104074 -30432 27047.3 184894 -47994.4 -60856.8 -37246.9 -227306 1990.52 -219838 15506.3 -148675 -148351 -128461 -109688
internal_weight=0 1964 782 1182 751 297 959 454 431 354 899 258 78 869 546 324 222 180 58 122 323 288 60 315 77 41 223 53 186 155
internal_count=1996 1964 782 1182 751 297 959 454 431 354 899 258 78 869 546 324 222 180 58 122 323 288 60 315 77 41 223 53 186 155
is_linear=0
shrinkage=0.1


Tree=30
num_leaves=31
num_cat=0
split_feature=0 1 9 0 9 11 8 5 9 0 9 3 9 8 9 5 3 3 9 5 3 3 3 12 9 0 0 9 3 3
split_gain=3.42597e+14 3.19492e+14 3.54549e+14 3.44233e+14 3.36367e+14 2.73738e+14 4.26837e+14 2.5464e+14 2.17426e+14 2.0722e+14 1.99478e+14 3.32272e+14 8.12144e+14 2.75172e+14 1.91794e+14 1.49757e+14 1.20608e+14 2.5524e+14 1.15261e+14 1.02687e+14 9.99738e+13 7.83916e+13 8.97541e+13 6.36105e+13 5.11753e+13 2.68268e+13 6.20174e+13 2.34295e+13 1.99615e+13 1.69241e+13
threshold=7.5000000000000009 1.0000000180025095e-35 109.50000000000001 6.5000000000000009 180.50000000000003 6.5000000000000009 1.5000000000000002 28.000000000000004 62.500000000000007 1.0000000180025095e-35 117.50000000000001 258.50000000000006 124.50000000000001 4.0000000000000009 51.500000000000007 28.000000000000004 209.50000000000003 120.50000000000001 102.50000000000001 28.000000000000004 134.50000000000003 240.50000000000003 261.50000000000006 9.5000000000000018 110.50000000000001 2.5000000000000004 1.0000000180025095e-35 97.500000000000014 133.50000000000003 217.50000000000003
decision_type=2 2 2 2 2 2 2 10 2 2 2 2 2 2 2 10 2 2 2 10 2 2 2 2 2 2 2 2 2 2
left_child=1 2 3 5 10 6 -1 27 9 23 16 13 -13 20 -11 18 17 24 -10 -6 -12 29 -23 -7 -4 26 -18 -5 -8 -3
right_child=-2 21 4 7 19 8 28 -9 15 14 11 12 -14 -15 -16 -17 25 -19 -20 -21 -22 22 -24 -25 -26 -27 -28 -29 -30 -31
leaf_value=573341.41218750004 341204.68410560349 -338895.13750000001 -102214.62571022728 -166042.35312500002 -298803.01742788462 -30059.1253125 101021.52043269231 -511544.10113636369 65213.603144728535 -4160.9305705078132 116043.35007440476 67517.539899553565 736219.76904296875 -130475.70436698718 -119889.33349002473 234455.93570884145 -108383.27453125 404918.10287500004 -94025.252502648305 2590.8465625000003 379189.50625000003 24394.281018518523 -244428.70760869567 -232937.75475643386 108935.95726725261 -67013.273026315786 113538.21902573531 -35336.650260416667 -17792.066456653229 -214340.96757812501
leaf_weight=20 29 24 22 32 26 20 26 22 198 750 42 42 32 39 177 41 20 25 59 20 22 27 23 68 24 57 34 24 31 20
leaf_count=20 29 24 22 32 26 20 26 22 198 750 42 42 32 39 177 41 20 25 59 20 22 27 23 68 24 57 34 24 31 20
internal_value=0 -5030.47 3998.18 -18854.3 86831.4 -7383.26 175868 -223274 -18129.9 -40179.4 119453 195041 356686 78907.2 -26257.9 56971.5 45942.7 147728 28656.8 -167762 206500 -184931 -99264.3 -186829 7950.9 -19163.3 31345.1 -110026 36403.6 -282280
internal_weight=0 1967 1873 1468 405 1390 77 78 1313 1015 359 177 74 103 927 298 182 71 257 46 64 94 50 88 46 111 54 56 57 44
internal_count=1996 1967 1873 1468 405 1390 77 78 1313 1015 359 177 74 103 927 298 182 71 257 46 64 94 50 88 46 111 54 56 57 44
is_linear=0
shrinkage=0.1


Tree=31
num_leaves=24
num_cat=0
split_feature=5 11 11 11 3 3 12 12 9 3 0 11 3 3 12 3 9 11 10 9 0 3 12
split_gain=3.27746e+14 2.53156e+14 2.61345e+14 2.69709e+14 5.09355e+14 2.79359e+14 2.17576e+14 3.84268e+14 2.14205e+14 2.09962e+14 3.86588e+14 1.76275e+14 5.3032e+14 4.5177e+14 2.33354e+14 2.5031e+14 1.62351e+14 1.03563e+14 1.42304e+14 1.55922e+14 6.63341e+13 6.08268e+13 1.22411e+12
threshold=34.000000000000007 20.500000000000004 41.000000000000007 25.500000000000004 209.50000000000003 307.50000000000006 16.500000000000004 13.500000000000002 9.5000000000000018 147.50000000000003 5.5000000000000009 8.5000000000000018 248.50000000000003 120.50000000000001 9.5000000000000018 181.50000000000003 81.500000000000014 24.500000000000004 2.5000000000000004 159.50000000000003 5.5000000000000009 115.50000000000001 11.500000000000002
decision_type=10 2 2 2 2 2 2 2 2 2 2 2 2 2 2 2 2 2 2 2 2 2 2
left_child=1 6 3 5 -5 17 7 8 -1 10 -8 12 13 -10 15 -13 -16 18 20 -20 -3 -9 -19
right_child=-2 2 -4 4 -6 -7 9 21 11 -11 -12 14 -14 -15 16 -17 -18 22 19 -21 -22 -23 -24
leaf_value=-325772.044701087 317456.46718750003 81253.673789062508 -225761.63928571428 610497.3596153846 -51662.262946428578 352431.94789870689 218724.08849999998 153882.46063988094 384099.9375 -387355.6155745968 -349357.79524456523 159556.41500625003 543521.04009232961 -158473.76559758774 -72854.865565456639 -44871.699354088829 10431.807119227304 -105145.76531250001 74403.781175696335 370751.10767045454 -76140.463705632719 389279.07445652178 -140133.02812500001
leaf_weight=23 32 40 28 26 21 29 25 21 21 31 23 125 22 57 761 115 338 20 92 22 81 23 20
leaf_count=23 32 40 28 26 21 29 25 21 21 31 23 125 22 57 761 115 338 20 92 22 81 23 20
internal_value=0 -5172.41 68248.3 91702 314639 57234.8 -22728.5 -14242.7 -23005.8 -184496 -53481.8 -18166.6 109906 -12396.2 -27731.4 61601.3 -47239.9 26105 51423.2 131594 -24109.3 276931 -122639
internal_weight=0 1964 379 351 47 304 1585 1506 1462 79 48 1439 100 78 1339 240 1099 275 235 114 121 44 40
internal_count=1996 1964 379 351 47 304 1585 1506 1462 79 48 1439 100 78 1339 240 1099 275 235 114 121 44 40
is_linear=0
shrinkage=0.1


Tree=32
num_leaves=30
num_cat=0
split_feature=1 5 0 11 0 0 9 3 3 0 9 3 3 0 3 12 12 10 10 5 9 3 8 11 3 12 9 12 9
split_gain=2.73301e+14 3.24027e+14 2.86465e+14 3.22935e+14 2.64391e+14 3.49956e+14 8.27812e+14 2.05489e+14 4.59131e+14 1.92173e+14 1.84352e+14 1.84006e+14 1.92143e+14 2.86591e+14 1.82255e+14 2.00082e+14 1.23919e+14 1.23837e+14 6.18953e+13 1.62433e+14 6.2006e+13 7.66209e+13 6.07884e+13 5.48603e+13 4.3636e+13 2.90677e+13 2.4603e+13 1.76113e+13 3.06978e+13
threshold=1.0000000180025095e-35 34.000000000000007 1.0000000180025095e-35 20.500000000000004 2.5000000000000004 1.5000000000000002 70.500000000000014 313.50000000000006 277.50000000000006 5.5000000000000009 45.500000000000007 310.50000000000006 280.50000000000006 6.5000000000000009 304.00000000000006 12.500000000000002 13.500000000000002 2.5000000000000004 2.5000000000000004 28.000000000000004 110.50000000000001 250.50000000000003 2.5000000000000004 16.500000000000004 245.50000000000003 12.500000000000002 91.500000000000014 10.500000000000002 55.500000000000007
decision_type=2 10 2 2 2 2 2 2 2 2 2 2 2 2 2 2 2 2 2 10 2 2 2 2 2 2 2 2 2
left_child=1 2 18 7 5 22 -7 8 9 10 -4 12 13 -6 15 -10 -11 -9 27 20 21 26 -5 -2 -25 -14 -20 -1 -29
right_child=23 -3 3 4 11 6 -8 17 14 16 -12 -13 25 -15 -16 -17 -18 -19 19 -21 -22 -23 -24 24 -26 -27 -28 28 -30
leaf_value=-110749.2070678711 -73439.210680259144 334491.52374999999 119419.68835484603 203464.6653125 15236.537821365248 7697.641718750001 906642.91041666665 -396200.80750000005 58222.375645228793 -50740.129147292122 -11606.138131133783 333494.48363095243 -235459.75885416666 370863.42106481484 442746.21500000008 345288.7997983871 -230228.70334821427 -74956.596041666679 78446.191757812499 -306037.91313920455 146885.89761904764 -199967.03179347829 -24799.044712611609 -335521.15276988642 -156759.77100694444 -74359.480505952379 -55875.1049375 -275559.17417497304 -128763.48794642858
leaf_weight=32 41 30 138 20 141 20 21 20 112 457 484 21 24 27 20 31 42 30 30 22 21 23 28 22 36 21 25 29 28
leaf_count=32 41 30 138 20 141 20 21 20 112 457 484 21 24 27 20 31 42 30 30 22 21 23 28 22 36 21 25 29 28
internal_value=0 8453.25 3214.29 17159.1 106876 253577 468133 -4563.89 3181.06 -19621.1 17463.9 51078.9 23235.1 72390.9 159999 120454 -65847.4 -203454 -106817 -60255.9 -5637.67 -46701.7 70310.8 -161978 -224566 -160280 17391.1 -170119 -203449
internal_weight=0 1897 1867 1657 323 89 41 1334 1284 1121 622 234 213 168 163 143 499 50 210 121 99 78 48 99 58 45 55 89 57
internal_count=1996 1897 1867 1657 323 89 41 1334 1284 1121 622 234 213 168 163 143 499 50 210 121 99 78 48 99 58 45 55 89 57
is_linear=0
shrinkage=0.1


Tree=33
num_leaves=31
num_cat=0
split_feature=0 3 0 0 0 9 3 3 3 9 11 12 3 9 3 3 9 10 3 11 10 8 9 12 12 9 11 9 3 9
split_gain=2.53103e+14 2.11941e+14 2.29788e+14 3.38584e+14 4.38628e+14 5.30385e+14 7.64481e+14 8.89083e+14 3.09725e+14 2.48428e+14 2.88131e+14 2.16694e+14 1.38819e+14 1.69521e+14 1.76245e+14 2.02157e+14 1.26687e+14 1.21276e+14 8.05603e+13 6.24949e+13 4.52065e+13 1.38671e+14 3.64476e+13 2.76017e+13 2.09641e+13 3.42555e+13 1.87029e+13 1.49046e+13 2.14741e+13 8.21647e+12
threshold=7.5000000000000009 40.500000000000007 1.0000000180025095e-35 5.5000000000000009 4.5000000000000009 66.500000000000014 151.50000000000003 120.50000000000001 232.50000000000003 45.500000000000007 16.500000000000004 17.500000000000004 305.50000000000006 159.50000000000003 282.50000000000006 277.50000000000006 119.50000000000001 2.5000000000000004 7.5000000000000009 21.500000000000004 2.5000000000000004 4.0000000000000009 110.50000000000001 10.500000000000002 10.500000000000002 55.500000000000007 12.500000000000002 102.50000000000001 17.500000000000004 95.500000000000014
decision_type=2 2 2 2 2 2 2 2 2 2 2 2 2 2 2 2 2 2 2 2 2 2 2 2 2 2 2 2 2 2
left_child=1 18 20 4 5 9 7 -7 -8 10 -4 -11 13 14 15 -5 -14 -15 -1 26 24 22 -22 -23 -3 -26 -20 28 -28 -25
right_child=-2 2 3 12 -6 6 8 -9 -10 11 -12 -13 16 17 -16 -17 -18 -19 19 -21 21 23 -24 29 25 -27 27 -29 -30 -31
leaf_value=-279803.26835937501 293272.68609913794 -86096.176077586206 230168.46373275167 -60240.387104400928 417121.25757575757 197305.63121189026 -116601.43139880952 997444.43839285709 146352.97074905888 -24056.972228014147 -139662.60691675646 -321082.64615384617 -10530.688942307694 -24987.61474609375 -258402.38799293153 206526.24065104168 324236.52625000005 252537.43713457664 -56548.2858203125 55290.238078703711 -291595.5178571429 126374.37237215909 -102969.49984375 31367.836399147731 -276934.78412500001 -115887.14017857144 -98974.315472146744 -83464.90697916667 -227405.67233072917 -56081.387686011905
leaf_weight=24 29 29 77 535 33 41 63 21 155 444 29 26 26 32 42 30 20 31 40 27 21 22 20 22 25 28 23 30 30 21
leaf_count=24 29 29 77 535 33 41 63 21 155 444 29 26 26 32 42 30 20 31 40 27 21 22 20 22 25 28 23 30 30 21
internal_value=0 -4323.8 5901.84 18154.1 59373.5 45581.8 158481 468320 70361.6 -9299.81 128988 -40488.2 -33024.8 -44562.2 -60767.2 -46075.8 135020 111572 -109695 -82477.5 -98698.3 -55568.6 -199583 35271.1 -154451 -191853 -112719 -139789 -171671 -11339.9
internal_weight=0 1967 1793 1605 889 856 280 62 218 576 106 470 716 670 607 565 46 63 174 150 188 106 41 65 82 53 123 83 53 43
internal_count=1996 1967 1793 1605 889 856 280 62 218 576 106 470 716 670 607 565 46 63 174 150 188 106 41 65 82 53 123 83 53 43
is_linear=0
shrinkage=0.1


Tree=34
num_leaves=30
num_cat=0
split_feature=1 0 0 0 0 9 12 3 12 3 3 12 11 9 11 8 12 11 6 6 11 10 5 9 3 3 9 3 3
split_gain=2.19187e+14 2.71525e+14 1.89105e+14 2.91218e+14 4.44396e+14 4.16903e+14 3.454e+14 4.27686e+14 3.55258e+14 1.9529e+14 8.24207e+14 2.96865e+14 1.65302e+14 1.96485e+14 1.4381e+14 1.85923e+14 1.03681e+14 1.81123e+14 9.55026e+13 8.21093e+13 4.60326e+13 4.14359e+13 1.20733e+14 4.73265e+13 5.65041e+13 3.0582e+13 1.77246e+13 1.49189e+13 3.11729e+13
threshold=1.0000000180025095e-35 7.5000000000000009 1.0000000180025095e-35 5.5000000000000009 4.5000000000000009 66.500000000000014 6.5000000000000009 258.50000000000006 11.500000000000002 121.50000000000001 126.50000000000001 13.500000000000002 13.500000000000002 45.500000000000007 9.5000000000000018 4.0000000000000009 7.5000000000000009 13.500000000000002 3.5000000000000004 5.5000000000000009 16.500000000000004 2.5000000000000004 28.000000000000004 110.50000000000001 250.50000000000003 245.50000000000003 91.500000000000014 205.50000000000003 120.50000000000001
decision_type=2 2 2 2 2 2 2 2 2 2 2 2 2 2 2 2 2 2 2 2 2 2 10 2 2 2 2 2 2
left_child=1 2 21 4 5 12 7 -7 -8 11 -11 16 13 -4 19 -16 -5 -18 -14 -12 -2 27 23 24 26 -22 -23 28 -1
right_child=20 -3 3 9 -6 6 8 -9 -10 10 14 -13 18 -15 15 -17 17 -19 -20 -21 25 22 -24 -25 -26 -27 -28 -29 -30
leaf_value=-69338.902678571438 -63955.411928353657 341791.64895833336 154132.12225872002 -229774.36016235352 418073.99462890625 735183.83781250007 -28188.399772391731 96243.055181329895 205658.11069666356 636222.05734375003 -258117.51197916665 -389172.60105846776 -52786.230326704543 -13199.598853450792 97263.803391203706 -50572.78796047045 61758.165532178224 -119291.89031221984 -275523.21406249999 -34113.192942708338 -295277.74133522733 70042.079843750005 -259931.14644886364 132307.13566778274 -168436.23043478263 -145625.17881944447 -43966.997515625 -80505.780208333337 -221153.27121710527
leaf_weight=21 41 24 99 32 32 20 127 22 133 20 36 31 231 241 135 230 101 122 21 30 22 30 22 21 23 36 25 30 38
leaf_count=21 41 24 99 32 32 20 127 22 133 20 36 31 231 241 135 230 101 122 21 30 22 30 22 21 23 36 25 30 38
internal_value=0 7570.26 3287.66 14579 51911.8 38805.4 134416 400501 91433.1 -32327.7 8664.49 -96969.1 -9968.97 35523.5 -20456.5 4106.5 -61446.3 -37291.6 -71347.6 -156297 -145058 -86129 -48032.9 -944.404 -36819.8 -202390 18219.8 -137923 -167118
internal_weight=0 1897 1873 1663 926 894 302 42 260 737 451 286 592 340 431 365 255 223 252 66 99 210 121 99 78 58 55 89 59
internal_count=1996 1897 1873 1663 926 894 302 42 260 737 451 286 592 340 431 365 255 223 252 66 99 210 121 99 78 58 55 89 59
is_linear=0
shrinkage=0.1


Tree=35
num_leaves=29
num_cat=0
split_feature=12 12 11 6 9 3 3 9 3 9 11 9 12 5 12 0 0 0 11 11 8 3 8 10 0 6 0 3
split_gain=2.08483e+14 1.14555e+15 3.70674e+14 2.14606e+14 2.1759e+14 1.79404e+14 3.7953e+14 1.67797e+14 1.89402e+14 2.43436e+14 1.6511e+14 1.59405e+14 1.44572e+14 3.04513e+14 1.88586e+14 3.14122e+14 2.96454e+14 5.105e+14 2.65445e+14 1.70617e+14 2.67943e+14 1.2207e+14 8.57931e+13 8.55617e+13 1.47832e+14 1.11561e+14 7.65466e+13 1.89659e+13
threshold=16.500000000000004 13.500000000000002 10.500000000000002 6.5000000000000009 46.500000000000007 284.50000000000006 290.50000000000006 62.500000000000007 295.50000000000006 136.50000000000003 17.500000000000004 119.50000000000001 9.5000000000000018 34.000000000000007 1.5000000000000002 1.5000000000000002 1.5000000000000002 4.5000000000000009 8.5000000000000018 8.5000000000000018 4.0000000000000009 206.50000000000003 4.0000000000000009 2.5000000000000004 1.5000000000000002 6.5000000000000009 5.5000000000000009 128.50000000000003
decision_type=2 2 2 2 2 2 2 2 2 2 2 2 2 8 2 2 2 2 2 2 2 2 2 2 2 2 2 2
left_child=1 5 -3 4 -2 12 -7 -8 -9 11 -6 -10 14 19 15 -1 22 -18 -19 20 -14 -12 -16 24 -21 -25 -17 -24
right_child=3 2 -4 -5 10 6 7 8 9 -11 21 -13 13 -15 16 26 17 18 -20 23 -22 -23 27 25 -26 -27 -28 -29
leaf_value=251123.60119047621 185230.96521990743 199163.38721217107 665122.88276209682 -391405.10782877606 -329045.24833333335 393838.49474431819 -222872.94127604167 -165042.19642857145 120289.22539828432 -134788.88197115387 -173526.93547952588 432819.02239583334 427682.85952380951 -400310.34204545454 -211564.921 -318997.50641741074 481702.6346894055 -246344.55511363639 154748.29221117424 -146368.38803254272 -17405.16843904194 131359.46406250002 77045.550062499999 14222.647698177238 -32853.89996744792 -203203.56568750003 -92593.308157348642 -47408.677376302083
leaf_weight=21 27 38 31 24 30 33 24 28 51 26 29 24 21 22 25 28 41 22 66 139 38 24 25 421 657 25 32 24
leaf_count=21 27 38 31 24 30 33 24 28 51 26 29 24 21 22 25 28 41 22 66 139 38 24 25 421 657 25 32 24
internal_value=0 8669.98 408508 -120474 -61361.6 -6716.97 86260.4 19920 65090.8 128890 -141578 220299 -17478.5 -31375.3 47258.8 -81744.7 98733.1 190261 54475.1 -25136.5 141016 -35465.2 -60821.5 -33029.4 -52676.2 2035.08 -198249 16088.4
internal_weight=0 1862 69 134 110 1793 186 153 129 101 83 75 1607 1323 284 81 203 129 88 1301 59 53 74 1242 796 446 60 49
internal_count=1996 1862 69 134 110 1793 186 153 129 101 83 75 1607 1323 284 81 203 129 88 1301 59 53 74 1242 796 446 60 49
is_linear=0
shrinkage=0.1


Tree=36
num_leaves=31
num_cat=0
split_feature=5 6 9 6 0 6 9 3 12 11 6 11 12 12 0 3 9 3 3 3 3 0 1 0 3 3 9 9 12 0
split_gain=2.08568e+14 1.80703e+14 3.23002e+14 3.49793e+14 2.54026e+14 2.01027e+14 3.83503e+14 7.86153e+14 1.54986e+14 1.93563e+14 1.51462e+14 1.48205e+14 2.00763e+14 5.14522e+14 1.68298e+14 1.52284e+14 1.48001e+14 1.2663e+14 1.19303e+14 1.10264e+14 9.71288e+13 9.90413e+13 9.32883e+13 8.35869e+13 7.87097e+13 5.03374e+13 3.77667e+13 3.60702e+13 3.21322e+13 3.02923e+13
